tree
version=v4
num_class=1
num_tree_per_iteration=1
label_index=0
max_feature_idx=40
objective=binary sigmoid:1
feature_names=body_pct range_pct upper_wick_ratio lower_wick_ratio ret_1 ret_3 ret_6 ret_12 ret_24 ret_36 rsi_3 rsi_9 rsi_14 rsi_9_delta cci stoch_k stoch_d macd_hist price_vs_ema8 price_vs_ema21 ema_spread adx di_diff atr_pct atr_ratio range_vs_atr bb_pos bb_width vol_ratio vol_ratio_3 buy_pressure obv_slope ret_15m range_15m_pct ret_1h range_1h_pct ret_4h hour_sin hour_cos is_us_session pos_in_day_range
feature_infos=[-0.027859960545399361:0.023970671172033105] [0:0.046940486156205614] [0:0.99999995454545665] [0:0.99999993333333781] [-0.027338129496402797:0.024559375902918346] [-0.039384615384615462:0.037130270610446825] [-0.053846153846153877:0.054737929253808382] [-0.058809409505520938:0.063871146903637932] [-0.070879384911100463:0.10520796924152376] [-0.083243939068869288:0.12297962052002798] [0.24209716051012772:99.96753563161505] [4.1328254962512601:93.279418081603851] [7.5932640305363908:89.245697386497156] [-55.873753419178826:46.719289884263354] [-458.62068965518648:422.08672086717638] [-9.7966079692923813e-13:99.999999999999474] [-8.0567651315909146e-13:98.201737793967268] [-0.0066829958225076772:0.0065428043481849732] [-0.028411279731156442:0.027913465896853975] [-0.043311397239048144:0.048315909036064385] [-0.020709415613008927:0.022540785897367174] [7.5428678416345836:74.975866254471796] [-62.142498583195739:61.758690804503949] [0.00066672736736391608:0.011097702308885149] [0.45830474196877968:1.9136672915555626] [0:7.1875981989084003] [-0.52590304019581291:1.5379393306093427] [-0.10222557343331148:-0.0019629772989528988] [0:9.7307934653626162] [0:3.9217045939203192] [0:0.99999998795180745] [-0.12989519737511662:0.1341645877823843] [-0.039384615384615462:0.037130270610446825] [0:0.053366862237114614] [-0.058809409505520938:0.063871146903637932] [0.0021953896808651683:0.07712418298637283] [-0.095661375661375558:0.12935323383084585] [-1:1] [-1:1] [0:1] [0:0.99999999754299751]
tree_sizes=1002 911 968 900 1017 994 907 802 908 899 794 794 1009 690 695 908 798 900 888 910 888 916 1021 1019 1013 905 904 797 903 911 902 911 915 1007 905 799 800 900 799 677 1016 1022 1026 1026 1018 1002 987 910 911 1013 1024 1025 1026 1017 1013 797 1013 690 795 912 1001 905 906 1010 999 696 922 801 807 1023 801 800 1006 1021 800 915 911 800 1030 913 910 913 808 911 908 898 803 918 803 879 1022 1019 911 1014 910 1022 806 807 812 801 780 1000 1029 1018 1023 914 1020 924 1029 909 911 909 911 912 909 706 914 698 907 917 909 918 1022 919 915 698 696 695 916 907 1021 1022 593 596 594 696 694 698 700 807 997 808 702 808 707 907 1025 1021 1019 914 805 811 913 705 806 1019 698 780 808 806 906 812 701 591 695 892 913 1022 803 915 700 662 657 701 1029 1026 698 699 916 700 908 803 906 910 1019 700 909 1023 918 700 802 1026 1021 1030 1016 1012 692 808 906 918 887 590 696 592 593 888 808 805 783 804 1016 1016 1020 883 803 701 1016 698 798 694 901 920 799 914 1022 693 1023 679 590 593 807 1008 1009 1021 702 915 905 1021 1033 923 903 910 788 798 912 907 1009 693 1026 1012 595 913 697 1022 597 1017 782 1024 806 801 810 1003 1019 916 911 1023 912 1013 1017 1020 702 917 699 696 590 596 683 1001 593 596 1030 1018 913 916 1021 916 913 914 918 896 803 699 598 803 1021 1028 1031 700 1024 1022

Tree=0
num_leaves=8
num_cat=0
split_feature=27 19 23 27 22 40 40
split_gain=19.7279 33.3866 17.4662 13.179 12.9916 23.3831 6.63475
threshold=-0.021128438390034896 -0.0027187528900241317 0.003598128156154891 -0.0080864567311756865 17.90736724141777 0.81984069745827093 0.94793093230597181
decision_type=2 2 2 2 2 2 2
left_child=4 2 -2 -3 5 -1 -6
right_child=1 3 -4 -5 6 -7 -8
leaf_value=-0.10118818692009693 -0.11763911828997536 -0.10523239612884307 -0.10680421623588514 -0.098079784609269693 -0.10948791257697306 -0.085616976681381407 -0.097776901991351139
leaf_weight=655.28311806917191 285.57500052452087 1348.0623577237129 245.65198439359665 281.94289022684097 197.69725489616394 100.25600653886795 53.416386485099792
leaf_count=2487 1100 5135 937 1067 756 375 202
internal_value=-0.104481 -0.106109 -0.112616 -0.103976 -0.101012 -0.0990492 -0.106997
internal_weight=3167.88 2161.23 531.227 1630.01 1006.65 755.539 251.114
internal_count=12059 8239 2037 6202 3820 2862 958
is_linear=0
shrinkage=1


Tree=1
num_leaves=7
num_cat=0
split_feature=35 19 35 0 19 18
split_gain=23.2994 25.0759 29.7211 17.4175 18.76 13.9833
threshold=0.02245401194308597 -0.0027187528900241317 0.014364183447276293 -0.0040247262662804015 0.01360194212420073 -0.0021500592338642749
decision_type=2 2 2 2 2 2
left_child=1 2 -1 -2 -5 -3
right_child=3 5 -4 4 -6 -7
leaf_value=-0.0086059809813213567 -0.0028725269625929036 0.01529637496895787 0.0035144053393650417 0.014926966971282561 -0.00073201024479985178 0.0032364365347493391
leaf_weight=372.30185841023922 87.281514644622803 89.839633643627167 350.85398861765862 327.26877970993519 84.558753296732903 1856.2940263897181
leaf_count=1433 334 338 1335 1232 323 7064
internal_value=0.00316461 0.0020413 -0.00271137 0.00911011 0.0116875 0.00381599
internal_weight=3168.4 2669.29 723.156 499.109 411.828 1946.13
internal_count=12059 10170 2768 1889 1555 7402
is_linear=0
shrinkage=0.03


Tree=2
num_leaves=8
num_cat=0
split_feature=40 40 23 40 16 21 38
split_gain=18.3188 13.8867 20.2266 16.0563 11.4134 16.6762 9.5704
threshold=0.79034066313422946 0.057104037026281147 0.0034324550075040569 0.66016244470884444 54.318502279869399 17.394403611997578 -0.5
decision_type=2 2 2 2 2 2 2
left_child=1 2 -1 -3 5 -2 -6
right_child=4 3 -4 -5 6 -7 -8
leaf_value=-0.018731184326319542 0 0.0036643225848060844 0.0027569498199844782 -0.002650300712863895 0.011090749470015924 0.01862598833829706 0.0015955323078286599
leaf_weight=68.182820543646812 60.801920592784882 1918.964198321104 86.712754666805267 442.31101973354816 142.22074468433857 149.87971845269203 299.7845833748579
leaf_count=265 232 7299 330 1692 537 562 1142
internal_value=0.00306965 0.00189679 -0.00672441 0.00247389 0.00754864 0.0133108 0.00472072
internal_weight=3168.86 2516.17 154.896 2361.28 652.687 210.682 442.005
internal_count=12059 9586 595 8991 2473 794 1679
is_linear=0
shrinkage=0.03


Tree=3
num_leaves=7
num_cat=0
split_feature=35 12 35 5 14 21
split_gain=21.7543 26.0585 18.8742 16.6916 20.5779 14.7825
threshold=0.02245401194308597 46.244675983396228 0.013352379063631235 -0.0089626995098620581 45.44819145208065 33.446912885597804
decision_type=2 2 2 2 2 2
left_child=1 2 -1 -2 -5 -3
right_child=3 5 -4 4 -6 -7
leaf_value=-0.0056598652343798732 -0.0037213058331841053 0.0053506082387330895 0.0026527644197411053 0.017449819051757753 0.0040243496195865799 -0.0024739738028576757
leaf_weight=550.20562264323235 78.912723883986473 1428.8494272828102 438.67410473525524 218.87845931947231 201.60909323394299 252.16749639809132
leaf_count=2112 302 5424 1670 821 766 964
internal_value=0.00297774 0.00189218 -0.00195927 0.00872074 0.0110978 0.00416639
internal_weight=3169.3 2669.9 988.88 499.4 420.488 1681.02
internal_count=12059 10170 3782 1889 1587 6388
is_linear=0
shrinkage=0.03


Tree=4
num_leaves=8
num_cat=0
split_feature=35 19 35 4 19 18 32
split_gain=20.469 22.2545 26.7501 16.0171 22.1954 13.1309 6.61142
threshold=0.02245401194308597 -0.0027187528900241317 0.014364183447276293 -0.001335559414333831 0.01360194212420073 -0.0021500592338642749 -0.0089626995098620581
decision_type=2 2 2 2 2 2 2
left_child=1 2 -1 6 -5 -3 -2
right_child=3 5 -4 4 -6 -7 -8
leaf_value=-0.0082388359672238651 -0.0071912319884737735 0.014623480978362137 0.0032594112099331982 0.016756214566203308 -0.0017089789510829326 0.0029449285733567461 0.0050689106915523972
leaf_weight=372.01611818373203 55.441408753395081 89.929204612970352 351.00199431180954 246.66095858812332 74.324835568666458 1857.1566706597805 123.1399522125721
leaf_count=1433 213 338 1335 925 284 7064 467
internal_value=0.00288837 0.00183508 -0.00264253 0.00845834 0.01245 0.00350647 0.00114214
internal_weight=3169.67 2670.1 723.018 499.567 320.986 1947.09 178.581
internal_count=12059 10170 2768 1889 1209 7402 680
is_linear=0
shrinkage=0.03


Tree=5
num_leaves=8
num_cat=0
split_feature=30 35 22 22 40 28 31
split_gain=25.839 22.141 17.8627 10.7591 10.3695 16.6354 11.0702
threshold=0.44444439506172367 0.022717099121579706 23.802528519985305 -6.6662273886463597 0.79034066313422946 0.55344952223130284 0.0032805408486671485
decision_type=2 2 2 2 2 2 2
left_child=4 3 -3 -2 6 -6 -1
right_child=1 2 -4 -5 5 -7 -8
leaf_value=-0.00043087254121457961 -0.00059027271393356979 0.01750342064461621 0 0.0051578635356810858 0.013762220134637116 -0.0011858637017244532 -0.0086970861733158492
leaf_weight=1088.7126148939133 411.08071234822273 197.09983728826046 72.648092463612556 978.67071180045605 110.29614044725895 161.43780523538589 167.30993561446667
leaf_count=4156 1570 738 277 3714 415 616 643
internal_value=0.00241041 0.00500045 0.0128572 0.00344841 -0.000396032 0.00488295 -0.00155598
internal_weight=3187.26 1659.5 269.748 1389.75 1527.76 271.734 1256.02
internal_count=12129 6299 1015 5284 5830 1031 4799
is_linear=0
shrinkage=0.03


Tree=6
num_leaves=7
num_cat=0
split_feature=3 4 20 31 34 26
split_gain=18.3731 15.3684 12.6712 10.5839 6.49355 6.03657
threshold=0.44444439506172367 0.0012680298305575157 5.2105600937047923e-05 -0.0084854367624687139 -0.012498047485160922 0.82090215083867879
decision_type=2 2 2 2 2 2
left_child=1 2 -1 -3 -2 -6
right_child=4 3 -4 -5 5 -7
leaf_value=-0.0028020848059291843 0.015993571942874929 0.016346029061912494 0.0023689096716598482 0.0035127283941359501 0.0070750175548803876 -0.0017883908265876854
leaf_weight=928.244892552495 64.557832688093185 61.630890980362892 783.9799932539463 789.86791756749153 482.3923467695713 76.827684700489044
leaf_count=3552 242 231 2982 3001 1827 294
internal_value=0.00233818 0.00120513 -0.000425679 0.0044953 0.00695232 0.00582857
internal_weight=3187.5 2563.72 1712.22 851.499 623.778 559.22
internal_count=12129 9766 6534 3232 2363 2121
is_linear=0
shrinkage=0.03


Tree=7
num_leaves=6
num_cat=0
split_feature=30 20 8 36 36
split_gain=22.9598 10.6224 11.1334 7.85042 7.70351
threshold=0.44444439506172367 -0.0053966710237063785 -0.012098617235056673 0.039410175640907326 -0.03506962007922914
decision_type=2 2 2 2 2
left_child=3 -2 -3 4 -1
right_child=1 2 -4 -5 -6
leaf_value=0.0088962557056288648 0.014222915821505942 -0.0035015325971491005 0.0049211232768540504 0.010338557984101989 -0.0013062379983580931
leaf_weight=67.675448372960091 98.847021028399467 153.4215831309557 1407.8007692098618 56.974626988172531 1403.0230513215065
leaf_count=256 371 587 5341 215 5359
internal_value=0.0022689 0.00470975 0.00408041 -0.000376375 -0.000815132
internal_weight=3187.74 1660.07 1561.22 1527.67 1470.7
internal_count=12129 6299 5928 5830 5615
is_linear=0
shrinkage=0.03


Tree=8
num_leaves=7
num_cat=0
split_feature=30 21 40 5 30 19
split_gain=21.5936 12.4869 10.8995 14.3185 12.8312 7.90538
threshold=0.44444439506172367 50.160185718929647 0.26853035803852948 -0.002584869914071863 0.99999977500005144 -0.0027679753519882313
decision_type=2 2 2 2 2 2
left_child=1 5 4 -4 -2 -1
right_child=2 -3 3 -5 -6 -7
leaf_value=-0.0038137195179614846 -0.0022552500687728185 0.012232590023307875 0.013775616500336468 0.0046283117787272688 0.0096696230505397048 0.0007326752431571329
leaf_weight=544.99421444535255 342.52138824760914 65.539908230304718 183.21297980844975 1030.5410159230232 104.0681316703558 917.09965534508228
leaf_count=2089 1308 247 689 3909 393 3494
internal_value=0.00220143 -0.000363808 0.00456825 0.0060418 0.00052087 -0.000954639
internal_weight=3187.98 1527.63 1660.34 1213.75 446.59 1462.09
internal_count=12129 5830 6299 4598 1701 5583
is_linear=0
shrinkage=0.03


Tree=9
num_leaves=7
num_cat=0
split_feature=30 35 22 21 13 20
split_gain=20.317 20.016 16.4146 11.7638 10.3361 8.34761
threshold=0.44444439506172367 0.022717099121579706 23.802528519985305 50.160185718929647 13.276381268032232 2.7889548589756995e-05
decision_type=2 2 2 2 2 2
left_child=3 4 -3 5 -2 -1
right_child=1 2 -4 -5 -6 -7
leaf_value=-0.0030114603341363918 0.0016925085938062189 0.016350712795176019 -9.8405673408666656e-05 0.011870715710322999 0.0083415451561362781 0.001524374144230006
leaf_weight=792.83312234282494 1130.623159840703 197.23459284007549 72.692061707377434 65.572188198566437 260.04899153113365 669.17179799079895
leaf_count=3036 4301 738 277 247 983 2547
internal_value=0.00213618 0.0044317 0.0118976 -0.000351967 0.00295681 -0.000925879
internal_weight=3188.18 1660.6 269.927 1527.58 1390.67 1462
internal_count=12129 6299 1015 5830 5284 5583
is_linear=0
shrinkage=0.03


Tree=10
num_leaves=6
num_cat=0
split_feature=21 35 40 14 35
split_gain=25.7567 14.5451 15.3723 13.6417 6.66917
threshold=50.160185718929647 0.022717099121579706 0.054474707959241787 104.61906055417741 0.024105135533047526
decision_type=2 2 2 2 2
left_child=1 2 -1 -3 -2
right_child=4 3 -4 -5 -6
leaf_value=-0.01065143281592055 0.021806213627776395 0.010068391812070273 0.0016303583403101422 -0.0023611897763175563 0.0070865238830834102
leaf_weight=92.915593460202217 71.807167559862137 330.85407328605652 2541.644523665309 101.14260111749172 54.808520466089249
leaf_count=359 268 1247 9675 386 207
internal_value=0.00258855 0.00202989 0.00118376 0.00712624 0.0157604
internal_weight=3193.17 3066.56 2634.56 431.997 126.616
internal_count=12142 11667 10034 1633 475
is_linear=0
shrinkage=0.03


Tree=11
num_leaves=6
num_cat=0
split_feature=21 23 35 22 22
split_gain=24.2803 14.7854 13.6831 22.1104 17.61
threshold=50.160185718929647 0.0051770659581293109 0.022717099121579706 -6.6662273886463597 20.910984262872798
decision_type=2 2 2 2 2
left_child=2 -2 3 -1 -4
right_child=1 -3 4 -5 -6
leaf_value=-0.0029259758036707557 0.026189755003649839 0.0052693686859154043 0.010388585344474179 0.0029986940236492073 -0.0034735655770975404
leaf_weight=820.17847985029221 58.458975702524185 68.213133469223976 324.7626289576292 1814.4913456887007 107.28712745010853
leaf_count=3140 217 258 1223 6894 410
internal_value=0.00251137 0.0152977 0.00196871 0.00114782 0.00691162
internal_weight=3193.39 126.672 3066.72 2634.67 432.05
internal_count=12142 475 11667 10034 1633
is_linear=0
shrinkage=0.03


Tree=12
num_leaves=8
num_cat=0
split_feature=36 20 27 15 15 24 13
split_gain=14.652 16.1323 15.5955 15.3268 7.43939 6.72738 5.06711
threshold=0.025157335322553712 -0.0048060217149636236 -0.011665916847144877 71.941343517429672 24.812497774138514 1.0811877379423043 2.8921832899117406
decision_type=2 2 2 2 2 2 2
left_child=1 4 -3 6 -1 -5 -2
right_child=3 2 -4 5 -6 -7 -8
leaf_value=0.0056643008179968948 0.010356957625539367 -0.00071236550794733682 0.0042048829976698149 -0.0027993763297330305 0.017728435476986295 0.0079706166182907691 0.022084770212461718
leaf_weight=185.50450579822063 115.18793983757496 1688.9109684675932 879.35396979749203 106.39211878180504 64.180185467004776 96.820746511220932 57.182588443160057
leaf_count=702 434 6441 3340 406 240 366 213
internal_value=0.00243677 0.00168506 0.000967388 0.00799817 0.00894116 0.00228656 0.0145423
internal_weight=3193.53 2817.95 2568.26 375.583 249.685 203.213 172.371
internal_count=12142 10723 9781 1419 942 772 647
is_linear=0
shrinkage=0.03


Tree=13
num_leaves=5
num_cat=0
split_feature=9 17 12 9
split_gain=19.2696 15.7247 17.1942 12.098
threshold=-0.04192915965492227 0.0012161303408895544 60.826100393820042 0.011148887862695302
decision_type=2 2 2 2
left_child=-1 3 -3 -2
right_child=1 2 -4 -5
leaf_value=0.020072692279713856 0.0020466567138319632 0.014887498921456153 0.0023005355693708342 -0.0036066104352004288
leaf_weight=52.584351360797882 2337.2207478880882 167.13373842835426 241.47713005542755 395.32172949612141
leaf_count=196 8892 627 917 1510
internal_value=0.00236514 0.00205135 0.00753294 0.00122126
internal_weight=3193.74 3141.15 408.611 2732.54
internal_count=12142 11946 1544 10402
is_linear=0
shrinkage=0.03


Tree=14
num_leaves=5
num_cat=0
split_feature=9 17 22 27
split_gain=18.2283 14.9996 18.7286 12.1505
threshold=-0.038632863104329222 0.0012161303408895544 20.910984262872798 -0.011518380623654441
decision_type=2 2 2 2
left_child=-1 3 -3 -2
right_child=1 2 -4 -5
leaf_value=0.017864378752902192 -0.00020950797833372997 0.012319110677107295 -0.00079014821318230434 0.0040953427344737042
leaf_weight=64.537458628416061 1863.2268387824297 252.99936881661415 155.66887271404266 857.50672647356987
leaf_count=241 7101 951 593 3256
internal_value=0.00229498 0.0019579 0.00730951 0.00114378
internal_weight=3193.94 3129.4 408.668 2720.73
internal_count=12142 11901 1544 10357
is_linear=0
shrinkage=0.03


Tree=15
num_leaves=7
num_cat=0
split_feature=23 13 13 23 27 27
split_gain=20.301 15.0099 10.9065 9.61434 8.62721 8.52072
threshold=0.0061138182967214244 -10.723407063775548 7.1492869275546456 0.0026863787482661662 -0.0089253545359399469 -0.039741675267393278
decision_type=2 2 2 2 2 2
left_child=2 -2 4 -4 -1 -3
right_child=1 5 3 -5 -6 -7
leaf_value=-0.00042112188675468807 -0.004290863247822351 0.0057487133085809628 0.011454741875623835 0.0028895759846513879 0.0048054642867001469 0.017556320589721605
leaf_weight=1773.8059576898813 53.675055652856827 99.742398306727409 148.08802583813667 606.82307045161724 335.77665607631207 144.9144251793623
leaf_count=6762 205 377 558 2304 1274 542
internal_value=0.00230947 0.00974013 0.00152409 0.00461542 0.00040744 0.012889
internal_weight=3162.83 298.332 2864.49 754.911 2109.58 244.657
internal_count=12022 1124 10898 2862 8036 919
is_linear=0
shrinkage=0.03


Tree=16
num_leaves=6
num_cat=0
split_feature=35 21 13 35 38
split_gain=17.8551 17.4741 15.2305 11.5325 12.6277
threshold=0.023437499993869185 47.664810481507558 7.0345867708274925 0.040614085220541968 -0.78656609248549325
decision_type=2 2 2 2 2
left_child=1 2 -1 4 -2
right_child=3 -3 -4 -5 -6
leaf_value=-0.00054984107210934413 0.020152903950081236 0.013397587482066788 0.0046219127750070565 -0.0042012809525624238 0.0067311620246688379
leaf_weight=1914.3250768184662 81.262530192732811 101.73654486238956 695.93875399231911 59.977990359067917 309.74274235963821
leaf_count=7300 303 382 2638 229 1170
internal_value=0.00224107 0.00131244 0.000825773 0.00776184 0.00964713
internal_weight=3162.98 2712 2610.26 450.983 391.005
internal_count=12022 10320 9938 1702 1473
is_linear=0
shrinkage=0.03


Tree=17
num_leaves=7
num_cat=0
split_feature=40 9 29 25 38 26
split_gain=15.0332 13.6497 12.3344 9.31088 11.6839 9.43958
threshold=0.74975148361222066 -0.04192915965492227 0.53624884764441927 0.70858946125545896 -0.78656609248549325 0.25830275016034776
decision_type=2 2 2 2 2 2
left_child=1 -1 -3 5 -5 -2
right_child=3 2 -4 4 -6 -7
leaf_value=0.01548727812165316 0.0014267292140921709 -0.0028539785432049169 0.001988553748332041 0.011248847198748975 0.0010310436490046969 0.014344120893180365
leaf_weight=54.816776961088181 76.079002737998962 662.57973964512348 1634.7787534594536 131.51918099820614 429.11442485451698 174.17703233659267
leaf_count=205 289 2531 6217 495 1631 654
internal_value=0.00217468 0.000950678 0.000584131 0.00569565 0.00348617 0.0105191
internal_weight=3163.06 2352.18 2297.36 810.89 560.634 250.256
internal_count=12022 8953 8748 3069 2126 943
is_linear=0
shrinkage=0.03


Tree=18
num_leaves=7
num_cat=0
split_feature=23 13 13 2 40 37
split_gain=18.318 14.1379 9.63027 16.8561 9.29746 8.40199
threshold=0.0061138182967214244 -10.723407063775548 7.1492869275546456 0.047619045351481593 0.27272727132526514 -0.5
decision_type=2 2 2 2 2 2
left_child=2 -2 4 -4 -1 -3
right_child=1 5 3 -5 -6 -7
leaf_value=-0.0026408171571840125 -0.004439515584541546 0.0054403883012194443 0.010504147052232526 0.0010142608998418669 0.0016565411905126487 0.017056944846630142
leaf_weight=654.51995494961739 53.673067674040794 104.77498017251492 255.85615266859531 499.29112713038921 1455.1858509927988 139.87641502916813
leaf_count=2502 205 396 964 1898 5534 523
internal_value=0.00211074 0.00916913 0.00136461 0.00426865 0.000314977 0.0122273
internal_weight=3163.18 298.324 2864.85 755.147 2109.71 244.651
internal_count=12022 1124 10898 2862 8036 919
is_linear=0
shrinkage=0.03


Tree=19
num_leaves=7
num_cat=0
split_feature=35 26 1 40 29 40
split_gain=16.4184 13.1312 18.3058 11.1439 9.73227 8.34519
threshold=0.016899022337509839 0.71638144268450454 0.0017235438098576502 0.26101323874416615 2.2175331070403703 0.76744185798629883
decision_type=2 2 2 2 2 2
left_child=1 2 -1 -3 5 -2
right_child=4 3 -4 -5 -6 -7
leaf_value=0.0077706858042111849 0.0038295054073876639 -0.0082154179962956649 7.4484776169602223e-05 0.00013139226216988452 -0.0058950820225730054 0.0097122332858238999
leaf_weight=368.22589853405952 677.64602848887444 241.76090517640114 1134.8900593966246 343.04954858124256 65.599343493580818 332.06287674605846
leaf_count=1392 2569 931 4319 1309 251 1251
internal_value=0.0020482 0.000487735 0.00197765 -0.00330986 0.0050577 0.00579436
internal_weight=3163.23 2087.93 1503.12 584.81 1075.31 1009.71
internal_count=12022 7951 5711 2240 4071 3820
is_linear=0
shrinkage=0.03


Tree=20
num_leaves=7
num_cat=0
split_feature=20 36 20 37 27 14
split_gain=15.0162 15.3203 16.8511 15.007 13.8626 8.3116
threshold=-0.0048060217149636236 0.02621575972302637 0.00823233715950057 -0.5 -0.010744491196807491 -120.47794457209936
decision_type=2 2 2 2 2 2
left_child=3 4 -3 -1 -2 -5
right_child=1 2 -4 5 -6 -7
leaf_value=-0.003116184081659268 -0.0012025345039068942 0.01054540013111936 -0.0051196620575048894 0.0040415772815965041 0.0037003460645182048 0.01828139053351641
leaf_weight=66.114201501011848 1839.305524840951 263.83808152377605 77.750411778688431 61.256971672177315 720.32239031791687 111.37801545858383
leaf_count=252 7014 993 297 232 2734 416
internal_value=0.00158175 0.000977772 0.00692711 0.00878968 0.000173175 0.0134186
internal_weight=3139.97 2901.22 341.588 238.749 2559.63 172.635
internal_count=11938 11038 1290 900 9748 648
is_linear=0
shrinkage=0.03


Tree=21
num_leaves=7
num_cat=0
split_feature=20 40 8 37 40 32
split_gain=14.1468 17.128 15.3193 12.4278 9.73478 6.23431
threshold=-0.0048060217149636236 0.79034066313422946 -0.022567034730742282 1.0000000180025095e-35 0.044025157048111808 -0.0049133150865668931
decision_type=2 2 2 2 2 2
left_child=2 4 5 -3 -2 -1
right_child=1 3 -4 -5 -6 -7
leaf_value=-0.0048415634862054155 -0.011557518829528759 0.0096490428167180873 0.017965140778988611 0.0012312851795999557 6.2365355557885845e-05 0.0074951027192257241
leaf_weight=60.493804976344109 64.79829703271389 304.41551874577999 92.601222768425941 336.59058000147343 2195.4285132139921 85.634160339832306
leaf_count=231 251 1147 346 1278 8362 323
internal_value=0.00153481 0.000948439 0.00853151 0.00526981 -0.000274057 0.00229031
internal_weight=3139.96 2901.23 238.729 641.006 2260.23 146.128
internal_count=11938 11038 900 2425 8613 554
is_linear=0
shrinkage=0.03


Tree=22
num_leaves=8
num_cat=0
split_feature=40 19 37 31 11 30 4
split_gain=12.0853 13.8323 13.6315 21.1946 17.1479 11.4513 11.2849
threshold=0.80236039273200876 -0.0075559438417340538 1.0000000180025095e-35 0.0033595288769202136 50.998557646938274 0.78086888071385097 -0.0048184342229429791
decision_type=2 2 2 2 2 2 2
left_child=1 6 3 -2 -4 -3 -1
right_child=2 5 4 -5 -6 -7 -8
leaf_value=-0.0045841190751014825 0.0033470462263904249 -0.0015852972607500353 0.014290924924085319 0.020292179290034469 -0.0026973478083841878 0.003122751967139745 0.0096625041430604148
leaf_weight=60.610352411866188 172.40936605632305 1599.4042682498693 66.130735695362091 109.94267559051514 244.59548510611057 652.61923550069332 234.21498329937458
leaf_count=232 653 6104 248 410 932 2476 883
internal_value=0.00148945 0.00058298 0.00534184 0.0100942 0.000938512 -0.000212726 0.00667199
internal_weight=3139.93 2546.85 593.078 282.352 310.726 2252.02 294.825
internal_count=11938 9695 2243 1063 1180 8580 1115
is_linear=0
shrinkage=0.03


Tree=23
num_leaves=8
num_cat=0
split_feature=13 20 36 8 36 9 15
split_gain=13.2968 14.0682 14.4335 12.6367 11.3721 12.4652 4.16262
threshold=-12.875273204849195 -0.0048060217149636236 0.024649508195787487 -0.024958359662850312 -0.0023372289750840376 0.0094097679473097457 18.063738325913075
decision_type=2 2 2 2 2 2 2
left_child=4 3 -3 -2 6 -6 -1
right_child=1 2 -4 -5 5 -7 -8
leaf_value=-0.0024208957557751679 0.002037386112321835 0.00064927771967163053 0.0073773700467092886 0.016462625295745784 0.007482223178740692 -0.0062559279077194383 -0.013111059951132712
leaf_weight=53.544955164194107 111.84777309000492 2191.6932915002108 329.64037045836449 111.47787065804005 116.02921538054943 117.40978340804577 108.24145457148552
leaf_count=205 424 8342 1244 417 439 449 418
internal_value=0.00144572 0.00219031 0.00154001 0.00938684 -0.00367235 0.000514367 -0.00973738
internal_weight=3139.88 2744.66 2521.33 223.326 395.225 233.439 161.786
internal_count=11938 10427 9586 841 1511 888 623
is_linear=0
shrinkage=0.03


Tree=24
num_leaves=8
num_cat=0
split_feature=30 19 18 11 30 37 24
split_gain=9.7366 10.8076 12.2938 11.7819 8.98653 8.16767 2.40638
threshold=0.78086888071385097 -0.0075559438417340538 -0.0038947773872715754 23.042341072383646 0.83333330952381257 -0.91597561503675329 0.97167521810008384
decision_type=2 2 2 2 2 2 2
left_child=1 3 -3 -1 6 -6 -2
right_child=4 2 -4 -5 5 -7 -8
leaf_value=-0.0037432715554203471 0.015664598509254692 -0.0095958693059237342 0.00022069698002634571 0.010318771675568598 -0.0051664190891910992 0.0040083143921030859 0.00677733093085796
leaf_weight=73.030624940991402 62.96523705124855 120.06729282438755 1900.0507780015469 179.34729853272438 98.160171136260033 633.69602625072002 72.525912970304489
leaf_count=279 236 462 7235 676 375 2401 274
internal_value=0.00140274 0.000362215 -0.000364254 0.00619323 0.00410462 0.00274659 0.0111843
internal_weight=3139.84 2272.5 2020.12 252.378 867.347 731.856 135.491
internal_count=11938 8652 7697 955 3286 2776 510
is_linear=0
shrinkage=0.03


Tree=25
num_leaves=7
num_cat=0
split_feature=28 15 2 28 36 4
split_gain=12.37 14.8783 13.3366 14.6829 10.3579 9.04365
threshold=0.13377749055635776 21.083159177985703 0.59999997000000438 1.152969287508449 0.0021349867007040006 -0.0028584700367749179
decision_type=2 2 2 2 2 2
left_child=1 -1 5 -4 -3 -2
right_child=2 4 3 -5 -6 -7
leaf_value=-0.016648701786282118 -0.001390918668871096 -0.0058636142064681087 0.0001370728408450169 -0.014703971434880904 0.0060294978778646785 0.0034750101248398405
leaf_weight=65.569389998912811 401.75597390532494 154.06556205451488 208.81224992871284 81.079134419560432 111.58559343218803 2189.4714341908693
leaf_count=254 1533 590 795 313 422 8306
internal_value=0.00139248 -0.00406694 0.0020277 -0.00403471 -0.000804197 0.0027143
internal_weight=3212.34 331.221 2881.12 289.891 265.651 2591.23
internal_count=12213 1266 10947 1108 1012 9839
is_linear=0
shrinkage=0.03


Tree=26
num_leaves=7
num_cat=0
split_feature=29 15 38 27 9 22
split_gain=12.399 11.3183 11.3664 10.399 17.2872 7.81717
threshold=0.323461238784298 20.455379865683174 -0.37940952255126015 -0.0081744270579449368 -0.0069615664988622586 22.976435167787987
decision_type=2 2 2 2 2 2
left_child=1 -1 -3 5 -5 -2
right_child=3 2 -4 4 -6 -7
leaf_value=-0.016085369793683267 0.0019483897592371768 0.0069422863755598434 -0.0057388309877174307 -0.0071200352246469437 0.011624254872728185 -0.0036172051977007617
leaf_weight=56.537424638867378 2365.23230881989 92.827552035450935 188.93644803762436 53.638350456953049 207.48542736470699 247.71418632566929
leaf_count=219 8988 351 723 206 781 945
internal_value=0.00134986 -0.00405237 -0.00148867 0.00199334 0.00769206 0.00141266
internal_weight=3212.37 338.301 281.764 2874.07 261.124 2612.95
internal_count=12213 1293 1074 10920 987 9933
is_linear=0
shrinkage=0.03


Tree=27
num_leaves=6
num_cat=0
split_feature=29 15 20 21 5
split_gain=11.6783 10.6838 10.8171 6.29939 7.18854
threshold=0.323461238784298 20.455379865683174 0.0018051168018970514 10.807518555572036 0.0013039226493191116
decision_type=2 2 2 2 2
left_child=1 -1 -3 -2 -5
right_child=3 2 -4 4 -6
leaf_value=-0.015630451505050155 0.011999419928845267 0.0014249247937026645 -0.013146505420153783 0.0005252737907718249 0.0036526461170137453
leaf_weight=56.496262907981873 53.435384392738342 226.68929575383663 55.057453900575638 1741.4254547208548 1079.3353375792503
leaf_count=219 201 862 212 6629 4090
internal_value=0.00130883 -0.00393414 -0.00144228 0.00193335 0.00172898
internal_weight=3212.44 338.243 281.747 2874.2 2820.76
internal_count=12213 1293 1074 10920 10719
is_linear=0
shrinkage=0.03


Tree=28
num_leaves=7
num_cat=0
split_feature=2 40 13 27 10 10
split_gain=11.2756 9.01397 18.1846 12.177 5.28631 7.87431
threshold=0.59999997000000438 0.27272727132526514 5.0305097648953288 -0.0098095116865632489 75.97825992325177 52.571241291917538
decision_type=2 2 2 2 2 2
left_child=1 2 -1 -3 5 -2
right_child=4 3 -4 -5 -6 -7
leaf_value=-0.0036354597906825808 -0.0064684076803681132 0.0019208094522611548 0.0058367159920535115 0.0082878693541141545 -0.01202237580953967 0.0041977427207583609
leaf_weight=592.7314330637455 150.22569823265076 1724.6345439851284 260.62544080615044 322.1738458275795 60.01213102042675 102.07528118789196
leaf_count=2268 576 6549 986 1216 231 387
internal_value=0.00126947 0.00185689 -0.000718124 0.00293744 -0.00411472 -0.00209506
internal_weight=3212.48 2900.17 853.357 2046.81 312.313 252.301
internal_count=12213 11019 3254 7765 1194 963
is_linear=0
shrinkage=0.03


Tree=29
num_leaves=7
num_cat=0
split_feature=28 2 28 32 20 13
split_gain=11.2803 11.8637 13.8683 10.7238 10.4092 8.78344
threshold=0.13377749055635776 0.59999997000000438 1.152969287508449 0.0016423058416352723 -0.00030795220353696393 -8.4346287701564346
decision_type=2 2 2 2 2 2
left_child=3 5 -3 4 -1 -2
right_child=1 2 -4 -5 -6 -7
leaf_value=-0.012775829340376743 -0.00061562942692826761 0.00017197240202657715 -0.014253087925290987 0.0055156469444826326 -0.00049213688049917813 0.0034627813883878248
leaf_weight=131.75926652550697 617.25796341896057 208.79642216861248 81.031111285090446 78.260466456413269 121.11044445633888 1974.256631821394
leaf_count=509 2353 795 313 296 461 7486
internal_value=0.00123135 0.00183811 -0.00387968 -0.00398278 -0.00700151 0.00248586
internal_weight=3212.47 2881.34 289.828 331.13 252.87 2591.51
internal_count=12213 10947 1108 1266 970 9839
is_linear=0
shrinkage=0.03


Tree=30
num_leaves=7
num_cat=0
split_feature=36 16 3 22 36 16
split_gain=13.1691 21.6081 8.48887 8.71977 5.2848 3.14346
threshold=0.029138165275894971 66.87541368096818 0.437499972656268 -7.9992918837725577 0.016290310217031981 83.384162640697596
decision_type=2 2 2 2 2 2
left_child=2 -2 3 -1 -4 -3
right_child=1 5 4 -5 -6 -7
leaf_value=-0.0028460697570800247 0.018088961633019263 -0.0032541599676087314 0.004965370183014647 0.0010798755378803933 -0.0036979029104811365 0.0046530281750020571
leaf_weight=751.34760624170303 104.46203908324242 82.68349277973175 502.31667612493038 1565.3778391182423 68.978988856077194 93.322570994496346
leaf_count=2873 390 315 1902 5950 263 353
internal_value=0.00122501 0.00741235 0.00061423 -0.000188253 0.00388394 0.000859325
internal_weight=3168.49 280.468 2888.02 2316.73 571.296 176.006
internal_count=12046 1058 10988 8823 2165 668
is_linear=0
shrinkage=0.03


Tree=31
num_leaves=7
num_cat=0
split_feature=36 26 35 27 23 37
split_gain=12.4086 16.6522 11.2595 15.4795 14.672 8.21635
threshold=0.029138165275894971 0.36025420448081635 0.02245401194308597 -0.033805269788045933 0.005575375623998023 1.0000000180025095e-35
decision_type=2 2 2 2 2 2
left_child=2 5 4 -4 -1 -2
right_child=1 -3 3 -5 -6 -7
leaf_value=0.00041086068720594767 0.0087595611394544574 0.018052652106115754 -0.0014937277386547882 0.01102733160395729 -0.010149269060842982 -0.0034324503364347942
leaf_weight=2410.4846564531326 90.272528499364853 85.980175450444221 153.78386604785919 201.25941641628742 122.49247007071972 104.16920740902424
leaf_count=9176 340 321 585 757 470 397
internal_value=0.00118864 0.00719534 0.000595635 0.00558395 -0.000101505 0.00218307
internal_weight=3168.44 280.422 2888.02 355.043 2532.98 194.442
internal_count=12046 1058 10988 1342 9646 737
is_linear=0
shrinkage=0.03


Tree=32
num_leaves=7
num_cat=0
split_feature=35 4 26 23 18 6
split_gain=10.7481 12.7114 12.3418 22.1038 14.7625 9.97167
threshold=0.02245401194308597 -0.0036256425479603833 0.72797727364063092 0.0029060137139819754 -0.0013302193550739682 0.016415460744620639
decision_type=2 2 2 2 2 2
left_child=2 -2 4 -4 -1 -3
right_child=1 5 3 -5 -6 -7
leaf_value=0.0094541067854365269 -0.0044693636998505287 0.0095876334786161553 -0.010446995159841316 0.00055019657277576126 0.00078692936363984319 -0.003527221310750321
leaf_weight=196.133111089468 94.814279332756996 337.33725020289421 234.18633539974689 533.80484722554684 1713.3540177345276 58.747186928987503
leaf_count=740 362 1270 904 2035 6511 224
internal_value=0.00115345 0.00522719 0.000397613 -0.00280216 0.00169399 0.00759681
internal_weight=3168.38 490.899 2677.48 767.991 1909.49 396.084
internal_count=12046 1856 10190 2939 7251 1494
is_linear=0
shrinkage=0.03


Tree=33
num_leaves=8
num_cat=0
split_feature=30 23 37 19 22 23 18
split_gain=10.207 10.3174 12.8804 11.4784 6.07347 17.4687 8.92294
threshold=0.41666664062499797 0.005043590566850273 -0.5 0.005155178989645042 -5.03213382216732 0.002947793979887581 -0.00076402713819954482
decision_type=2 2 2 2 2 2 2
left_child=4 3 -3 -2 5 -1 -6
right_child=1 2 -4 -5 6 -7 -8
leaf_value=-0.011021097055456081 0.0028446525658085264 0.00090242677616665765 0.012180962869096944 -0.0040448189611572436 0.0048528045022261015 0.00025997080299768765 -0.0014252709089336982
leaf_weight=173.19067923724651 1069.4698654860258 170.48712147772312 202.55968910455704 269.82671338319778 317.98148228228092 410.42059536278248 554.26623173058033
leaf_count=670 4057 647 761 1029 1205 1565 2112
internal_value=0.00111894 0.00268958 0.00709882 0.00144149 -0.000719273 -0.00308836 0.000852135
internal_weight=3168.2 1712.34 373.047 1339.3 1455.86 583.611 872.248
internal_count=12046 6494 1408 5086 5552 2235 3317
is_linear=0
shrinkage=0.03


Tree=34
num_leaves=7
num_cat=0
split_feature=36 16 35 27 23 21
split_gain=11.2952 19.3779 9.72801 14.665 14.1804 8.50185
threshold=0.029138165275894971 66.87541368096818 0.02245401194308597 -0.033805269788045933 0.005575375623998023 34.647223415859123
decision_type=2 2 2 2 2 2
left_child=2 -2 4 -4 -1 -3
right_child=1 5 3 -5 -6 -7
leaf_value=0.00037584571812248116 0.016936310265767408 0.010481175248787906 -0.0017293250258303475 0.010459529346720071 -0.010006062547150481 -0.0036415898791343423
leaf_weight=2410.3802542090416 104.31289023160934 53.196495845913887 153.72037592530251 201.17127899825573 122.47887136042118 122.79307381808758
leaf_count=9176 390 200 585 757 470 468
internal_value=0.00108564 0.00681761 0.000519742 0.00515783 -0.000127763 0.000612839
internal_weight=3168.05 280.302 2887.75 354.892 2532.86 175.99
internal_count=12046 1058 10988 1342 9646 668
is_linear=0
shrinkage=0.03


Tree=35
num_leaves=6
num_cat=0
split_feature=21 37 2 27 5
split_gain=20.4717 17.7114 12.6813 9.88857 8.11188
threshold=49.394675878193617 0.60355339059327384 0.57979624025499288 -0.010744491196807491 -0.0029477006609561758
decision_type=2 2 2 2 2
left_child=2 -2 3 -1 -4
right_child=1 -3 4 -5 -6
leaf_value=0.00037578238455387324 0.0031940257526638116 0.025122974681099634 -0.014613673254848173 0.0045954284531665359 -0.0024645938098448615
leaf_weight=2068.1924662441015 82.683517530560493 56.33500748872757 59.48126246035099 661.42452421784401 286.94107441604137
leaf_count=7868 313 209 230 2507 1096
internal_value=0.00123315 0.012417 0.000715089 0.00140637 -0.00466557
internal_weight=3215.06 139.019 3076.04 2729.62 346.422
internal_count=12223 522 11701 10375 1326
is_linear=0
shrinkage=0.03


Tree=36
num_leaves=6
num_cat=0
split_feature=21 27 30 27 21
split_gain=19.3196 13.0081 10.9673 9.40786 8.07568
threshold=49.394675878193617 -0.028534766404806757 0.41666664062499797 -0.011585779609104244 31.330574108135568
decision_type=2 2 2 2 2
left_child=2 -2 3 -1 -4
right_child=1 -3 4 -5 -6
leaf_value=-0.0028208688708069888 0.0032832910489406682 0.021943309280364198 0.0034673208100313752 0.0025125092234813116 -0.0015575834046636431
leaf_weight=1000.2252648770809 75.807274341583252 63.176772311329842 1292.5740119665861 419.00367040932178 364.26120847463608
leaf_count=3822 287 235 4898 1594 1387
internal_value=0.0011966 0.0120628 0.000693244 -0.0012344 0.00235299
internal_weight=3215.05 138.984 3076.06 1419.23 1656.84
internal_count=12223 522 11701 5416 6285
is_linear=0
shrinkage=0.03


Tree=37
num_leaves=7
num_cat=0
split_feature=40 7 37 37 7 37
split_gain=9.45947 16.7352 19.4833 10.9849 28.4245 21.7272
threshold=0.81984069745827093 -0.00091589072505110492 1.0000000180025095e-35 -0.60355339059327362 -0.00091589072505110492 -0.5
decision_type=2 2 2 2 2 2
left_child=3 -2 -3 4 -1 -5
right_child=1 2 -4 5 -6 -7
leaf_value=-0.0084159213023240961 0.016330853843893951 0.0087406094520499321 -0.0037656210374557054 0.014276075979426036 0.0028994736570969429 0.0008449083353611578
leaf_weight=381.36934725940228 91.934661939740181 216.06394208967686 227.15432299673557 113.804457873106 413.12627346813679 1771.5347584933043
leaf_count=1464 344 814 866 428 1567 6740
internal_value=0.00116136 0.00479777 0.00230921 0.000426555 -0.00252074 0.00167787
internal_weight=3214.99 535.153 443.218 2679.83 794.496 1885.34
internal_count=12223 2024 1680 10199 3031 7168
is_linear=0
shrinkage=0.03


Tree=38
num_leaves=6
num_cat=0
split_feature=21 30 1 27 35
split_gain=18.3721 10.4811 10.7806 10.3204 9.99178
threshold=50.160185718929647 0.41666664062499797 0.0018445322788288615 -0.028534766404806757 0.020260978586675502
decision_type=2 2 2 2 2
left_child=1 2 -1 -2 -3
right_child=3 4 -4 -5 -6
leaf_value=0.0035452994448478175 0.0040101610419888125 0.0010446412991457004 -0.0026499500697919395 0.021511489866211542 0.0067203637433395635
leaf_weight=324.65245601534843 69.784039035439491 1307.547051653266 1098.9854791164398 57.251564398407936 356.72418202459812
leaf_count=1234 264 4966 4199 213 1347
internal_value=0.00112739 0.000658365 -0.00122365 0.012225 0.0022768
internal_weight=3214.94 3087.91 1423.64 127.036 1664.27
internal_count=12223 11746 5433 477 6313
is_linear=0
shrinkage=0.03


Tree=39
num_leaves=5
num_cat=0
split_feature=9 40 17 17
split_gain=9.43756 13.3669 11.7744 6.09706
threshold=-0.038632863104329222 0.063891637540351251 -0.0021499134145487406 -0.0010231012922985239
decision_type=2 2 2 2
left_child=-1 3 -3 -2
right_child=1 2 -4 -5
leaf_value=0.012589995553936899 0 -0.012107128330869337 0.0015869758139642272 -0.011925002995058311
leaf_weight=61.217329427599907 61.661422297358513 55.416134387254715 2935.618699863553 100.86563862860203
leaf_count=230 235 213 11154 391
internal_value=0.00109468 0.000858944 0.00132033 -0.0074537
internal_weight=3214.78 3153.56 2991.03 162.527
internal_count=12223 11993 11367 626
is_linear=0
shrinkage=0.03


Tree=40
num_leaves=8
num_cat=0
split_feature=35 37 22 10 27 22 35
split_gain=10.1305 11.3589 19.6187 13.5653 8.8873 17.7135 15.1491
threshold=0.022717099121579706 -0.60355339059327362 18.133411121957238 35.765060726432814 -0.011111479725728955 -7.8496498202728846 0.010454943804174733
decision_type=2 2 2 2 2 2 2
left_child=4 3 -3 -2 6 -6 -1
right_child=1 2 -4 -5 5 -7 -8
leaf_value=-0.0065412624753057418 -0.013404833199934624 0.01360436893136438 -0.0021856000464052006 0.0046778257038558946 -0.0044282413926647161 0.0058476049174216475 0.00063716881150241379
leaf_weight=313.55395382642746 52.478792816400528 218.40029272437096 101.39116613566875 115.80659872293472 199.0150605738163 593.01513609290123 1624.9353158324957
leaf_count=1202 202 820 386 438 763 2242 6182
internal_value=0.00128548 0.00526088 0.00856901 -0.000964266 0.000566064 0.00324203 -0.00052177
internal_weight=3218.6 488.077 319.791 168.285 2730.52 792.03 1938.49
internal_count=12235 1846 1206 640 10389 3005 7384
is_linear=0
shrinkage=0.03


Tree=41
num_leaves=8
num_cat=0
split_feature=13 34 15 38 9 29 38
split_gain=12.3135 12.5587 11.1749 8.63958 7.42572 6.05847 3.55733
threshold=-10.931028433384386 -0.0097868465979219482 18.996971031854109 0.91597561503675351 -0.0098176369165006144 1.3073682320319573 1.0000000180025095e-35
decision_type=2 2 2 2 2 2 2
left_child=4 2 -2 -3 6 -6 -1
right_child=1 3 -4 -5 5 -7 -8
leaf_value=-0.013734295950417188 0.0032097535533473364 0.0019466189994860874 0.014247157980717849 -0.0035885628282989876 -0.0028841362030890497 0.0056817559551642178 -0.0031912200504927912
leaf_weight=69.253180056810379 236.58335071802139 2027.4790440499783 130.46734781563282 286.59048822522163 315.0888104736805 94.488155111670494 58.441682726144791
leaf_count=268 898 7700 490 1094 1203 358 224
internal_value=0.00124683 0.00208081 0.00722957 0.00125212 -0.00287944 -0.000853559 -0.00914836
internal_weight=3218.39 2681.12 367.051 2314.07 537.272 409.577 127.695
internal_count=12235 10182 1388 8794 2053 1561 492
is_linear=0
shrinkage=0.03


Tree=42
num_leaves=8
num_cat=0
split_feature=13 35 6 17 8 20 9
split_gain=11.6017 13.9417 13.2843 11.9828 10.3339 8.64569 7.41273
threshold=-10.931028433384386 0.02245401194308597 0.0086874186268041127 -0.00023076150763878212 -0.012734624411237015 0.0017551776250659212 0.0091384424652056779
decision_type=2 2 2 2 2 2 2
left_child=3 5 -3 4 -1 -2 -5
right_child=1 2 -4 6 -6 -7 -8
leaf_value=-0.0010360432026204367 0.0021251797306580328 0.010902619746581212 -0.00055450687074006671 0.0030359457106959044 -0.017852234759132949 -0.0022182965159842087 -0.0053008964792578481
leaf_weight=61.954251423478127 1740.4060152173042 272.8016612380743 132.33137494325638 247.35032154619694 74.007552728056908 535.57859136164188 153.89371117949486
leaf_count=237 6612 1027 503 940 288 2040 588
internal_value=0.00120934 0.00201892 0.00713912 -0.00279583 -0.0104244 0.00109545 -0.000134813
internal_weight=3218.32 2681.12 405.133 537.206 135.962 2275.98 401.244
internal_count=12235 10182 1530 2053 525 8652 1528
is_linear=0
shrinkage=0.03


Tree=43
num_leaves=8
num_cat=0
split_feature=13 19 17 8 8 27 8
split_gain=10.9333 11.7848 11.3101 11.245 10.7899 10.0168 9.74875
threshold=-10.931028433384386 -0.005879023472137041 -0.00023076150763878212 -0.024958359662850312 -0.010023724525501708 -0.01126856466954866 -0.012734624411237015
decision_type=2 2 2 2 2 2 2
left_child=2 3 6 -2 -3 -4 -1
right_child=1 4 5 -5 -6 -7 -8
leaf_value=-0.0010059822300661464 -0.00070667434771220952 -0.0044785704317209397 -0.0029287672452062165 0.010870059223179039 0.0019227980492501926 0.0078825128007840549 -0.017351596348966644
leaf_weight=61.951211929321289 107.68795923888683 264.4474815428257 299.71387369930744 231.95427671074867 2076.9422029703856 101.54955625534058 73.917639672756195
leaf_count=237 410 1012 1144 875 7885 384 288
internal_value=0.00117249 0.00195848 -0.00271556 0.00717295 0.00119019 -0.000129987 -0.0101301
internal_weight=3218.16 2681.03 537.132 339.642 2341.39 401.263 135.869
internal_count=12235 10182 2053 1285 8897 1528 525
is_linear=0
shrinkage=0.03


Tree=44
num_leaves=8
num_cat=0
split_feature=13 35 6 40 21 17 1
split_gain=10.2996 13.0183 12.4277 11.1961 10.6077 7.8051 6.87161
threshold=-10.931028433384386 0.02245401194308597 0.0086874186268041127 0.48866207142118179 50.160185718929647 -0.00023076150763878212 0.0029468232402521184
decision_type=2 2 2 2 2 2 2
left_child=3 4 -3 5 -2 -1 -5
right_child=1 2 -4 6 -6 -7 -8
leaf_value=-0.013498295102117181 0.00065281627317146989 0.010491663854916377 -0.00058802931876322264 0.0085641201377507463 0.013100854457041036 -0.0027135355876196773 -0.0015620660810918047
leaf_weight=102.52279502153397 2214.5318545401096 272.59117376804352 132.32982775568962 84.475975126028061 61.592192575335503 157.0057460963726 193.03018437325954
leaf_count=398 8421 1027 503 319 231 600 736
internal_value=0.00113681 0.00189972 0.00684882 -0.00263695 0.00100745 -0.00710189 0.00150602
internal_weight=3218.08 2681.05 404.921 537.035 2276.12 259.529 277.506
internal_count=12235 10182 1530 2053 8652 998 1055
is_linear=0
shrinkage=0.03


Tree=45
num_leaves=8
num_cat=0
split_feature=3 40 39 28 30 40 27
split_gain=9.72301 9.51203 12.7131 9.10697 11.2047 8.57321 4.72279
threshold=0.59999994000001167 0.79034066313422946 1.0000000180025095e-35 0.85325644906086373 0.99999958333351402 0.66016244470884444 -0.016256533005750435
decision_type=2 2 2 2 2 2 2
left_child=1 5 -3 4 -2 -1 -5
right_child=3 2 -4 6 -6 -7 -8
leaf_value=0 0.014714082387158024 0.00040150563354045249 0.0099596491117534356 0.0053278239519092743 -0.00091130315958963624 -0.0048274922778182043 -0.0064463770878161594
leaf_weight=1887.1191629469395 127.18943065404892 400.23810732364655 182.79871125519276 56.309974268078804 57.814370274543762 398.13580122590065 61.955643206834793
leaf_count=7188 477 1520 688 213 220 1522 237
internal_value=0.000576116 2.91128e-05 0.0034477 0.0056664 0.00979336 -0.000838765 -0.000720213
internal_weight=3171.56 2868.29 583.037 303.269 185.004 2285.25 118.266
internal_count=12065 10918 2208 1147 697 8710 450
is_linear=0
shrinkage=0.03


Tree=46
num_leaves=8
num_cat=0
split_feature=36 29 35 3 29 26 16
split_gain=12.4178 11.6567 9.71683 7.69316 7.70214 6.11596 3.08076
threshold=0.029138165275894971 0.82304030074545398 0.02194439754395526 0.59999991000003172 0.78672899450022149 0.72797727364063092 66.87541368096818
decision_type=2 2 2 2 2 2 2
left_child=3 6 -3 5 -5 -1 -2
right_child=1 2 -4 4 -6 -7 -8
leaf_value=0.00043514732787169376 0.018436338524111945 0.010026892438361006 -0.0048078529025840045 0.0096764687820084828 0 -0.002688673627080463 0.0077514906052651954
leaf_weight=1783.1616553813219 61.539961785078049 64.601597011089325 95.62221585214138 137.76904502511024 151.2221420109272 819.18562476336956 58.356374904513359
leaf_count=6778 230 243 365 519 575 3135 220
internal_value=0.000559321 0.00656724 0.00113087 -2.16935e-05 0.0045992 -0.000543742 0.0135713
internal_weight=3171.46 280.12 160.224 2891.34 288.991 2602.35 119.896
internal_count=12065 1058 608 11007 1094 9913 450
is_linear=0
shrinkage=0.03


Tree=47
num_leaves=7
num_cat=0
split_feature=36 22 37 3 38 36
split_gain=11.7176 11.2827 11.4685 7.23985 7.91362 6.15909
threshold=0.029138165275894971 10.378719077853232 1.0000000180025095e-35 0.59999991000003172 -0.60355339059327384 -0.0163761045531951
decision_type=2 2 2 2 2 2
left_child=3 -2 -3 5 -5 -1
right_child=1 2 -4 4 -6 -7
leaf_value=0.0024929806337054437 0.017251402725890461 0.010300773296026564 -0.0033950218173116522 0.012287429673167719 0.0012317659800652389 -0.0012336667899903125
leaf_weight=488.25047242641449 64.392785459756851 100.21004475653172 115.43273669481277 81.436118066310883 207.55024416744709 2114.0350424796343
leaf_count=1857 241 377 440 306 788 8056
internal_value=0.000543458 0.00638049 0.00293672 -2.07256e-05 0.00446183 -0.000527322
internal_weight=3171.31 280.036 215.643 2891.27 288.986 2602.29
internal_count=12065 1058 817 11007 1094 9913
is_linear=0
shrinkage=0.03


Tree=48
num_leaves=7
num_cat=0
split_feature=36 22 25 27 39 22
split_gain=11.0457 10.6528 8.85934 9.50006 8.77409 8.19595
threshold=0.029138165275894971 10.378719077853232 0.61723918835207181 -0.0081744270579449368 1.0000000180025095e-35 -22.310483635486076
decision_type=2 2 2 2 2 2
left_child=2 -2 5 -4 -3 -1
right_child=1 4 3 -5 -6 -7
leaf_value=0.012836906848563295 0.016767763089008961 -0.0010062503191752478 -0.0017133254975037347 0.0049903903609562952 0.012035661173669627 0.0017349748989026817
leaf_weight=64.166650414466858 64.321356683969498 151.98302021622658 1897.8535141944885 208.63010317087173 63.629669293761253 720.56781740486622
leaf_count=242 241 578 7237 790 239 2738
internal_value=0.000528208 0.00619653 -1.9331e-05 -0.00103816 0.00284887 0.00269216
internal_weight=3171.15 279.934 2891.22 2106.48 215.613 784.734
internal_count=12065 1058 11007 8027 817 2980
is_linear=0
shrinkage=0.03


Tree=49
num_leaves=8
num_cat=0
split_feature=36 9 8 8 28 8 26
split_gain=10.4155 11.0538 18.251 13.2932 9.89264 4.95287 4.87042
threshold=0.029138165275894971 0.011148887862695302 0.0079077969477734395 0.0096647897822947932 0.63115120771971644 0.015923465991020239 0.2780924320405001
decision_type=2 2 2 2 2 2 2
left_child=1 3 -3 -1 6 -6 -2
right_child=4 2 -4 -5 5 -7 -8
leaf_value=0.0014910238400297374 0.0056813725694646678 -0.012467968397099056 -0.00014328030692127596 -0.006766982395871461 -0.0060677312959649459 0.0048156666455278314 0.01892941499167904
leaf_weight=2200.0802335739136 54.259953185915947 157.06077501177788 345.83404672145844 188.21538986265659 52.822375282645226 115.00429445505142 57.740574702620506
leaf_count=8368 205 604 1315 720 202 435 216
internal_value=0.000513537 -1.79154e-05 -0.0040563 0.000828839 0.00601892 0.00127074 0.0128551
internal_weight=3171.02 2891.19 502.895 2388.3 279.827 167.827 112.001
internal_count=12065 11007 1919 9088 1058 637 421
is_linear=0
shrinkage=0.03


Tree=50
num_leaves=8
num_cat=0
split_feature=12 27 39 23 18 23 9
split_gain=13.2979 22.3011 13.3601 18.5088 13.2145 10.0367 3.53085
threshold=48.378661415959947 -0.0076343379210714168 1.0000000180025095e-35 0.002947793979887581 -0.001274787133542836 0.0034167439326928616 0.002980985173389961
decision_type=2 2 2 2 2 2 2
left_child=2 4 5 -4 -2 -1 -3
right_child=1 6 3 -5 -6 -7 -8
leaf_value=-0.0029083400323815607 0.0094839966499468201 0.0085424182660813249 -0.018965495054424936 -0.0031263216137168964 0.00023486678313588128 0.0031838806053043952 0.019444487914969045
leaf_weight=466.27453538775444 152.50842602550983 69.06983944773674 79.308872044086456 391.14008751511574 1429.3521901965141 503.90188345313072 61.184533447027206
leaf_count=1785 575 260 308 1495 5432 1914 228
internal_value=0.000358165 0.00214818 -0.00175882 -0.00589724 0.0011469 0.000240522 0.0139935
internal_weight=3152.74 1712.11 1440.63 470.449 1581.86 970.176 130.254
internal_count=11997 6495 5502 1803 6007 3699 488
is_linear=0
shrinkage=0.03


Tree=51
num_leaves=8
num_cat=0
split_feature=4 20 20 35 17 38 13
split_gain=13.7391 12.3511 18.4432 13.041 8.14425 12.8497 4.7456
threshold=-0.0030814814923025287 -0.00025604957278264347 0.0011883442538307522 0.017889057252419179 0.00057381000225428791 0.37940952255126048 -11.625865347114949
decision_type=2 2 2 2 2 2 2
left_child=4 3 -3 -2 5 -1 -6
right_child=1 2 -4 -5 6 -7 -8
leaf_value=-0.013378924220224632 -0.0027959016243062984 0.0073235708619589328 0.00037401019284286031 0.0040759841360804658 -0.0042566907255625905 0.0013971853415850062 0.0073636243846979333
leaf_weight=155.7477533519268 981.76916567981243 543.57616528868675 942.79755643010139 329.4438474625349 66.72690249979496 76.601873263716698 55.887626141309738
leaf_count=602 3753 2052 3583 1249 255 292 211
internal_value=0.000347881 0.00105886 0.00293201 -0.00105433 -0.00518808 -0.00847313 0.000952646
internal_weight=3152.55 2797.59 1486.37 1311.21 354.964 232.35 122.615
internal_count=11997 10637 5635 5002 1360 894 466
is_linear=0
shrinkage=0.03


Tree=52
num_leaves=8
num_cat=0
split_feature=12 23 21 6 23 1 38
split_gain=11.9532 20.1918 22.3583 22.3264 11.303 16.6341 9.29184
threshold=48.378661415959947 0.0031155270846634727 31.330574108135568 -0.004432552587391613 0.0033381066071727339 0.0033505826327364326 0.25881904510252057
decision_type=2 2 2 2 2 2 2
left_child=4 2 -2 -3 6 -6 -1
right_child=1 3 -4 -5 5 -7 -8
leaf_value=-0.0084796174332436199 0.0097102093963650268 0.012939609629643535 -0.0085151939840369915 -0.0013078974268409386 0.0057747286581895001 -0.0027511235644521468 -0.00073755459561613505
leaf_weight=307.02209617197514 425.48494286835194 106.6373987942934 68.12359955906868 1111.7942343056202 329.60263614356518 540.20480281114578 263.44906556606293
leaf_count=1182 1602 401 261 4231 1249 2064 1007
internal_value=0.000337607 0.00203487 0.00714042 -2.95003e-05 -0.00166953 0.000468272 -0.00494553
internal_weight=3152.32 1712.04 493.609 1218.43 1440.28 869.807 570.471
internal_count=11997 6495 1863 4632 5502 3313 2189
is_linear=0
shrinkage=0.03


Tree=53
num_leaves=8
num_cat=0
split_feature=12 37 27 6 17 35 9
split_gain=11.2526 23.3239 20.1684 18.6135 17.342 15.6537 3.34375
threshold=48.378661415959947 -0.60355339059327362 -0.0076343379210714168 -0.004432552587391613 -0.00019705776656453599 0.017889057252419179 0.002980985173389961
decision_type=2 2 2 2 2 2 2
left_child=1 4 3 -2 -1 -3 -4
right_child=2 5 6 -5 -6 -7 -8
leaf_value=-0.0030440948115868756 0.012646961081579576 -0.0015415258584631935 0.0079518649174055798 0.00010128814323040454 -0.016390309787475337 0.0066437008944277088 0.018534712574777758
leaf_weight=247.53161813318729 112.97770015895367 767.9701301753521 69.047075480222702 1468.80232411623 137.91477580368519 286.73062884807587 61.15134397149086
leaf_count=947 425 2936 260 5582 534 1085 228
internal_value=0.000327193 -0.00162018 0.00197409 0.00102167 -0.00791811 0.000677875 0.0132411
internal_weight=3152.13 1440.15 1711.98 1581.78 385.446 1054.7 130.198
internal_count=11997 5502 6495 6007 1481 4021 488
is_linear=0
shrinkage=0.03


Tree=54
num_leaves=8
num_cat=0
split_feature=36 27 7 13 36 15 15
split_gain=13.1187 17.5636 12.2976 9.72579 8.49669 8.14737 4.51031
threshold=-0.0025671127513051113 -0.0077095536035936309 -0.012498047485160922 -13.064843676285429 -0.0163761045531951 50.302212407474379 21.92982456140253
decision_type=2 2 2 2 2 2 2
left_child=3 2 -2 6 -5 -3 -1
right_child=1 5 -4 4 -6 -7 -8
leaf_value=-0.0021163097057293224 0.013105298328882152 0.0048128645960783985 0.00056511240016635079 0.0021990320968918453 -0.0028884208981177334 0.019748436980750281 -0.012873750125100869
leaf_weight=61.935880348086357 72.003217145800591 73.2072933614254 1540.6489147990942 475.2295558154583 766.72483567893505 66.310731664299965 95.744416907429695
leaf_count=238 271 277 5857 1807 2929 247 371
internal_value=0.000318027 0.00205088 0.00114985 -0.00184042 -0.000929261 0.0121963 -0.00882166
internal_weight=3151.8 1752.17 1612.65 1399.63 1241.95 139.518 157.68
internal_count=11997 6652 6128 5345 4736 524 609
is_linear=0
shrinkage=0.03


Tree=55
num_leaves=6
num_cat=0
split_feature=28 8 17 22 30
split_gain=7.4247 8.75637 8.71955 8.45529 6.64348
threshold=2.8972955207534539 0.021343610618895229 0.0018888611190056206 28.394535619919392 0.49999975000019442
decision_type=2 2 2 2 2
left_child=1 2 -1 -3 -2
right_child=4 3 -4 -5 -6
leaf_value=0.00088245726792463214 -0.01151159280707585 0.011578557455816216 0.012308504253664814 -0.00088968479651170128 0.00055439080984514741
leaf_weight=2745.4133890718222 73.323346301913261 143.20825897157192 59.747993096709251 70.210038900375366 85.043066814541817
leaf_count=10446 283 539 225 267 323
internal_value=0.00125756 0.00159458 0.00113976 0.00743696 -0.00501249
internal_weight=3176.95 3018.58 2805.16 213.418 158.366
internal_count=12083 11477 10671 806 606
is_linear=0
shrinkage=0.03


Tree=56
num_leaves=8
num_cat=0
split_feature=40 38 37 37 8 40 21
split_gain=10.9382 10.8233 10.9502 9.02616 9.42151 8.97549 7.76509
threshold=0.79034066313422946 -0.37940952255126015 0.12940952255126045 -0.91597561503675329 0.0091301045689885525 0.69667526022292392 19.603193812200704
decision_type=2 2 2 2 2 2 2
left_child=3 6 -3 4 -1 -5 -2
right_child=1 2 -4 5 -6 -7 -8
leaf_value=-0.0070165517374492442 0.0012207861159221358 0.0064990615827905532 -0.0033560481406396557 0.0017540723237739033 0.0058941370039166802 -0.0038465497084814579 0.013305635824571276
leaf_weight=250.75007726252079 71.428337723016739 204.62668596208096 195.62538079917431 1933.2858076244593 60.809705391526222 293.86378701031208 166.45455898344517
leaf_count=962 271 773 746 7353 230 1123 625
internal_value=0.00122026 0.00472662 0.0016523 0.000329968 -0.00442731 0.00100557 0.00977992
internal_weight=3176.84 638.135 400.252 2538.71 311.56 2227.15 237.883
internal_count=12083 2415 1519 9668 1192 8476 896
is_linear=0
shrinkage=0.03


Tree=57
num_leaves=5
num_cat=0
split_feature=21 23 12 8
split_gain=8.44496 14.4983 11.8726 7.31849
threshold=48.83657050164831 0.0051480445094511966 29.676138682530489 -0.025692272148858216
decision_type=2 2 2 2
left_child=2 -2 -1 -4
right_child=1 -3 3 -5
leaf_value=-0.0098733567764396693 0.017568309393711675 -0.00070827305727542186 -0.00982378932627174 0.001370198633056796
leaf_weight=88.218626618385315 72.45209912955761 78.714916408061981 51.272267863154411 2886.0833052098751
leaf_count=340 271 300 197 10975
internal_value=0.00118411 0.00806851 0.000830088 0.00116315
internal_weight=3176.74 151.167 3025.57 2937.36
internal_count=12083 571 11512 11172
is_linear=0
shrinkage=0.03


Tree=58
num_leaves=6
num_cat=0
split_feature=28 8 17 22 30
split_gain=6.99517 7.94352 8.15437 8.0182 6.19102
threshold=2.8972955207534539 0.021343610618895229 0.0018888611190056206 28.394535619919392 0.49999975000019442
decision_type=2 2 2 2 2
left_child=1 2 -1 -3 -2
right_child=4 3 -4 -5 -6
leaf_value=0.00079342887354640361 -0.011213494900640849 0.011079005284718368 0.011847581295845983 -0.0010599447240877196 0.00042976148271557028
leaf_weight=2745.4055465757847 73.283524438738823 143.11135806143284 59.68700398504734 70.200667023658752 85.035622239112854
leaf_count=10446 283 539 225 267 323
internal_value=0.00114829 0.00147559 0.00104226 0.00704169 -0.00493882
internal_weight=3176.72 3018.4 2805.09 213.312 158.319
internal_count=12083 11477 10671 806 606
is_linear=0
shrinkage=0.03


Tree=59
num_leaves=7
num_cat=0
split_feature=40 17 11 27 40 17
split_gain=10.4907 11.7571 13.2931 10.3236 13.0868 11.8307
threshold=0.27272727132526514 0.00038827930100894021 62.112961461846183 -0.0090196573709787255 0.31973454060933121 -7.1219718587699744e-05
decision_type=2 2 2 2 2 2
left_child=1 2 -1 4 -2 -5
right_child=3 -3 -4 5 -6 -7
leaf_value=-0.0016519462563590094 0.010616865923864309 0.0089941928713346223 -0.017025185600900668 0.00031725706237667467 0.00077534591408314802 0.012819300210138463
leaf_weight=778.90790073573589 128.70576655864716 83.22379045188427 52.587258860468864 121.02608129382133 1850.1900143176317 161.95672480762005
leaf_count=2977 485 314 203 460 7036 608
internal_value=0.00111425 -0.00158484 -0.00268073 0.00221285 0.00143308 0.00756481
internal_weight=3176.6 914.719 831.495 2261.88 1978.9 282.983
internal_count=12083 3494 3180 8589 7521 1068
is_linear=0
shrinkage=0.03


Tree=60
num_leaves=8
num_cat=0
split_feature=37 14 37 23 23 36 40
split_gain=10.5952 28.9531 26.0104 24.8877 19.6418 7.45946 7.29097
threshold=-0.60355339059327362 -54.2394837611483 -0.5 0.0028909832473175546 0.0050704111645709952 -0.0163761045531951 0.47108080097369359
decision_type=2 2 2 2 2 2 2
left_child=1 5 6 -3 -4 -1 -2
right_child=2 3 4 -5 -6 -7 -8
leaf_value=-0.0013858091263943949 0.0062266846768729211 0.014215631595569517 -3.8800492862108406e-05 -0.00096580573726068395 0.0074871360659312016 -0.012185948888234275 0.021371237440584365
leaf_weight=82.884652391076088 55.693281769752502 118.63624367117882 1779.7663498669863 492.01666764914989 375.48079632222652 219.98042982816696 72.459460809826851
leaf_count=317 211 445 6777 1873 1420 849 270
internal_value=0.000971505 -0.00174751 0.00206644 0.0019959 0.00127112 -0.00930797 0.0151017
internal_weight=3196.92 913.518 2283.4 610.653 2155.25 302.865 128.153
internal_count=12162 3484 8678 2318 8197 1166 481
is_linear=0
shrinkage=0.03


Tree=61
num_leaves=7
num_cat=0
split_feature=38 38 21 21 7 21
split_gain=6.35956 19.7369 24.8887 12.4108 7.49861 11.3255
threshold=0.91597561503675351 0.78656609248549303 29.116737903911815 46.145803304481959 -0.0085824674051069843 16.224560237506648
decision_type=2 2 2 2 2 2
left_child=1 3 -3 -1 -2 -6
right_child=4 2 -4 -5 5 -7
leaf_value=7.0316107158837802e-05 0.0055143233428291546 0.015607116656841603 -0.0041418744935505219 0.0084731619328955524 0.007678613145299518 -0.0071558587007271805
leaf_weight=2368.4869865179062 79.344922423362732 176.99013769626617 81.9788838326931 167.82876688241959 53.240779519081116 268.81716001033783
leaf_count=9019 301 664 313 634 201 1030
internal_value=0.000942938 0.00145368 0.00931409 0.000638482 -0.00256616 -0.00462497
internal_weight=3196.69 2795.28 258.969 2536.32 401.403 322.058
internal_count=12162 10630 977 9653 1532 1231
is_linear=0
shrinkage=0.03


Tree=62
num_leaves=7
num_cat=0
split_feature=29 24 1 30 1 15
split_gain=8.44317 7.32132 6.58232 8.66805 8.06181 6.1102
threshold=0.29922200535150562 0.92430849039109109 0.0064317313646302587 0.3571428316326592 0.005194000473954582 28.350243255692813
decision_type=2 2 2 2 2 2
left_child=1 5 4 -4 -2 -1
right_child=2 -3 3 -5 -6 -7
leaf_value=-0.0090177602502685243 0.001365758505972893 -0.01089854518264281 -0.0071582528776296707 0.0015231101864232922 0.0067280139291185969 0.0026403993153391093
leaf_weight=54.177643239498138 2204.6997093707323 91.161199226975441 173.51172402501106 246.16147756576538 285.91587451100349 140.97956584393978
leaf_count=209 8384 351 666 935 1082 535
internal_value=0.000915444 -0.00396921 0.00140355 -0.00204751 0.00199225 -0.000578591
internal_weight=3196.61 286.318 2910.29 419.673 2490.62 195.157
internal_count=12162 1095 11067 1601 9466 744
is_linear=0
shrinkage=0.03


Tree=63
num_leaves=8
num_cat=0
split_feature=13 2 13 40 25 11 6
split_gain=7.56942 9.84066 8.58828 8.56299 7.53445 6.50156 5.79746
threshold=1.4589306915123539 0.59999988000001292 -4.0987469180089375 0.94264602798541974 1.9994428563365001 31.776531800193528 1.0000000180025095e-35
decision_type=2 2 2 2 2 2 2
left_child=2 3 4 -2 -1 -4 -3
right_child=1 6 5 -5 -6 -7 -8
leaf_value=0.0016651209220860217 0.002766788308707351 0.0034095291964819675 0.0055606439711552037 0.012911196451214335 -0.0095059368504844203 -0.0043088745485649615 -0.0082616550070685781
leaf_weight=1106.6950259357691 1169.1229881942272 54.734365746378899 64.310409799218178 79.410401090979576 54.86440372467041 557.68032215535641 109.73144800961018
leaf_count=4213 4435 208 244 298 212 2131 421
internal_value=0.000887716 0.00252771 -0.000404526 0.00344361 0.00110915 -0.00324983 -0.00429307
internal_weight=3196.55 1413 1783.55 1248.53 1161.56 621.991 164.466
internal_count=12162 5362 6800 4733 4425 2375 629
is_linear=0
shrinkage=0.03


Tree=64
num_leaves=8
num_cat=0
split_feature=37 15 37 23 23 29 9
split_gain=9.8582 30.3248 23.3963 21.0955 18.3397 14.1398 12.0643
threshold=-0.60355339059327362 40.428007487330056 -0.5 0.0037767481248943062 0.0050704111645709952 0.87224209231778727 0.0032900750505147074
decision_type=2 2 2 2 2 2 2
left_child=1 6 5 -3 -4 -2 -1
right_child=2 3 4 -5 -6 -7 -8
leaf_value=-0.01194030729362208 0.024546983012955215 0.0099255293825820448 -0.00010209006074307224 -0.0020055525587917007 0.0071719445983166119 0.004275234824367655 0.00024394496125908205
leaf_weight=259.04593329131603 61.076072722673416 214.9471405595541 1779.689885571599 341.18614891171455 375.26300086081028 67.065959215164185 98.179085001349449
leaf_count=1000 227 810 6777 1300 1420 254 374
internal_value=0.00086133 -0.0017616 0.00191783 0.00259801 0.00116313 0.0142813 -0.00856714
internal_weight=3196.45 913.358 2283.09 556.133 2154.95 128.142 357.225
internal_count=12162 3484 8678 2110 8197 481 1374
is_linear=0
shrinkage=0.03


Tree=65
num_leaves=5
num_cat=0
split_feature=3 38 37 38
split_gain=7.65445 5.78869 30.0477 8.9348
threshold=0.77272723760330808 0.78656609248549303 -0.37940952255126059 0.60355339059327384
decision_type=2 2 2 2
left_child=1 3 -3 -1
right_child=-2 2 -4 -5
leaf_value=-0.00053633125927012623 0.0077570167893509243 0.014928716412059163 -0.0012304179226056771 -0.0064247803544896682
leaf_weight=2184.3169991970062 102.25903829932213 127.73031382262707 506.56038585305214 258.79553562402725
leaf_count=8324 386 479 1931 991
internal_value=-0.000228949 -0.000504052 0.00203675 -0.00117097
internal_weight=3179.66 3077.4 634.291 2443.11
internal_count=12111 11725 2410 9315
is_linear=0
shrinkage=0.03


Tree=66
num_leaves=7
num_cat=0
split_feature=13 18 38 18 20 17
split_gain=8.19589 10.248 9.58965 6.85604 6.71679 9.23318
threshold=7.271188665113578 -0.00036306134270641427 0.78656609248549303 -0.00021845192217219073 -0.0038225978745633636 -0.00063516272129811237
decision_type=2 2 2 2 2 2
left_child=1 2 -1 -3 -2 -6
right_child=4 3 -4 -5 5 -7
leaf_value=-0.0007090494270958305 0.0098028010394674275 -0.013618012354363006 0.0054792091416681647 -0.0027938031139226314 -0.0052483927452979112 0.0030950650504886824
leaf_weight=1090.6069671660662 95.086691841483116 54.987547501921654 281.27729870378971 941.33301438391209 148.13807736337185 568.1566060334444
leaf_count=4166 359 212 1067 3588 566 2153
internal_value=-0.000221811 -0.00111768 0.00055494 -0.00343231 0.00237086 0.00133885
internal_weight=3179.59 2368.2 1371.88 996.321 811.381 716.295
internal_count=12111 9033 5233 3800 3078 2719
is_linear=0
shrinkage=0.03


Tree=67
num_leaves=6
num_cat=0
split_feature=22 6 40 40 24
split_gain=6.7849 10.936 8.84224 8.60582 8.34931
threshold=-22.310483635486076 -0.010339495493517701 0.063891637540351251 0.22879736125810599 0.77916548391402873
decision_type=2 2 2 2 2
left_child=1 -1 -2 -3 -4
right_child=2 3 4 -5 -6
leaf_value=-0.0044195635771550282 -0.0094273275641333417 0.0025683002951565727 -0.0076767502780325705 0.016052329694366006 3.6600955392916318e-05
leaf_weight=82.99682480096817 97.571319729089737 101.68822012841702 130.3432814180851 76.84814877808094 2690.0463537871838
leaf_count=318 378 388 500 289 10238
internal_value=-0.000215237 0.00438787 -0.000635668 0.0085689 -0.000319741
internal_weight=3179.49 261.533 2917.96 178.536 2820.39
internal_count=12111 995 11116 677 10738
is_linear=0
shrinkage=0.03


Tree=68
num_leaves=6
num_cat=0
split_feature=29 23 35 21 8
split_gain=12.4263 9.93822 8.05983 6.9757 5.89098
threshold=0.29236304180101896 0.0015924941585343988 0.0074294742929866481 18.131284712807656 -0.0047840532406318572
decision_type=2 2 2 2 2
left_child=3 -2 -3 -1 -5
right_child=1 2 -4 4 -6
leaf_value=-0.012940114284644177 0.010427407992562181 -0.006061846166431459 0.00048250092478802954 -0.0093350562214959704 0.0014144157553241704
leaf_weight=92.320084422826767 83.816512167453766 178.93207566440105 2638.1047487705946 72.371821045875549 113.87548577785492
leaf_count=356 316 685 10042 279 433
internal_value=-0.000208702 0.000369262 5.74915e-05 -0.0062405 -0.00273772
internal_weight=3179.42 2900.85 2817.04 278.567 186.247
internal_count=12111 11043 10727 1068 712
is_linear=0
shrinkage=0.03


Tree=69
num_leaves=8
num_cat=0
split_feature=13 25 18 40 36 24 18
split_gain=7.67688 13.4852 9.60722 12.064 9.43161 8.9053 6.43433
threshold=7.271188665113578 0.88525821657533188 -0.00036306134270641427 0.48059637373363545 0.0053862381723489569 0.93936386388330539 -0.00021845192217219073
decision_type=2 2 2 2 2 2 2
left_child=2 4 3 -1 -2 -3 -4
right_child=1 5 6 -5 -6 -7 -8
leaf_value=-0.0019694778133623652 0.0032722775846270812 0.0078498366959411127 -0.013181604934741124 0.0036754589572798469 0.013864949110822698 -0.0031553650997416249 -0.0026919962759290035
leaf_weight=757.4101726859808 254.98404404520988 78.199824780225754 54.971876099705696 614.38072660565376 110.3187809586525 367.78310160338879 941.31572699546814
leaf_count=2899 967 295 212 2334 414 1402 3588
internal_value=-0.000202608 0.00230666 -0.00106981 0.000549458 0.0065701 -0.00116577 -0.00331105
internal_weight=3179.36 811.286 2368.08 1371.79 365.303 445.983 996.288
internal_count=12111 3078 9033 5233 1381 1697 3800
is_linear=0
shrinkage=0.03


Tree=70
num_leaves=6
num_cat=0
split_feature=2 14 14 14 5
split_gain=8.11067 10.6996 6.77981 9.56217 6.50227
threshold=0.57979624025499288 193.9150530226303 -85.494579540613543 15.966188693458891 -0.0093438466231298683
decision_type=2 2 2 2 2
left_child=1 4 -2 -4 -1
right_child=2 -3 3 -5 -6
leaf_value=-0.0068012389768822446 -0.013501564064989299 0.011662444373763325 0.0053481890794816033 -0.0059314620492245951 0.00074519625928638831
leaf_weight=104.67558127641678 55.750785291194916 76.953306332230568 98.765140503644943 199.7861609607935 2636.4874641001225
leaf_count=402 216 289 375 765 10033
internal_value=0.00022327 0.000766441 -0.00403506 -0.00213932 0.000446807
internal_weight=3172.42 2818.12 354.302 298.551 2741.16
internal_count=12080 10724 1356 1140 10435
is_linear=0
shrinkage=0.03


Tree=71
num_leaves=6
num_cat=0
split_feature=2 14 14 16 9
split_gain=7.64076 10.0864 6.39876 9.82958 6.28159
threshold=0.57979624025499288 193.9150530226303 -85.494579540613543 53.489515446707394 0.0091384424652056779
decision_type=2 2 2 2 2
left_child=1 4 -2 -4 -1
right_child=2 -3 3 -5 -6
leaf_value=0.001294925878982096 -0.013117830291082894 0.011324280303471464 0.0040496075929798078 -0.0068284286723845188 -0.0019603290983054435
leaf_weight=2020.7271512150764 55.719185471534729 76.933747798204422 129.22839665412903 169.29834996163845 720.43059138953686
leaf_count=7690 216 289 491 649 2745
internal_value=0.000216273 0.000743574 -0.00391703 -0.00207394 0.000433107
internal_weight=3172.34 2818.09 354.246 298.527 2741.16
internal_count=12080 10724 1356 1140 10435
is_linear=0
shrinkage=0.03


Tree=72
num_leaves=8
num_cat=0
split_feature=5 34 37 37 35 24 19
split_gain=6.93243 10.9239 9.47456 8.41285 10.1425 5.75729 4.74108
threshold=-0.0049133150865668931 -0.012744039300385422 -0.37940952255126059 -0.60355339059327362 0.017889057252419179 0.77916548391402873 -0.0038477786682458042
decision_type=2 2 2 2 2 2 2
left_child=3 2 -2 6 -5 -3 -1
right_child=1 5 -4 4 -6 -7 -8
leaf_value=-0.014327795865183294 0 -0.0054351581798860581 0.015086243113341669 -0.0060037267521729455 0.005012761908684279 0.00065372682318087013 -0.0022108104440548919
leaf_weight=77.241670027375221 66.160979270935059 145.9387750774622 84.727811247110367 148.94115982949734 147.44530767202377 2449.4882626384497 52.367290854454041
leaf_count=300 252 559 319 573 559 9318 200
internal_value=0.000209543 0.000766937 0.00856343 -0.00333562 -0.000476147 0.000301657 -0.00965401
internal_weight=3172.31 2746.32 150.889 425.995 296.386 2595.43 129.609
internal_count=12080 10448 571 1632 1132 9877 500
is_linear=0
shrinkage=0.03


Tree=73
num_leaves=8
num_cat=0
split_feature=27 22 8 27 37 17 23
split_gain=8.681 11.7622 12.6835 10.9212 13.6678 7.75313 6.4116
threshold=-0.010744491196807491 5.4102551953354352 0.0055596740234122874 -0.021290018742513291 -0.60355339059327362 -0.0014016901112489542 0.0035381025709860683
decision_type=2 2 2 2 2 2 2
left_child=3 6 -3 4 -1 -5 -2
right_child=1 2 -4 5 -6 -7 -8
leaf_value=-0.0033015723475565621 -0.00085726928649095902 0.014266427254376083 -0.0013471622662985169 0.0073872967431359857 0.00422349178536067 -0.0028119437057347444 0.0076420815829538529
leaf_weight=318.19423173367977 437.21988815069199 138.2103383988142 67.315286710858345 67.869990780949593 665.56483905017376 1382.4775124490261 95.239651709794998
leaf_count=1215 1668 518 256 257 2525 5281 360
internal_value=0.000202859 0.0030521 0.00911657 -0.000656627 0.00177255 -0.00231482 0.00065783
internal_weight=3172.09 737.985 205.526 2434.11 983.759 1450.35 532.46
internal_count=12080 2802 774 9278 3740 5538 2028
is_linear=0
shrinkage=0.03


Tree=74
num_leaves=6
num_cat=0
split_feature=40 38 16 40 9
split_gain=8.38728 15.5857 8.31113 29.0902 9.20031
threshold=0.057104037026281147 0.25881904510252057 56.811095153860769 0.86271582962244853 -0.017145589136994373
decision_type=2 2 2 2 2
left_child=1 -1 3 -2 -4
right_child=2 -3 4 -5 -6
leaf_value=-0.014024801278177464 0.0010551098636292346 0.0050096031328983178 -0.013150159923733015 0.019291698086749635 -0.00066416190403755296
leaf_weight=95.500452771782875 1589.4203329533339 61.379217281937599 53.655916929244995 81.041979134082794 1290.8997853249311
leaf_count=372 6052 234 207 303 4912
internal_value=0.000197122 -0.00651386 0.000555371 0.00197083 -0.00119236
internal_weight=3171.9 156.88 3015.02 1670.46 1344.56
internal_count=12080 606 11474 6355 5119
is_linear=0
shrinkage=0.03


Tree=75
num_leaves=7
num_cat=0
split_feature=29 15 29 35 23 33
split_gain=12.1623 12.8275 9.77562 16.4864 10.8353 6.86859
threshold=0.31063791880268904 27.777777777776478 0.80243312648719112 0.024384050334711378 0.0031398314248940345 0.0030035041707260806
decision_type=2 2 2 2 2 2
left_child=1 -1 3 -2 -4 -3
right_child=2 5 4 -5 -6 -7
leaf_value=-0.015627848571222312 0.0013114332959878474 0.0056523947652561673 0.0028696547837560368 0.012788982457599707 -0.0026184691698449805 -0.0053835122173338168
leaf_weight=83.831972107291222 1142.1527040600777 70.785365596413612 447.43451653420925 123.73442442715168 1143.4029487520456 161.21724383533001
leaf_count=326 4344 268 1701 467 4364 617
internal_value=-0.000119583 -0.00569051 0.000494631 0.00246354 -0.00106381 -0.00193276
internal_weight=3172.56 315.835 2856.72 1265.89 1590.84 232.003
internal_count=12087 1211 10876 4811 6065 885
is_linear=0
shrinkage=0.03


Tree=76
num_leaves=7
num_cat=0
split_feature=29 16 29 35 9 1
split_gain=11.4594 14.1421 9.20305 15.5748 10.3493 7.34938
threshold=0.31063791880268904 23.990656055193082 0.80243312648719112 0.02245401194308597 -0.010011629696426437 0.0016806722684233109
decision_type=2 2 2 2 2 2
left_child=1 -1 3 -2 -4 -3
right_child=2 5 4 -5 -6 -7
leaf_value=-0.017555392050832438 0.0010854716387957808 0.0035519132836801738 -0.0052919852199931131 0.010984535367315224 0.00032947076622009199 -0.0067032023310336086
leaf_weight=67.181313216686249 1102.3282396793365 110.35730762779713 386.4477331340313 163.45010407269001 1204.412533134222 138.21634791791439
leaf_count=262 4193 419 1483 618 4582 530
internal_value=-0.000115736 -0.00552413 0.000480273 0.00239088 -0.00103159 -0.00209845
internal_weight=3172.39 315.755 2856.64 1265.78 1590.86 248.574
internal_count=12087 1211 10876 4811 6065 949
is_linear=0
shrinkage=0.03


Tree=77
num_leaves=6
num_cat=0
split_feature=29 16 21 29 1
split_gain=10.8008 13.351 12.4637 8.18851 6.92437
threshold=0.31063791880268904 23.990656055193082 10.807518555572036 0.80243312648719112 0.0016806722684233109
decision_type=2 2 2 2 2
left_child=1 -1 -2 -4 -3
right_child=2 4 3 -5 -6
leaf_value=-0.01706165976906222 0.014400201627310165 0.003447014817564206 0.0020041358492979776 -0.0012579694930847237 -0.0065058169000772699
leaf_weight=67.110593110322952 54.657360732555389 110.36493740975857 1238.4237776696682 1563.3950841724873 138.19846175611019
leaf_count=262 205 419 4709 5962 530
internal_value=-0.000112247 -0.00536375 0.000466205 0.000178955 -0.00203454
internal_weight=3172.15 315.674 2856.48 2801.82 248.563
internal_count=12087 1211 10876 10671 949
is_linear=0
shrinkage=0.03


Tree=78
num_leaves=8
num_cat=0
split_feature=40 39 16 31 31 31 23
split_gain=8.76543 10.8327 14.3045 10.2435 10.0108 15.7115 7.34805
threshold=0.79034066313422946 1.0000000180025095e-35 54.318502279869399 -0.00184081899729484 0.0038493649610091825 0.0013123197583831711 0.0051770659581293109
decision_type=2 2 2 2 2 2 2
left_child=4 2 -2 -3 5 -1 -6
right_child=1 3 -4 -5 6 -7 -8
leaf_value=-0.0013068355868263639 0.0079350128201582677 -0.0022879422932374689 -0.0035189013889894098 0.012542797355847421 -0.0077308600082377681 0.005375005634375288 0.0015154427110745537
leaf_weight=1751.5645638108253 145.24439592659473 54.441528901457787 291.61755631864071 153.54473476111889 290.20348703861237 384.42915704846382 100.98777757585049
leaf_count=6689 549 208 1112 577 1112 1456 384
internal_value=-0.000108842 0.00300226 0.000273833 0.00860452 -0.000910362 -9.33406e-05 -0.00531017
internal_weight=3172.03 644.848 436.862 207.986 2527.18 2135.99 391.191
internal_count=12087 2446 1661 785 9641 8145 1496
is_linear=0
shrinkage=0.03


Tree=79
num_leaves=7
num_cat=0
split_feature=29 16 27 27 38 38
split_gain=10.1986 12.5907 11.2759 14.0129 12.3166 8.51456
threshold=0.31063791880268904 23.990656055193082 -0.010744491196807491 -0.020895090172884438 0.91597561503675351 0.60355339059327384
decision_type=2 2 2 2 2 2
left_child=1 -1 3 -2 -4 -3
right_child=2 5 4 -5 -6 -7
leaf_value=-0.016578446987927986 0.0022598628454917496 0.0016568414780710461 0.005821201742341884 -0.0025364166871407415 -0.0061817706263346496 -0.010217714386478515
leaf_weight=67.026094779372215 940.23163855075836 172.35978370904922 523.47800530493259 1305.2938444912434 87.291944399476051 76.181039407849312
leaf_count=262 3574 656 1982 4986 334 293
internal_value=-0.000105199 -0.00520927 0.000456707 -0.000521252 0.00406667 -0.00197551
internal_weight=3171.86 315.567 2856.3 2245.53 610.77 248.541
internal_count=12087 1211 10876 8560 2316 949
is_linear=0
shrinkage=0.03


Tree=80
num_leaves=7
num_cat=0
split_feature=3 18 2 38 38 34
split_gain=9.09928 10.3565 9.55999 5.62675 19.3465 9.48352
threshold=0.59999991000003172 0.0021510701022232986 0.071428569302723052 0.91597561503675351 0.78656609248549303 -0.008389655502260172
decision_type=2 2 2 2 2 2
left_child=3 2 -2 4 -1 -5
right_child=1 -3 -4 5 -6 -7
leaf_value=-0.00072164272334100893 0.002372453383333657 -0.006875213083592663 0.014053737779836029 0.0059871198210636033 0.0081989985094033432 -0.0063562768312806191
leaf_weight=2258.4791291952133 152.78377199172974 52.286562904715538 111.46439373493195 66.942510798573494 240.18737858533859 281.3017508238554
leaf_count=8614 580 200 419 254 907 1078
internal_value=0.000175344 0.00498716 0.00742471 -0.00035752 0.000135738 -0.00392006
internal_weight=3163.45 316.535 264.248 2846.91 2498.67 348.244
internal_count=12052 1199 999 10853 9521 1332
is_linear=0
shrinkage=0.03


Tree=81
num_leaves=7
num_cat=0
split_feature=40 14 22 22 40 27
split_gain=12.1689 14.5509 23.7022 13.3948 12.5475 9.98409
threshold=0.27272727132526514 -54.2394837611483 -14.805185448569583 -22.310483635486076 0.17749472296085819 -0.0097323143258889275
decision_type=2 2 2 2 2 2
left_child=1 4 -3 -2 -1 -5
right_child=3 2 -4 5 -6 -7
leaf_value=-0.0033259308408230943 0.012151264040436847 0.018996144077098695 -0.0015626082406061093 -2.1342000162927682e-05 -0.014593871605785435 0.0055676391824762989
leaf_weight=309.58502168953419 97.198539137840271 55.213673174381256 422.08534912765026 1813.5491712838411 126.96747721731663 338.72712536156178
leaf_count=1190 367 207 1609 6906 492 1281
internal_value=0.000170409 -0.00273984 0.000853663 0.00136075 -0.00668893 0.000855646
internal_weight=3163.33 913.852 477.299 2249.47 436.552 2152.28
internal_count=12052 3498 1816 8554 1682 8187
is_linear=0
shrinkage=0.03


Tree=82
num_leaves=6
num_cat=0
split_feature=40 22 29 23 27
split_gain=11.4569 12.6212 11.5935 11.7053 9.39917
threshold=0.27272727132526514 -22.310483635486076 1.9582291888779584 0.0034324550075040569 -0.0097323143258889275
decision_type=2 2 2 2 2
left_child=2 -2 3 -1 -3
right_child=1 4 -4 -5 -6
leaf_value=-0.0053181347592824073 0.011795899444019013 -2.0702410111860991e-05 -0.015076710710079023 0.0016835819685006813 0.0054020417784374246
leaf_weight=415.25251936912537 97.183416739106178 1813.5491390377283 61.330517277121544 437.13448359072208 338.69908405840397
leaf_count=1595 367 6906 238 1665 1281
internal_value=0.000165344 0.00132042 -0.00265857 -0.00171431 0.000829934
internal_weight=3163.15 2249.43 913.718 852.387 2152.25
internal_count=12052 8554 3498 3260 8187
is_linear=0
shrinkage=0.03


Tree=83
num_leaves=7
num_cat=0
split_feature=3 13 25 26 11 22
split_gain=8.58661 8.2081 15.2838 8.48546 7.40084 8.28858
threshold=0.59999991000003172 7.0345867708274925 0.90112654194892949 0.31551161805389244 58.919889825423247 -12.963459671660381
decision_type=2 2 2 2 2 2
left_child=1 3 -3 -1 5 -2
right_child=4 2 -4 -5 -6 -7
leaf_value=-0.0045252813868524684 -0.00050011558251646451 0.0069333837746299188 -0.0015185909921967612 -0.00017731388941042737 -0.0028290178972854171 0.011337712561903407
leaf_weight=551.65605567395687 75.408480420708656 346.97724865376949 423.56861370801926 1524.3045590221882 80.572134494781494 160.48030966520309
leaf_count=2107 288 1312 1613 5821 307 604
internal_value=0.000160219 -0.000357295 0.00227602 -0.00134318 0.00483527 0.00751797
internal_weight=3162.97 2846.51 770.546 2075.96 316.461 235.889
internal_count=12052 10853 2925 7928 1199 892
is_linear=0
shrinkage=0.03


Tree=84
num_leaves=7
num_cat=0
split_feature=40 14 22 22 40 14
split_gain=10.8871 13.6061 22.2117 11.8806 11.7801 7.53086
threshold=0.27272727132526514 -54.2394837611483 -14.805185448569583 -22.310483635486076 0.17749472296085819 27.562162665789632
decision_type=2 2 2 2 2 2
left_child=1 4 -3 -2 -1 -5
right_child=3 2 -4 5 -6 -7
leaf_value=-0.0031585537466266651 0.011446187118480226 0.018442021777764651 -0.0014620359740270836 0.0025933321999097305 -0.014081447275154898 -0.00094670739764439926
leaf_weight=309.47565330564976 97.160113170742989 55.193089306354523 422.03966793417931 1068.7342485785484 126.86311176419258 1083.4132573306561
leaf_count=1190 367 207 1609 4064 492 4123
internal_value=0.000155017 -0.00259794 0.000875973 0.00128112 -0.0064183 0.000805052
internal_weight=3162.88 913.572 477.233 2249.31 436.339 2152.15
internal_count=12052 3498 1816 8554 1682 8187
is_linear=0
shrinkage=0.03


Tree=85
num_leaves=7
num_cat=0
split_feature=20 37 26 28 19 37
split_gain=13.6732 19.019 13.1301 11.7889 10.4471 9.59716
threshold=-0.0040810526791546838 -0.5 0.91172528295235022 0.13377749055635776 -0.0029345441278759627 -0.37940952255126059
decision_type=2 2 2 2 2 2
left_child=1 -1 -3 5 -5 -2
right_child=3 2 -4 4 -6 -7
leaf_value=-0.0049995634388751049 0.00069572266688592275 0.015454571409956097 3.5194711435128605e-05 -0.0034059661475954591 0.0012994929389840849 -0.00997256395866623
leaf_weight=96.08318655192852 120.07273903489113 160.10044065117836 74.517571449279785 534.45750091969967 2026.0355146080256 192.16956105828285
leaf_count=368 458 603 284 2054 7699 740
internal_value=0.000303963 0.00606404 0.0106623 -0.00035766 0.000309566 -0.00584402
internal_weight=3203.44 330.701 234.618 2872.74 2560.49 312.242
internal_count=12206 1255 887 10951 9753 1198
is_linear=0
shrinkage=0.03


Tree=86
num_leaves=6
num_cat=0
split_feature=28 25 36 27 15
split_gain=11.8888 8.71248 8.88019 6.14001 4.14129
threshold=0.13377749055635776 2.2809828916713735 -0.01524184633579828 -0.0090859672419180883 28.682170542634797
decision_type=2 2 2 2 2
left_child=3 2 -2 4 -1
right_child=1 -3 -4 -5 -6
leaf_value=-0.013202976290706568 0.0047183016638041465 -0.0091106069864150211 0.00037992059623263895 0.0014417262997430784 -0.0045669541306557213
leaf_weight=78.953694015741348 523.26761788129807 73.493140339851379 2271.5817992240191 91.383053854107857 164.43288916349411
leaf_count=307 1990 283 8649 348 629
internal_value=0.000294865 0.000924755 0.00120033 -0.005031 -0.00751435
internal_weight=3203.11 2868.34 2794.85 334.77 243.387
internal_count=12206 10922 10639 1284 936
is_linear=0
shrinkage=0.03


Tree=87
num_leaves=7
num_cat=0
split_feature=20 17 12 9 16 17
split_gain=12.6016 10.8688 16.8312 13.8619 7.36565 9.84766
threshold=-0.0040810526791546838 0.0012161303408895544 59.578471337271303 0.014025172358505757 27.111182749479827 -0.0019902573093731478
decision_type=2 2 2 2 2 2
left_child=4 3 -3 -2 5 -1
right_child=1 2 -4 -5 -6 -7
leaf_value=-0.0051589443094081193 -0.00029299396671863675 0.012133670563120619 -0.00040289460750965223 -0.0073824564452814939 0.014639676938720978 0.0072682034988595353
leaf_weight=79.991917967796326 2184.2971092313528 148.89954987168312 260.42960861325264 278.91166388988495 66.842483311891556 183.65143977105618
leaf_count=307 8330 562 991 1068 252 696
internal_value=0.000285501 -0.000349328 0.00415782 -0.00110716 0.00581737 0.00343077
internal_weight=3203.02 2872.54 409.329 2463.21 330.486 263.643
internal_count=12206 10951 1553 9398 1255 1003
is_linear=0
shrinkage=0.03


Tree=88
num_leaves=6
num_cat=0
split_feature=20 8 15 40 24
split_gain=11.8715 13.4043 10.6715 9.5674 5.23886
threshold=-0.0040810526791546838 -0.016568842298285365 24.812497774138514 0.054474707959241787 1.0173126372184664
decision_type=2 2 2 2 2
left_child=2 -2 4 -3 -1
right_child=1 3 -4 -5 -6
leaf_value=0.0061979314564527873 -0.01220528143033479 -0.010779721255348663 0.014226259912006531 0.00030011458554045074 -0.0026145894913909141
leaf_weight=130.74519219994545 81.197160705924034 69.991858512163162 92.235220685601234 2721.2210433632135 107.45188830792904
leaf_count=496 314 274 348 10363 411
internal_value=0.000277071 -0.000338928 0.00564683 9.38925e-06 0.00217144
internal_weight=3202.84 2872.41 330.432 2791.21 238.197
internal_count=12206 10951 1255 10637 907
is_linear=0
shrinkage=0.03


Tree=89
num_leaves=7
num_cat=0
split_feature=20 37 26 28 40 37
split_gain=11.1884 17.9972 12.0324 10.4939 13.1111 9.05529
threshold=-0.0040810526791546838 -0.5 0.91172528295235022 0.13377749055635776 0.054474707959241787 -0.37940952255126059
decision_type=2 2 2 2 2 2
left_child=1 -1 -3 5 -5 -2
right_child=3 2 -4 4 -6 -7
leaf_value=-0.0052733267263813709 0.00084190316987980073 0.014560271821199591 0 -0.012662909264411023 0.00066006850380794261 -0.0095206728727570723
leaf_weight=96.076741456985474 120.03841844201088 159.73663674294949 74.504171013832092 66.244231551885605 2493.9615819752216 192.04655642807484
leaf_count=368 458 603 284 260 9493 740
internal_value=0.000268548 0.0054826 0.00996506 -0.000329255 0.000299873 -0.00550714
internal_weight=3202.61 330.318 234.241 2872.29 2560.21 312.085
internal_count=12206 1255 887 10951 9753 1198
is_linear=0
shrinkage=0.03


Tree=90
num_leaves=8
num_cat=0
split_feature=2 40 9 35 28 28 33
split_gain=7.71579 7.97998 10.2856 8.04257 5.36347 9.48576 6.90749
threshold=0.57979624025499288 0.28952448569907152 0.0087060844077723205 0.010587267335731855 0.47541603764647938 0.2860435090056957 0.0084692304256143106
decision_type=2 2 2 2 2 2 2
left_child=1 3 -3 -1 5 -2 -6
right_child=4 2 -4 -5 6 -7 -8
leaf_value=-0.0052482832767237189 -0.0057665745960082159 0.0036381258305341561 -0.00082983104635915713 0.0006878242593792045 -0.0026623186389594911 0.0099142811925590872 -0.013797589239229031
leaf_weight=322.61683751642704 78.57793977856636 1217.3101014792919 739.70504680275917 548.92914295196533 154.87077148258686 58.680684596300125 76.600913852453232
leaf_count=1239 302 4621 2817 2096 593 222 296
internal_value=0.000339318 0.000876425 0.00194256 -0.00149934 -0.00372291 0.000875685 -0.00649819
internal_weight=3197.29 2828.56 1957.02 871.546 368.73 137.259 231.472
internal_count=12186 10773 7438 3335 1413 524 889
is_linear=0
shrinkage=0.03


Tree=91
num_leaves=8
num_cat=0
split_feature=2 40 27 36 28 28 5
split_gain=7.27068 7.51863 12.6869 8.47736 5.05761 8.94295 7.07149
threshold=0.57979624025499288 0.27272727132526514 -0.0092619075204063896 0.0083995514306415293 0.47541603764647938 0.2860435090056957 0.0029246707395232945
decision_type=2 2 2 2 2 2 2
left_child=1 3 -3 -1 5 -2 -6
right_child=4 2 -4 -5 6 -7 -8
leaf_value=-0.0023919799277599529 -0.0055989292823405657 0.00089140313756401891 0.007900086365442982 0.0097422575586517852 -0.0026846758789654816 0.0096264549646620668 -0.014219748663257013
leaf_weight=764.88729722797871 78.562941148877144 1742.5248954445124 267.85770474374294 53.243476539850235 161.82744367420673 58.681922242045403 69.607979610562325
leaf_count=2931 302 6630 1011 201 620 222 269
internal_value=0.00032846 0.000849949 0.0018396 -0.00156217 -0.00361494 0.000848043 -0.0063104
internal_weight=3197.19 2828.51 2010.38 818.131 368.68 137.245 231.435
internal_count=12186 10773 7641 3132 1413 524 889
is_linear=0
shrinkage=0.03


Tree=92
num_leaves=7
num_cat=0
split_feature=38 38 21 8 34 21
split_gain=6.29806 15.3623 15.9689 8.58399 8.41586 11.2061
threshold=0.91597561503675351 0.78656609248549303 33.696136444928577 -0.0043223482705038166 -0.0087389287245454011 16.399188268499113
decision_type=2 2 2 2 2 2
left_child=1 3 -3 -1 -2 -6
right_child=4 2 -4 -5 5 -7
leaf_value=-0.0022570456264830066 0.0056707590615851025 0.011333338173013342 -0.0062100368310753313 0.0013908922649361398 0.0068192164936343204 -0.0078578372433383229
leaf_weight=898.5047739893198 74.662673473358154 214.51833505928516 56.945278003811836 1630.3016373366117 53.934686854481697 268.156114757061
leaf_count=3443 284 808 218 6199 204 1030
internal_value=0.000318542 0.000824581 0.00757989 8.8065e-05 -0.00320167 -0.00532694
internal_weight=3197.02 2800.27 271.464 2528.81 396.753 322.091
internal_count=12186 10668 1026 9642 1518 1234
is_linear=0
shrinkage=0.03


Tree=93
num_leaves=8
num_cat=0
split_feature=30 38 28 38 9 10 30
split_gain=6.32199 8.4014 9.68231 9.5596 8.22545 9.92702 6.09907
threshold=0.78086888071385097 0.91597561503675351 0.3327751286966138 0.78656609248549303 -0.0093952427216203987 68.851725759278551 0.83333330952381257
decision_type=2 2 2 2 2 2 2
left_child=1 3 -3 -1 5 -2 -6
right_child=4 2 -4 -5 6 -7 -8
leaf_value=-0.00050271308067412288 -0.0069919161338335804 -0.014930211613553878 -0.0020490459467611935 0.0064701796254139302 0.010398151457258302 0.0076708702105384996 0.0027203786956305079
leaf_weight=1831.253970131278 144.68886758387089 69.372222110629082 216.58358010649681 193.73281626403332 112.81741121411324 55.356194078922272 573.07688175141811
leaf_count=6992 556 269 828 733 425 209 2174
internal_value=0.000309166 -0.000511757 -0.00530807 0.000162717 0.00246374 -0.00282444 0.0040316
internal_weight=3196.88 2310.94 285.956 2024.99 885.939 200.045 685.894
internal_count=12186 8822 1097 7725 3364 765 2599
is_linear=0
shrinkage=0.03


Tree=94
num_leaves=7
num_cat=0
split_feature=2 38 38 29 4 13
split_gain=6.7528 7.73727 12.3882 11.7923 4.96323 7.15193
threshold=0.57979624025499288 0.91597561503675351 0.78656609248549303 0.64250826196964261 0.00074492519996538508 -2.8800660174382204
decision_type=2 2 2 2 2 2
left_child=1 2 -1 -3 5 -2
right_child=4 3 -4 -5 -6 -7
leaf_value=0.00068579257012573076 0.00057850602774484592 -0.011029778187830176 0.0077960658292518898 0.00051526432604226857 0.0026458678271924115 -0.0091140648104664438
leaf_weight=2234.5087140053511 106.46304875612259 117.1642097234726 243.77401478588581 232.72209849953651 86.043237447738647 176.08731393516064
leaf_count=8513 407 452 921 887 328 678
internal_value=0.000299815 0.000802581 0.00139696 -0.00334884 -0.00350088 -0.00543086
internal_weight=3196.76 2828.17 2478.28 349.886 368.594 282.55
internal_count=12186 10773 9434 1339 1413 1085
is_linear=0
shrinkage=0.03


Tree=95
num_leaves=8
num_cat=0
split_feature=17 38 35 35 17 27 27
split_gain=7.24901 17.1537 27.0184 22.9286 11.4225 12.7844 6.44001
threshold=0.0013137543550127433 0.37940952255126048 0.023664571411267682 0.024938875421009084 0.00088561816406074949 -0.027855612479527898 -0.01033213862168693
decision_type=2 2 2 2 2 2 2
left_child=4 2 -2 -3 6 -6 -1
right_child=1 3 -4 -5 5 -7 -8
leaf_value=-3.7922699293311097e-05 0.018711354852801815 -0.01232751320862603 -0.0031040686212780596 0.011564639953821419 0.0068129904889019976 -0.0094090125004816678 0.0034140369569872846
leaf_weight=1894.4858349263668 128.77889095246792 90.633834317326546 81.306465402245522 56.947371631860733 53.407350048422813 196.50020961463451 648.57861466705799
leaf_count=7228 482 349 311 215 202 754 2464
internal_value=0.000752449 0.00476336 0.010248 -0.00297658 0.000230406 -0.00585612 0.000838556
internal_weight=3150.64 357.667 210.085 147.581 2792.97 249.908 2543.06
internal_count=12005 1357 793 564 10648 956 9692
is_linear=0
shrinkage=0.03


Tree=96
num_leaves=6
num_cat=0
split_feature=21 24 9 36 35
split_gain=11.5759 8.91345 6.96167 14.5288 13.2328
threshold=50.779809527870611 0.99614489130224715 0.0091384424652056779 0.0039256296316366743 0.017232793195028833
decision_type=2 2 2 2 2
left_child=2 -2 3 -1 -4
right_child=1 -3 4 -5 -6
leaf_value=-2.2908396062571901e-05 0.017905504362950742 0.00098354100205104845 -0.0056101772636832992 0.0058610561694480961 0.002022830840017312
leaf_weight=1744.5168372392654 59.302554503083229 55.700934693217278 429.66956633329391 478.29025302827358 383.05745317041874
leaf_count=6659 223 212 1643 1811 1457
internal_value=0.000730068 0.00999461 0.000367786 0.00124056 -0.00199801
internal_weight=3150.54 115.003 3035.53 2222.81 812.727
internal_count=12005 435 11570 8470 3100
is_linear=0
shrinkage=0.03


Tree=97
num_leaves=6
num_cat=0
split_feature=21 31 27 25 6
split_gain=10.9343 12.1616 7.28892 7.28397 6.40797
threshold=50.779809527870611 -0.00097386102956457368 -0.010744491196807491 2.2809828916713735 -0.0046543587509041409
decision_type=2 2 2 2 2
left_child=2 -2 3 -1 -4
right_child=1 -3 4 -5 -6
leaf_value=-0.00017974807321428704 0.019803477870673394 0.00017412023505865279 -0.005865405606844354 -0.010862783268070799 0.0038869708107157775
leaf_weight=2257.3157264441252 54.05020909011364 60.849007934331894 63.864400595426559 57.069257289171219 657.23294281959534
leaf_count=8610 203 232 246 220 2494
internal_value=0.000708755 0.00971719 0.000356655 -0.000458803 0.00298867
internal_weight=3150.38 114.899 3035.48 2314.38 721.097
internal_count=12005 435 11570 8830 2740
is_linear=0
shrinkage=0.03


Tree=98
num_leaves=6
num_cat=0
split_feature=21 31 27 35 9
split_gain=10.3318 11.4916 6.86417 17.8966 13.0724
threshold=50.779809527870611 -0.00097386102956457368 -0.0092619075204063896 0.0075177877555633339 -0.0074927182725282307
decision_type=2 2 2 2 2
left_child=2 -2 3 -1 -4
right_child=1 -3 4 -5 -6
leaf_value=-0.013053002754964169 0.019266198811581217 0.00016906511150557288 -0.0057821779093311003 0.00021068929721987232 0.0060961007513760362
leaf_weight=93.057912439107895 53.948110967874527 60.848246738314629 102.92081122100353 2448.6098092794418 390.84835481643677
leaf_count=360 203 232 396 9335 1479
internal_value=0.000687523 0.00944835 0.000345258 -0.000278918 0.00357661
internal_weight=3150.23 114.796 3035.44 2541.67 493.769
internal_count=12005 435 11570 9695 1875
is_linear=0
shrinkage=0.03


Tree=99
num_leaves=6
num_cat=0
split_feature=21 31 23 38 9
split_gain=9.76273 10.8604 6.48385 20.4613 14.0649
threshold=50.779809527870611 -0.00097386102956457368 0.0047635826076440043 -0.9159756150367534 0.0091384424652056779
decision_type=2 2 2 2 2
left_child=2 -2 4 -4 -1
right_child=1 -3 3 -5 -6
leaf_value=0.00078785844787237309 0.018745962860919261 0.00016415642384027783 0.0178828362927426 0.0011077666005317455 -0.004885038259382842
leaf_weight=1779.1733178347349 53.839075103402138 60.847506612539291 70.771225497126579 683.23375344276428 502.13546417653561
leaf_count=6783 203 232 266 2602 1919
internal_value=0.000667227 0.00918764 0.000334515 0.00274527 -0.00045741
internal_weight=3150 114.687 3035.31 754.005 2281.31
internal_count=12005 435 11570 2868 8702
is_linear=0
shrinkage=0.03


Tree=100
num_leaves=6
num_cat=0
split_feature=8 21 13 3 33
split_gain=7.93755 6.52901 6.01539 6.22532 2.79008
threshold=-0.024958359662850312 39.580616468962759 18.356475642456878 0.59999991000003172 0.012698754344567355
decision_type=2 2 2 2 2
left_child=1 -1 3 -2 -4
right_child=2 -3 4 -5 -6
leaf_value=-0.01372535764558859 -0.00023907029781077932 -0.00042216205010300504 0.0083484852566045147 0.0044047204264096151 0
leaf_weight=62.874748051166534 2566.632403165102 73.256350174546242 123.51520845293999 286.66274650394917 53.095021679997444
leaf_count=243 9792 281 466 1087 202
internal_value=0.000240102 -0.00678486 0.000564942 0.000224984 0.00590927
internal_weight=3166.04 136.131 3029.91 2853.3 176.61
internal_count=12071 524 11547 10879 668
is_linear=0
shrinkage=0.03


Tree=101
num_leaves=8
num_cat=0
split_feature=37 26 23 36 14 37 14
split_gain=11.7424 28.069 20.7396 14.0874 13.3613 12.7669 9.90871
threshold=-0.60355339059327362 0.63827577417515735 0.0037767481248943062 -0.0163761045531951 26.249736239222788 -0.5 50.344127771600007
decision_type=2 2 2 2 2 2 2
left_child=1 2 -1 -3 5 -2 -6
right_child=4 3 -4 -5 6 -7 -8
leaf_value=0.008027094333186359 0.014776110164037187 -0.00021453733876302563 -0.0032807938367149072 -0.014023695102983617 -0.0082994066556003332 0.0025860321182309509 3.2790743801481252e-05
leaf_weight=238.6943011879921 81.511901959776878 98.432499587535858 367.31611354649067 218.68420930206776 150.45581306517124 1217.3285946249962 793.56190274655819
leaf_count=901 306 377 1402 848 577 4641 3019
internal_value=0.000232662 -0.00260605 0.00116022 -0.00981257 0.001409 0.00338412 -0.00129406
internal_weight=3165.99 923.127 606.01 317.117 2242.86 1298.84 944.018
internal_count=12071 3528 2303 1225 8543 4947 3596
is_linear=0
shrinkage=0.03


Tree=102
num_leaves=8
num_cat=0
split_feature=37 15 34 11 19 24 6
split_gain=11.0589 36.4881 13.0844 11.0241 8.06721 7.87593 7.58688
threshold=-0.60355339059327362 40.428007487330056 -0.007182540907347267 23.042341072383646 -0.00040904588694510511 0.80548258531680683 -0.00038117087090311358
decision_type=2 2 2 2 2 2 2
left_child=1 4 3 -2 -1 -4 -3
right_child=2 6 5 -5 -6 -7 -8
leaf_value=-0.011858986800569219 -0.0047011260170767497 0.0083734258728383765 -0.0075873967078606179 0.0077863183410450277 0.00035632631386207675 0.00069798284808981624 0.00021827073722862072
leaf_weight=305.33789709210396 72.732313632965088 134.8578142374754 107.98568633198738 396.94114989042282 54.863569900393486 1665.1743914932013 427.90148182213306
leaf_count=1182 280 510 415 1508 209 6340 1627
internal_value=0.000225539 -0.00252946 0.00136719 0.00580901 -0.00996532 0.000176972 0.00222184
internal_weight=3165.79 922.961 2242.83 469.673 360.201 1773.16 562.759
internal_count=12071 3528 8543 1788 1391 6755 2137
is_linear=0
shrinkage=0.03


Tree=103
num_leaves=8
num_cat=0
split_feature=37 15 22 27 37 27 12
split_gain=10.3983 34.3649 14.8597 22.4951 11.9389 11.3857 10.5525
threshold=-0.60355339059327362 40.428007487330056 20.910984262872798 -0.023279812290350772 1.0000000180025095e-35 -0.01033213862168693 48.378661415959947
decision_type=2 2 2 2 2 2 2
left_child=1 6 3 -2 -4 -3 -1
right_child=2 5 4 -5 -6 -7 -8
leaf_value=-0.01229847622036156 0.0084330239330043244 8.4267071657545699e-05 0.0061428847825960699 0.00054874723000671998 -0.0095107874422480539 0.011055437288016449 0.00011990764978334219
leaf_weight=284.67903313040733 408.75666964054108 459.45548260211945 55.013653561472893 1598.9457758069038 180.0351475328207 103.30915500223637 75.35182212293148
leaf_count=1104 1551 1748 208 6093 691 389 287
internal_value=0.000218797 -0.00245278 0.00132592 0.0021682 -0.00576282 0.00215687 -0.00967166
internal_weight=3165.55 922.795 2242.75 2007.7 235.049 562.765 360.031
internal_count=12071 3528 8543 7644 899 2137 1391
is_linear=0
shrinkage=0.03


Tree=104
num_leaves=8
num_cat=0
split_feature=37 15 7 27 12 5 27
split_gain=9.78055 32.3707 11.8247 10.728 9.95489 9.2632 8.57049
threshold=-0.60355339059327362 40.428007487330056 -0.007182540907347267 -0.01033213862168693 48.378661415959947 -0.0049971948170839378 -0.0081744270579449368
decision_type=2 2 2 2 2 2 2
left_child=1 4 5 -3 -1 -2 -4
right_child=2 3 6 -5 -6 -7 -8
leaf_value=-0.011940563813283806 -0.00033798395146114591 8.1749998979398084e-05 -0.00065084131380802642 0.010733862020513607 0.00011640394993867475 0.008487572429416607 0.0054920878463006161
leaf_weight=284.47876769304276 157.26542581617832 459.45551277697086 1539.580974444747 103.27252879738808 75.351545751094818 312.19112795591354 233.48819199204445
leaf_count=1104 602 1748 5870 389 287 1186 885
internal_value=0.000212776 -0.00237844 0.00128664 0.00209429 -0.00938759 0.00551035 0.000154922
internal_weight=3165.08 922.558 2242.53 562.728 359.83 469.457 1773.07
internal_count=12071 3528 8543 2137 1391 1788 6755
is_linear=0
shrinkage=0.03


Tree=105
num_leaves=7
num_cat=0
split_feature=40 33 24 36 27 35
split_gain=11.7473 14.414 15.7347 12.3403 11.7385 10.8412
threshold=0.27872479219493879 0.0045397048701814203 0.79893764746645335 0.0083995514306415293 -0.010182905681387017 0.023437499993869185
decision_type=2 2 2 2 2 2
left_child=3 2 -2 4 -1 -3
right_child=1 5 -4 -5 -6 -7
leaf_value=-0.0015124885827050496 -0.0046635981708124915 -0.001225296649758388 0.0082212772297186789 0.0095214019004494187 -0.0094228311936756064 0.0047661903559143536
leaf_weight=625.33840674161911 103.81697039306164 1368.3959191739559 421.48318596184254 66.209654361009598 233.1435334533453 337.0053846091032
leaf_count=2397 398 5217 1593 250 899 1282
internal_value=0.000120225 0.00130322 0.00563832 -0.00271407 -0.00369509 -2.83339e-05
internal_weight=3155.39 2230.7 525.3 924.692 858.482 1705.4
internal_count=12036 8490 1991 3546 3296 6499
is_linear=0
shrinkage=0.03


Tree=106
num_leaves=8
num_cat=0
split_feature=13 25 23 12 13 13 24
split_gain=6.45961 8.90519 11.7646 6.56054 5.77837 7.78304 5.47766
