tree
version=v4
num_class=1
num_tree_per_iteration=1
label_index=0
max_feature_idx=40
objective=binary sigmoid:1
feature_names=body_pct range_pct upper_wick_ratio lower_wick_ratio ret_1 ret_3 ret_6 ret_12 ret_24 ret_36 rsi_3 rsi_9 rsi_14 rsi_9_delta cci stoch_k stoch_d macd_hist price_vs_ema8 price_vs_ema21 ema_spread adx di_diff atr_pct atr_ratio range_vs_atr bb_pos bb_width vol_ratio vol_ratio_3 buy_pressure obv_slope ret_15m range_15m_pct ret_1h range_1h_pct ret_4h hour_sin hour_cos is_us_session pos_in_day_range
feature_infos=[-0.014451658616014612:0.037508443893923611] [1.289154855747036e-06:0.038101096407149412] [0:0.99999999999747469] [0:0.99999999999795075] [-0.014244459368703777:0.03897015371820034] [-0.0203332102570285:0.039894207402560999] [-0.022658529605474875:0.042657935544521131] [-0.02469569235708835:0.038047740810608355] [-0.026487136738036599:0.046134360394320062] [-0.031281907662506492:0.049612561880474138] [0.15396838824218326:99.931686344302889] [5.0850070658781039:93.920110187306065] [9.4216404974349306:89.595253890840681] [-62.198263342222589:45.221005619200461] [-455.99907091602989:461.6848039255525] [-4.5504341035969753e-13:99.701017249003257] [1.8014344330129444:99.129087105534737] [-349.00847945314331:581.85376752962372] [-0.014090362045369479:0.031052594189054632] [-0.018728810791681962:0.037299598775405347] [-0.0072166798277416462:0.012074120637869161] [6.0222979329113739:68.725614736385793] [-54.62422439985825:66.09902504450092] [0.00033997971685511039:0.006045688052702676] [0.58203523318781225:2.0850599017889477] [0.0024389829758732513:8.5223248453141185] [-0.55382007418492663:1.5036593704678023] [-0.066815070513870686:-0.00058122409768327399] [0.10570378068850679:9.4523207447304376] [0.14001401492918805:3.8336228275782669] [0:0.9999999999998378] [-5.074971467727651:10.001550599930496] [-0.0203332102570285:0.039894207402560999] [0.00020547970794484153:0.042066192826995918] [-0.02469569235708835:0.038047740810608355] [0.00088035715885204004:0.045719608518674362] [-0.033804049078860032:0.061553027540067307] [-1:1] [-1:1] [0:1] [0:0.99999999999994971]
tree_sizes=1000 1000 1007 1004 999 1019 996 1002 1004 999 1006 1023 1021 796 1019 1018 1002 1006 1012 1011 910 913 1011 792 1009 804 895 893 804 797 917 1025 1020 1011 1024 1019 1008 801 791 1008 802 800 1015 692 903 915 1015 914 803 1022 696 903 688 1018 907 1019 902 909 904 900 1020 1022 1016 908 1010 697 1012 795 698 1028 1009 920 801 1016 803 802 802 917 799 804 1022 808 802 914 1013 700 698 1023 692 682 691 1014 796 913 584 701 912 795 804 801 1022 707 1028 912 700 791 593 704 596 590 1021 1024 805 1024 1020 1035 912 908 917 891 1022 1018 808 1023 892 806 1020 1024 917 915 909 911 916 904 913 891 804 906 811 918 915 1027 1025 1031 917 694 807 804 703 700 801 701 1022 700 696 696 798 801 921 913 692 1023 695 695 695 1022 808 922 811 906 1019 804 923 913 1027 807 913 916 919 812 594 677 914 916 913 599 600 598 709 1011 696 907 1032 676 1019 1023 696 695 1029 1026 915 791 801 803 920 913 915 918 808 806 699 700 697 701 917 910 909 689 703 700 1016 807 1029 705 688 1023 911 931 1025 927 1031 1021 1018 1035 591 917 694 917 583 920 805 810 807 809 809 1023 1018 1024 1013 1013 914 803 910 913 691 811 922 794 806 805 812 701 808 702 693 903 696 1012 903 587 911 911 901 1001 914 1024 1022 1022 1023 1020 699 701 785 781 781 912 689 588 1024 696 1017 807 911 918 1008 915 707 908 911 707

Tree=0
num_leaves=8
num_cat=0
split_feature=23 36 19 36 22 36 40
split_gain=106.108 56.6648 35.7266 17.3542 16.5684 10.0499 8.18747
threshold=0.0007514324915611323 0.0060750997710407048 0.00036420731900276893 -0.0016112056714005505 21.85804571768065 -0.00010433325426001393 0.59735782684712835
decision_type=2 2 2 2 2 2 2
left_child=2 3 5 -2 -3 -1 -4
right_child=1 4 6 -5 -6 -7 -8
leaf_value=-0.46820126860065819 -0.45523184686582702 -0.44567765869928766 -0.46350024706624943 -0.45013929948051834 -0.43391280393713483 -0.48026691931524856 -0.44796147160937633
leaf_weight=138.12340025603771 1214.2438169121742 414.21992835402489 58.668838977813721 1332.1768284440041 171.3106711357832 115.86610317230225 72.223803088068962
leaf_count=501 4206 1385 209 4530 547 438 243
internal_value=-0.452404 -0.450578 -0.467309 -0.45255 -0.442108 -0.473822 -0.454651
internal_weight=3516.83 3131.95 384.882 2546.42 585.531 253.99 130.893
internal_count=12059 10668 1391 8736 1932 939 452
is_linear=0
shrinkage=1


Tree=1
num_leaves=8
num_cat=0
split_feature=20 35 40 19 24 8 21
split_gain=68.3635 37.3194 31.3789 22.7318 19.769 16.4009 3.08779
threshold=0.00056952568313392343 0.0045413423403837258 0.20679571934627974 0.0036317620573180069 1.0162966624943672 0.0012222874918212947 29.535187148006607
decision_type=2 2 2 2 2 2 2
left_child=1 4 -3 5 -1 -2 -5
right_child=3 2 -4 6 -6 -7 -8
leaf_value=0.010223729202950713 0.032170421770263302 0.0084169262520964322 0.019074461089449466 0.022398719063048075 0.001186868996919873 0.017130673948694546 0.033437950850178637
leaf_weight=1082.3056859225035 76.730591967701912 374.35918606817722 809.75091718137264 63.986696898937225 278.20626628398895 702.64909856021404 140.65082983672619
leaf_count=3760 244 1308 2720 211 998 2374 444
internal_value=0.0144525 0.0118254 0.0157376 0.0211932 0.00839128 0.0187091 0.030309
internal_weight=3528.64 2544.62 1184.11 984.017 1360.51 779.38 204.638
internal_count=12059 8786 4028 3273 4758 2618 655
is_linear=0
shrinkage=0.03


Tree=2
num_leaves=8
num_cat=0
split_feature=23 36 10 8 12 9 28
split_gain=96.2032 49.797 34.5667 25.4354 17.4923 13.2369 9.06426
threshold=0.0007514324915611323 0.0060750997710407048 63.107792495006869 -0.0016014242438580626 67.61579247576671 0.00047957945702470367 0.61675998311539215
decision_type=2 2 2 2 2 2 2
left_child=2 3 6 -2 -3 -4 -1
right_child=1 4 5 -5 -6 -7 -8
leaf_value=-0.014526438378596917 0.010166733592255653 0.020207785172180217 0.00073844905206053163 0.016353928273413174 0.032453789541462809 0.019715228794718122 -0.0024267154344419961
leaf_weight=87.690967470407486 1039.5215877145529 433.32707840204239 59.336636170744896 1523.0416108518839 158.16938644647598 78.457308515906334 160.11707778275013
leaf_count=333 3594 1436 213 5142 496 262 583
internal_value=0.0139778 0.0157061 -0.000128415 0.0138598 0.023606 0.0117783 -0.00685047
internal_weight=3539.66 3154.06 385.602 2562.56 591.496 137.794 247.808
internal_count=12059 10668 1391 8736 1932 475 916
is_linear=0
shrinkage=0.03


Tree=3
num_leaves=8
num_cat=0
split_feature=23 12 10 26 9 28 27
split_gain=89.9694 42.9228 32.5556 26.6037 12.3749 9.15039 5.22626
threshold=0.0007514324915611323 67.952783274430558 63.107792495006869 0.94449264226381546 0.00047957945702470367 0.49868247786548836 -0.0080612594207836626
decision_type=2 2 2 2 2 2 2
left_child=2 3 5 -2 -4 -1 -3
right_child=1 6 4 -5 -6 -7 -8
leaf_value=-0.01713994791213733 0.015127891065504391 0.031610339433836815 0.00071690162498767125 0.0052077786680382564 0.019057908567588201 -0.0033488766712841522 0.019369147240034728
leaf_weight=56.335098803043365 2671.1403198540211 150.52522379159927 59.346460819244385 275.90384541451931 78.792207643389702 191.09065617620945 66.826717555522919
leaf_count=217 9012 469 213 967 262 699 220
internal_value=0.0135201 0.0151863 -0.000123302 0.0142084 0.0114081 -0.00666129 0.028126
internal_weight=3549.96 3164.4 385.564 2947.04 138.139 247.426 217.352
internal_count=12059 10668 1391 9979 475 916 689
is_linear=0
shrinkage=0.03


Tree=4
num_leaves=8
num_cat=0
split_feature=36 35 8 10 24 27 15
split_gain=67.4308 52.5634 22.2554 18.6656 16.9775 13.25 4.95154
threshold=0.0028348738717687287 0.0045413423403837258 -0.0018832847662017536 30.733155336977223 0.81127880193604585 -0.003296600358860066 42.356308111256993
decision_type=2 2 2 2 2 2 2
left_child=1 4 -3 6 -1 -5 -2
right_child=3 2 -4 5 -6 -7 -8
leaf_value=0.014964920455602234 0.013889134780406256 0.010928277669467391 0.019256060991130055 0.019338747906621486 0.0044432318636904028 0.030235822806683108 0.0031812115978453966
leaf_weight=159.36944432556629 111.02022776007652 672.14156483113766 543.00082594156265 809.18342830240726 1067.6704555600882 129.35610099136829 67.83265346288681
leaf_count=538 374 2299 1793 2656 3752 410 237
internal_value=0.01308 0.0102588 0.0146875 0.0192031 0.00584413 0.0209177 0.00999102
internal_weight=3559.57 2442.18 1215.14 1117.39 1227.04 938.54 178.853
internal_count=12059 8382 4092 3677 4290 3066 611
is_linear=0
shrinkage=0.03


Tree=5
num_leaves=8
num_cat=0
split_feature=23 17 23 27 11 37 23
split_gain=108.275 69.6633 34.9062 30.1976 23.5394 18.4665 13.2937
threshold=0.00076110631399271985 -14.116993799979648 0.0011443352741767941 -0.0035552286155981334 53.433942396579475 -1.0000000180025095e-35 0.0005958335480274608
decision_type=2 2 2 2 2 2 2
left_child=4 3 -3 -2 5 -1 -6
right_child=1 2 -4 -5 6 -7 -8
leaf_value=-0.021344160560347627 0.010615062220649037 0.011317720642397229 0.020471183135014892 -0.002791485496333848 -0.0030980910159622921 -0.0027452513890360202 0.013507448728662334
leaf_weight=70.133402749896049 1113.8141410052776 541.48802453279495 1366.3351597338915 172.10220967233181 76.846374198794365 153.15859773755074 92.575278863310814
leaf_count=273 3798 1836 4454 617 278 559 314
internal_value=0.0124214 0.0142489 0.0178956 0.00880759 -0.00240017 -0.00879115 0.00593973
internal_weight=3586.45 3193.74 1907.82 1285.92 392.714 223.292 169.422
internal_count=12129 10705 6290 4415 1424 832 592
is_linear=0
shrinkage=0.03


Tree=6
num_leaves=8
num_cat=0
split_feature=17 33 14 17 25 33 16
split_gain=69.0984 59.1567 34.3263 21.6109 16.3583 8.70637 4.37956
threshold=51.558705813509341 0.001126362380168164 82.79391506278418 -16.697670167045079 0.55512094770028375 0.0050606020739362807 83.262884229950586
decision_type=2 2 2 2 2 2 2
left_child=1 4 5 -3 -1 -2 -4
right_child=2 3 6 -5 -6 -7 -8
leaf_value=0.0079515940554854316 0.013467144564392913 0.008751386996116722 0.02380900342761564 0.014540025274732728 -0.0047763495999062801 0.025846234118578969 0.033388996593649398
leaf_weight=131.59608253836632 449.61371657252312 1222.084291934967 149.34449473023415 1170.401070535183 281.05151353776455 63.299016416072845 127.31059040129185
leaf_count=456 1496 4187 474 3907 1022 200 387
internal_value=0.0120208 0.00979096 0.019879 0.0115992 -0.000662373 0.0151184 0.0284793
internal_weight=3594.7 2805.13 789.568 2392.49 412.648 512.913 276.655
internal_count=12129 9572 2557 8094 1478 1696 861
is_linear=0
shrinkage=0.03


Tree=7
num_leaves=8
num_cat=0
split_feature=20 1 25 25 5 17 7
split_gain=64.7776 20.174 23.0526 17.3947 16.8768 18.0514 16.5648
threshold=0.0008600156007380614 0.00043401570671545634 0.74280604621301383 0.55867855112382858 0.00049440659876909276 50.493705044408777 0.0021147549670174075
decision_type=2 2 2 2 2 2 2
left_child=1 3 -3 -1 6 -6 -2
right_child=4 2 -4 -5 5 -7 -8
leaf_value=0.0066418680985617382 0.022896309304563142 0.014311160341243512 0.0082985046656770447 -0.010900096922313774 0.013082014850554531 0.028216981322614267 0.0091758951706232602
leaf_weight=156.35178583860397 134.10609675943851 881.78780397772789 1757.9186401516199 72.761347576975822 108.66551330685616 275.12596717476845 215.69424729049206
leaf_count=543 428 2940 6010 273 360 851 724
internal_value=0.0116374 0.00958074 0.010322 0.000959901 0.0196118 0.0240606 0.0145789
internal_weight=3602.41 2868.82 2639.71 229.113 733.592 383.791 349.8
internal_count=12129 9766 8950 816 2363 1211 1152
is_linear=0
shrinkage=0.03


Tree=8
num_leaves=8
num_cat=0
split_feature=33 19 24 5 19 1 21
split_gain=60.2586 39.5388 36.6466 21.2273 18.2112 8.61298 6.77149
threshold=0.001138605826117112 0.0032196104476482708 0.84961078220456498 -0.00023488251685077619 0.00045396763949212196 0.0018178786437757961 15.906180690877363
decision_type=2 2 2 2 2 2 2
left_child=2 3 6 -2 -4 -3 -1
right_child=1 5 4 -5 -6 -7 -8
leaf_value=0.019096223755991178 0.0088803837502231565 0.033326758558232777 -0.011652470053162445 0.01411367066001511 0.0051224907699455738 0.019955249344663435 0.0066945022216699521
leaf_weight=61.696426928043365 1337.8242453038692 73.089901223778725 178.09921899437904 1556.1625713258982 83.238772809505463 186.98103784024715 132.58044312894344
leaf_count=204 4537 219 666 5164 288 593 458
internal_value=0.0112672 0.01274 0.00102782 0.0117074 -0.00625419 0.023996 0.0108638
internal_weight=3609.67 3154.06 455.615 2893.99 261.338 260.071 194.277
internal_count=12129 10513 1616 9701 954 812 662
is_linear=0
shrinkage=0.03


Tree=9
num_leaves=8
num_cat=0
split_feature=35 12 22 12 13 21 37
split_gain=61.4748 38.2366 17.501 14.4617 13.6018 12.2491 1.98971
threshold=0.0034979490545990343 67.952783274430558 1.4075623614820343 32.38568538881362 -7.3264720053706567 24.636315823478967 -0.37940952255126059
decision_type=2 2 2 2 2 2 2
left_child=2 3 5 -2 -4 -1 -3
right_child=1 6 4 -5 -6 -7 -8
leaf_value=-0.0020766801889744902 0.0035448194103797508 0.030674472222305231 -0.0010680415039437403 0.012840330871248279 0.011346965190658058 0.0079269197978488887 0.022037469299702017
leaf_weight=378.51589879393578 168.43398784101009 75.29828742146492 97.523759767413139 2221.5472890734673 374.43375816941261 152.60189606249332 148.08248060941696
leaf_count=1352 584 226 346 7372 1262 524 463
internal_value=0.0109106 0.0133361 0.00456224 0.012195 0.00875624 0.000788394 0.0252618
internal_weight=3616.44 2613.36 1003.08 2389.98 471.958 531.118 223.381
internal_count=12129 8645 3484 7956 1608 1876 689
is_linear=0
shrinkage=0.03


Tree=10
num_leaves=8
num_cat=0
split_feature=17 10 14 35 14 36 19
split_gain=60.6538 34.8067 24.9847 23.7035 18.7944 18.5443 15.6164
threshold=13.252451653459657 38.538316970014307 -124.90086070437444 0.0045413423403837258 -186.77128995595163 -0.0012171231057286345 0.0036317620573180069
decision_type=2 2 2 2 2 2 2
left_child=2 5 4 -4 -1 -2 -3
right_child=1 6 3 -5 -6 -7 -8
leaf_value=0.010495275600711151 0.021416280596258448 0.01594527629769844 0.0045725343592542596 0.011610062453287247 -0.0056417072008681547 0.0055890357539111557 0.025839459823772296
leaf_weight=88.76741199195385 78.740912407636642 856.46168500185013 864.3484809845686 885.29928997159004 225.09350150823593 433.7170774936676 187.83404445648193
leaf_count=300 252 2789 2994 2949 807 1478 573
internal_value=0.0101504 0.014629 0.00675351 0.00815119 -0.000992735 0.00812391 0.0177852
internal_weight=3620.26 1556.75 2063.51 1749.65 313.861 512.458 1044.3
internal_count=12142 5092 7050 5943 1107 1730 3362
is_linear=0
shrinkage=0.03


Tree=11
num_leaves=8
num_cat=0
split_feature=23 8 21 31 18 8 36
split_gain=75.6219 46.115 46.7065 26.3909 21.8468 15.7679 11.3335
threshold=0.00076895813159362253 -0.0018832847662017536 20.890439331732754 -0.0097528242094299823 -0.00012782979856315827 -0.00034034884581263242 1.0000000180025095e-35
decision_type=2 2 2 2 2 2 2
left_child=4 2 -2 -3 6 -6 -1
right_child=1 3 -4 -5 5 -7 -8
leaf_value=-0.0035634212556453077 -0.0043807758709616378 0.0076983658816525014 0.0099504888261867097 0.015697900884102535 -0.010145009655341007 0.0066845580020225819 -0.021024468247583739
leaf_weight=75.30013807117939 275.24957948923111 495.77516360580921 772.11817729473114 1672.0419210195541 63.368236556649208 208.35386146605015 63.681861624121666
leaf_count=275 974 1663 2595 5432 236 720 247
internal_value=0.0098324 0.0113808 0.00616875 0.0138841 -0.0022496 0.00265949 -0.0118553
internal_weight=3625.89 3215.18 1047.37 2167.82 410.704 271.722 138.982
internal_count=12142 10664 3569 7095 1478 956 522
is_linear=0
shrinkage=0.03


Tree=12
num_leaves=8
num_cat=0
split_feature=23 17 31 13 15 27 23
split_gain=71.0135 65.8615 18.9574 18.8139 18.7092 16.4615 9.73212
threshold=0.00076895813159362253 -16.022161923620953 -0.0097528242094299823 -1.8342142264580621 23.514443306601631 -0.0021319736723908324 0.00057804283649853859
decision_type=2 2 2 2 2 2 2
left_child=3 4 -3 6 -2 -5 -1
right_child=1 2 -4 5 -6 -7 -8
leaf_value=-0.018579185889433317 -0.00039504943242308976 0.0094908913143494367 0.016324134328240342 -0.004257304578703134 0.0078422949036090015 0.01134842831952023 -0.0037303219794459163
leaf_weight=66.626472845673561 331.29271025955677 523.51458641886711 1419.9310558736324 123.81324009597301 945.95348712801933 114.62056259810925 105.40564389526844
leaf_count=257 1157 1741 4574 446 3192 392 383
internal_value=0.00952312 0.0110209 0.0145028 -0.0021889 0.00569669 0.00321434 -0.00971477
internal_weight=3631.16 3220.69 1943.45 410.466 1277.25 238.434 172.032
internal_count=12142 10664 6315 1478 4349 838 640
is_linear=0
shrinkage=0.03


Tree=13
num_leaves=6
num_cat=0
split_feature=12 33 17 36 40
split_gain=55.3885 31.0447 34.9994 11.7289 4.37175
threshold=67.952783274430558 0.001126362380168164 -21.634314974622033 -0.0013532411833026001 0.86881616799905104
decision_type=2 2 2 2 2
left_child=1 3 -3 -1 -2
right_child=4 2 -4 -5 -6
leaf_value=-0.0078583186324352964 0.028161689091738426 0.0052167948994776498 0.011936022428699676 0.0035398101005499841 0.018230981250511018
leaf_weight=105.77786506712437 115.42118532955647 1154.7046961188316 1821.5050065219402 325.59576480090618 112.98976583778858
leaf_count=385 347 3933 5987 1139 351
internal_value=0.00922501 0.0082495 0.0093394 0.000686876 0.0235152
internal_weight=3635.99 3407.58 2976.21 431.374 228.411
internal_count=12142 11444 9920 1524 698
is_linear=0
shrinkage=0.03


Tree=14
num_leaves=8
num_cat=0
split_feature=23 17 12 19 39 27 7
split_gain=65.3311 59.5485 25.4591 20.5083 21.2937 18.2914 3.83085
threshold=0.00076110631399271985 -16.022161923620953 67.952783274430558 0.00036420731900276893 1.0000000180025095e-35 -0.0035818101920269559 0.00093328858070906861
decision_type=2 2 2 2 2 2 2
left_child=3 5 -3 4 -1 -2 -5
right_child=1 2 -4 6 -6 -7 -8
leaf_value=-0.0027205703335778111 0.0066691874115925986 0.012387734109989021 0.023455652197411369 0.012620111454226235 -0.02331409494345035 -0.003923457271740087 0.0020738124349645374
leaf_weight=207.52608144283295 1116.4180205613375 1746.2720967978239 215.47374327480793 58.983702644705772 56.867058545351028 165.65824899077415 73.391726821660995
leaf_count=756 3773 5699 654 197 223 586 254
internal_value=0.00893808 0.0103438 0.0136337 -0.00251146 -0.00734802 0.00528484 0.00700254
internal_weight=3640.59 3243.82 1961.75 396.769 264.393 1282.08 132.375
internal_count=12142 10712 6353 1430 979 4359 451
is_linear=0
shrinkage=0.03


Tree=15
num_leaves=8
num_cat=0
split_feature=23 17 23 9 13 35 19
split_gain=69.4766 45.8935 26.2976 23.5048 23.347 11.6567 7.10133
threshold=0.0007514324915611323 -14.116993799979648 0.0011692917105716649 -0.0098255937919372576 -1.3985038786614863 0.0020747993830657154 8.7089016239222524e-05
decision_type=2 2 2 2 2 2 2
left_child=4 3 -3 -2 6 -6 -1
right_child=1 2 -4 -5 5 -7 -8
leaf_value=-0.016248465447621631 0.015580943645416772 0.0077554125938977874 0.015448768995198359 0.0040828572990477515 0.010024450336961723 -0.0039082002450307384 -0.0029392182698187684
leaf_weight=108.25608968734741 187.11691327393055 595.13208991289139 1329.8482551574707 1118.9446229189634 108.00293925404549 102.74359066784382 59.692024812102318
leaf_count=416 611 1979 4247 3815 370 369 215
internal_value=0.00871194 0.0101374 0.0130886 0.00576294 -0.00340025 0.00318858 -0.0116966
internal_weight=3609.74 3231.04 1924.98 1306.06 378.695 210.747 167.948
internal_count=12022 10652 6226 4426 1370 739 631
is_linear=0
shrinkage=0.03


Tree=16
num_leaves=8
num_cat=0
split_feature=8 35 36 15 10 14 17
split_gain=52.3358 35.3064 27.9468 18.836 13.8572 9.78706 7.19759
threshold=0.0036252540845351793 0.0040494887093492802 0.0024781893113097202 85.756374740269152 40.837853189267165 -21.318123678220864 74.804567990145785
decision_type=2 2 2 2 2 2 2
left_child=1 2 -1 -3 5 -2 -6
right_child=4 3 -4 -5 6 -7 -8
leaf_value=0.00040637643007782742 0.01446456830362338 0.010339606470263453 0.011195190164862734 -0.0029700111279164984 0.013753614804775452 -0.0011909428093511796 0.021023670578447385
leaf_weight=976.75884288549423 71.14059191942215 1544.649278819561 276.72491447627544 99.340360015630722 265.17578639090061 66.916322112083435 312.79892019927502
leaf_count=3412 228 5094 910 342 848 228 960
internal_value=0.00844215 0.00663013 0.00281415 0.00952361 0.0157148 0.00686058 0.017773
internal_weight=3613.51 2897.47 1253.48 1643.99 716.032 138.057 577.975
internal_count=12022 9758 4322 5436 2264 456 1808
is_linear=0
shrinkage=0.03


Tree=17
num_leaves=8
num_cat=0
split_feature=8 33 24 9 10 29 14
split_gain=49.1796 31.8311 24.3265 20.0768 12.9899 10.0498 9.20951
threshold=0.0036252540845351793 0.0010869445814525771 0.84346338875353 0.00084413565827567993 40.837853189267165 0.55606541168316437 -21.318123678220864
decision_type=2 2 2 2 2 2 2
left_child=1 2 -1 -3 6 -6 -2
right_child=4 3 -4 -5 5 -7 -8
leaf_value=0.0077358675376348034 0.014019080802256579 0.0057373035846990184 -0.008177476540708337 0.011489134510549604 0.027048602057589233 0.015377401595603973 -0.0011564120952599153
leaf_weight=139.87899869680405 71.260879352688789 1722.4572922289371 218.03023451566696 819.76257555186749 85.716632440686226 493.09803415834904 66.906898096203804
leaf_count=477 228 5813 800 2668 258 1550 228
internal_value=0.00818202 0.00642574 -0.00190808 0.0076055 0.0152275 0.0172188 0.00665178
internal_weight=3617.11 2900.13 357.909 2542.22 716.982 578.815 138.168
internal_count=12022 9758 1277 8481 2264 1808 456
is_linear=0
shrinkage=0.03


Tree=18
num_leaves=8
num_cat=0
split_feature=23 17 23 13 9 35 3
split_gain=60.8725 40.1073 22.9724 22.0207 21.719 11.106 6.95734
threshold=0.0007514324915611323 -14.116993799979648 0.0011692917105716649 -1.3985038786614863 -0.0098255937919372576 0.0020747993830657154 0.16830736608069063
decision_type=2 2 2 2 2 2 2
left_child=3 4 -3 6 -2 -5 -1
right_child=1 2 -4 5 -6 -7 -8
leaf_value=-0.017718766505148777 0.014587674340135975 0.0070349293522966065 0.014215034174778863 0.0096440918556772171 0.0035626678786398326 -0.0039482614854332073 -0.0050694351506357102
leaf_weight=81.953614369034767 188.00688815116882 596.86898484826088 1335.0945789366961 108.24790552258492 1121.8509847074747 102.74007226526737 85.6479582041502
leaf_count=316 611 1979 4247 370 3815 369 315
internal_value=0.00793072 0.00926084 0.0120141 -0.00340834 0.00517637 0.00297998 -0.0114791
internal_weight=3620.41 3241.82 1931.96 378.59 1309.86 210.988 167.602
internal_count=12022 10652 6226 1370 4426 739 631
is_linear=0
shrinkage=0.03


Tree=19
num_leaves=8
num_cat=0
split_feature=20 35 39 9 13 1 21
split_gain=40.0653 28.9962 23.569 18.4389 15.0649 11.767 7.78373
threshold=0.00065111737622343998 0.0040363404457099449 1.0000000180025095e-35 -0.0018687529740757378 -9.4412206850192515 0.0013373880087160291 18.388279479980877
decision_type=2 2 2 2 2 2 2
left_child=1 2 -1 -3 5 -2 -6
right_child=4 3 -4 -5 6 -7 -8
leaf_value=0.0046311993290904995 -0.0032230293286865273 0.0057010371028844223 -0.00531139807916884 0.012531909786515546 0.0062394419368105667 0.011444346515273799 0.016286699859367895
leaf_weight=939.27775636315346 78.88085463643074 852.24975508451462 274.92355774343014 633.43474699556828 87.355483964085579 120.63590283691883 636.59096392989159
leaf_count=3210 269 2861 974 2045 286 387 1990
internal_value=0.00768687 0.00582434 0.0023626 0.00863646 0.0130917 0.00559659 0.0151155
internal_weight=3623.35 2699.89 1214.2 1485.68 923.463 199.517 723.946
internal_count=12022 9090 4184 4906 2932 656 2276
is_linear=0
shrinkage=0.03


Tree=20
num_leaves=7
num_cat=0
split_feature=23 17 14 36 23 13
split_gain=51.9265 31.322 25.0018 24.9441 19.2111 16.2271
threshold=0.00076895813159362253 1.1772780185417189 -124.90086070437444 0.0018027088983036956 0.0011692917105716649 -1.8342142264580621
decision_type=2 2 2 2 2 2
left_child=3 2 -2 5 -3 -1
right_child=1 4 -4 -5 -6 -7
leaf_value=-0.014527663725651887 -0.002913709214911517 0.0065823206989211033 0.0075311946024021409 0.010852627500562139 0.013928234658181351 -0.00061674646965769343
leaf_weight=129.26543089747429 241.17355380952358 460.30201126635075 1314.9720792323351 95.828972801566124 1178.8526360541582 183.62681621313095
leaf_count=494 841 1520 4376 324 3729 654
internal_value=0.00769277 0.00898103 0.00590114 -0.00233678 0.0118851 -0.00646718
internal_weight=3604.02 3195.3 1556.15 408.721 1639.15 312.892
internal_count=11938 10466 5217 1472 5249 1148
is_linear=0
shrinkage=0.03


Tree=21
num_leaves=7
num_cat=0
split_feature=23 36 36 23 23 27
split_gain=48.7986 28.259 23.4985 20.274 15.7797 15.083
threshold=0.00076895813159362253 -0.0010513367853989817 0.0018027088983036956 0.0013855027239880119 0.0012085476150547044 -0.0021319736723908324
decision_type=2 2 2 2 2 2
left_child=2 3 5 -2 -3 -1
right_child=1 4 -4 -5 -6 -7
leaf_value=-0.012878965288091971 0.001035216782639424 0.0070263097478073461 0.010512991932400208 0.0084870519944457382 0.013087379973752913 0.00016838193562310528
leaf_weight=154.74501043558121 568.10106690227985 593.13888850808144 96.018764406442642 796.09509019553661 1240.786334335804 157.67545020580292
leaf_count=581 1942 1955 324 2630 3939 567
internal_value=0.00745692 0.00870439 -0.00226917 0.00540087 0.011145 -0.00628721
internal_weight=3606.56 3198.12 408.439 1364.2 1833.93 312.42
internal_count=11938 10466 1472 4572 5894 1148
is_linear=0
shrinkage=0.03


Tree=22
num_leaves=8
num_cat=0
split_feature=36 33 24 31 40 40 33
split_gain=32.7243 26.6844 23.7732 16.1744 12.524 11.1742 10.3556
threshold=0.0041294566612113401 0.0010741923583469518 0.84961078220456498 -0.0054283364852100542 0.082310187542731394 0.7374720442812609 0.0028381981001311973
decision_type=2 2 2 2 2 2 2
left_child=1 2 -1 5 -3 -2 -5
right_child=3 4 -4 6 -6 -7 -8
leaf_value=0.0068844565217813861 -0.0013442593791166098 -0.0018495827237521053 -0.0090889827946702313 0.018614701047122786 0.0072457671610536116 0.011182371072598467 0.010643436358652556
leaf_weight=143.50256270170212 111.2329466342926 141.55708086490631 194.65877757966518 326.35686892271042 2237.5575271397829 142.14224064350128 311.9433619081974
leaf_count=491 374 490 720 1011 7414 453 985
internal_value=0.00722923 0.00557541 -0.00226575 0.0122285 0.0066972 0.00565692 0.0147879
internal_weight=3608.95 2717.28 338.161 891.675 2379.11 253.375 638.3
internal_count=11938 9115 1211 2823 7904 827 1996
is_linear=0
shrinkage=0.03


Tree=23
num_leaves=6
num_cat=0
split_feature=36 34 38 38 13
split_gain=30.876 15.3929 15.0373 10.5173 8.46484
threshold=0.0050523758737985877 0.0048735298183749673 0.78656609248549303 0.91597561503675351 -9.4412206850192515
decision_type=2 2 2 2 2
left_child=1 2 -1 4 -2
right_child=3 -3 -4 -5 -6
leaf_value=0.0039758006278110287 0.0039114896800780336 0.017245184425161958 0.0094093802779175485 0.022335163885079869 0.012731939575954729
leaf_weight=2176.6995221525431 129.2989959269762 97.657125636935234 589.83942064642906 88.426619961857796 529.42135691642761
leaf_count=7333 424 304 1947 267 1663
internal_value=0.00700842 0.00557517 0.00514564 0.0124532 0.0110404
internal_weight=3611.34 2864.2 2766.54 747.147 658.72
internal_count=11938 9584 9280 2354 2087
is_linear=0
shrinkage=0.03


Tree=24
num_leaves=8
num_cat=0
split_feature=23 19 38 19 24 37 30
split_gain=43.6611 20.113 19.3985 23.5117 18.7945 13.8568 5.01762
threshold=0.00076895813159362253 0.00036420731900276893 0.78656609248549303 0.0048592047945040821 1.1420766597034784 -1.0000000180025095e-35 0.62451370916997939
decision_type=2 2 2 2 2 2 2
left_child=1 5 3 -2 -4 -1 -3
right_child=2 6 4 -5 -6 -7 -8
leaf_value=-0.01684227961904209 0.006171479840329455 0.012872617642190425 0.014653199338383282 0.021798550719972651 0.00064035903632104249 -0.002305368034931558 0.0011643887214557399
leaf_weight=87.609873235225677 2440.570090726018 64.05731874704361 571.08023265004158 89.12806148827076 104.26201303303242 184.190558552742 72.836677566170692
leaf_count=338 8036 212 1816 265 349 671 251
internal_value=0.00679536 -0.00240082 0.00797347 0.00674477 0.0125203 -0.00713466 0.00685753
internal_weight=3613.73 408.694 3205.04 2529.7 675.342 271.8 136.894
internal_count=11938 1472 10466 8301 2165 1009 463
is_linear=0
shrinkage=0.03


Tree=25
num_leaves=6
num_cat=0
split_feature=23 17 21 32 23
split_gain=37.8221 37.9747 51.8482 26.0486 20.4176
threshold=0.00057804283649853859 -16.697670167045079 22.583543132842976 -0.00017405009966553472 0.0011692917105716649
decision_type=2 2 2 2 2
left_child=3 2 -2 -1 -3
right_child=1 4 -4 -5 -6
leaf_value=-0.02385583052601593 -0.0048526337549909676 0.0059206437384768367 0.0075476622946246486 0.0011968140278326119 0.011983295267447005
leaf_weight=54.864313617348671 457.3773330450058 814.09816814959049 887.77626398205757 105.34964388608932 1379.6707742214203
leaf_count=220 1591 2719 2947 373 4363
internal_value=0.00666343 0.00731175 0.00331925 -0.0074782 0.00974774
internal_weight=3699.14 3538.92 1345.15 160.214 2193.77
internal_count=12213 11620 4538 593 7082
is_linear=0
shrinkage=0.03


Tree=26
num_leaves=7
num_cat=0
split_feature=8 15 37 38 22 1
split_gain=26.9109 17.361 21.524 17.8848 14.5756 2.7674
threshold=0.0074580595037309081 19.600162278215155 -0.70710678118654735 0.78656609248549303 15.214201901272977 0.0018500121539922441
decision_type=2 2 2 2 2 2
left_child=1 2 -1 -3 -2 -6
right_child=4 3 -4 -5 5 -7
leaf_value=-0.010921866215455414 0.0031458034291800391 0.0054031597863497408 0.0038313515074565735 0.011252583256527001 0.024895519419711413 0.016021445301092393
leaf_weight=110.66149725019932 68.94342827796936 2290.9754744023085 419.67722122371197 603.19497139751911 73.162703290581703 134.28202645480633
leaf_count=392 224 7604 1415 1954 215 409
internal_value=0.00646042 0.00571994 0.000695271 0.00663439 0.0154742 0.0194307
internal_weight=3700.9 3424.51 530.339 2894.17 276.388 207.445
internal_count=12213 11365 1807 9558 848 624
is_linear=0
shrinkage=0.03


Tree=27
num_leaves=7
num_cat=0
split_feature=12 5 35 26 21 21
split_gain=30.29 17.1651 22.9628 12.4447 4.62889 3.94249
threshold=67.952783274430558 -8.7555804812122759e-05 0.0019543580194442017 0.16667885957587922 40.1866906808525 32.578004405583236
decision_type=2 2 2 2 2 2
left_child=1 2 -1 -3 5 -2
right_child=4 3 -4 -5 -6 -7
leaf_value=-0.011749714115333539 0.01482425948015385 0.003257438530376436 0.0041736395447167863 0.0090958287944337708 0.0092048615188293995 0.025750740084814216
leaf_weight=83.498251810669899 99.769829899072647 453.26311326026917 1612.6179437339306 1320.4700580835342 67.037822991609573 66.308880209922791
leaf_count=316 307 1499 5374 4315 209 193
internal_value=0.00626439 0.00554782 0.003368 0.00761767 0.0167285 0.0195305
internal_weight=3702.97 3469.85 1696.12 1773.73 233.117 166.079
internal_count=12213 11504 5690 5814 709 500
is_linear=0
shrinkage=0.03


Tree=28
num_leaves=6
num_cat=0
split_feature=23 17 13 35 23
split_gain=34.8149 35.2038 22.2926 19.243 18.6947
threshold=0.00057804283649853859 -16.697670167045079 -3.5261221697948861 0.0055844623280671456 0.0011692917105716649
decision_type=2 2 2 2 2
left_child=2 3 -1 -2 -3
right_child=1 4 -4 -5 -6
leaf_value=-0.022147050969629357 -0.00056578458111034675 0.0053825840988780127 0.00080086670450777375 0.0065846606257381072 0.011177756758971152
leaf_weight=57.338386997580528 701.4575582742691 815.74754744768143 102.7914764881134 646.27166390419006 1381.1853113174438
leaf_count=230 2405 2719 363 2133 4363
internal_value=0.00607477 0.00669591 -0.00749551 0.00285661 0.00903961
internal_weight=3704.79 3544.66 160.13 1347.73 2196.93
internal_count=12213 11620 593 4538 7082
is_linear=0
shrinkage=0.03


Tree=29
num_leaves=6
num_cat=0
split_feature=23 12 32 2 21
split_gain=32.7866 26.8564 23.0874 13.7685 4.50655
threshold=0.00057804283649853859 68.297356602757731 -0.00017405009966553472 0.7785531759543598 38.329932398144358
decision_type=2 2 2 2 2
left_child=2 3 -1 -2 -3
right_child=1 4 -4 -5 -6
leaf_value=-0.022834968340745259 0.0061753224534649006 0.020222934136210905 0.0008244090936409984 -0.0043912179197345552 0.010252936884115464
leaf_weight=54.204909548163414 3218.1844763755798 136.39918471872807 105.59674915671349 111.92091047763824 79.737003669142723
leaf_count=220 10581 408 373 384 247
internal_value=0.00589059 0.0064926 -0.00729123 0.00581327 0.0167413
internal_weight=3706.04 3546.24 159.802 3330.11 216.136
internal_count=12213 11620 593 10965 655
is_linear=0
shrinkage=0.03


Tree=30
num_leaves=7
num_cat=0
split_feature=23 5 17 23 18 33
split_gain=29.6682 26.9304 17.6417 15.754 10.596 7.96306
threshold=0.0013656679665408431 -8.7555804812122759e-05 -22.984776973954371 0.00076895813159362253 -0.0024809186184589272 0.0014932278438233935
decision_type=2 2 2 2 2 2
left_child=1 3 -3 -1 -2 -6
right_child=4 2 -4 -5 5 -7
leaf_value=-0.009266260726216554 -0.00085150201908369509 -0.00050920585062188986 0.0085913117333673069 0.0010025737384810941 0.019275205977187133 0.008462098473229037
leaf_weight=167.46508419513702 103.14103578031063 254.71207062900066 734.98097701370716 642.02287097275257 65.51658371090889 1689.6710404157639
leaf_count=633 349 872 2400 2157 202 5433
internal_value=0.00568471 0.00292102 0.00623773 -0.00112094 0.00834635 0.00889574
internal_weight=3657.51 1799.18 989.693 809.488 1858.33 1755.19
internal_count=12046 6062 3272 2790 5984 5635
is_linear=0
shrinkage=0.03


Tree=31
num_leaves=8
num_cat=0
split_feature=23 31 36 37 31 40 37
split_gain=27.8917 25.6289 26.7685 15.9212 10.2646 15.7687 12.9429
threshold=0.0013656679665408431 -0.0021338591975296937 0.0035499985383055104 -0.78656609248549303 -0.0094864187939984173 0.30545113827553166 -0.70710678118654735
decision_type=2 2 2 2 2 2 2
left_child=1 3 -3 -1 6 -6 -2
right_child=4 2 -4 -5 5 -7 -8
leaf_value=-0.012981313668670747 -0.0018945351963779529 0.0032856550393729309 0.014928726681246016 0.0001437102685881355 0.0037558949995472684 0.011779991886994006 0.0075346022202406916
leaf_weight=93.963275730609894 174.83065220713615 873.31290526688099 223.73135800659657 608.44351990520954 303.73977386951447 893.37824793159962 487.31064623594284
leaf_count=336 588 2949 697 2080 1003 2812 1581
internal_value=0.00551272 0.00283264 0.00569664 -0.00162265 0.00809271 0.00976624 0.00502416
internal_weight=3658.71 1799.45 1097.04 702.407 1859.26 1197.12 662.141
internal_count=12046 6062 3646 2416 5984 3815 2169
is_linear=0
shrinkage=0.03


Tree=32
num_leaves=8
num_cat=0
split_feature=23 9 21 23 21 40 20
split_gain=26.2254 28.7661 22.7783 17.9735 17.0486 21.7833 12.5201
threshold=0.0013656679665408431 0.00067580772387387811 16.622303895407047 0.0011692917105716649 21.090463135115929 0.2110235489017501 -0.0026962739805392387
decision_type=2 2 2 2 2 2 2
left_child=1 2 -1 -3 5 -2 -6
right_child=4 3 -4 -5 6 -7 -8
leaf_value=0.0060068020401988801 -0.013117804373290553 0.0041133122958382316 -0.0036834614385929591 0.01419489497217398 -0.0011087988093804212 0.0055660584050188982 0.010630057418426575
leaf_weight=316.77537144720554 60.408816739916801 569.75844722986221 688.88629448413849 224.39641925692558 85.006191626191139 536.27936078608036 1178.2765617668629
leaf_count=1070 213 1896 2397 699 288 1742 3741
internal_value=0.00534652 0.00274748 -0.000610356 0.00700931 0.00784779 0.00361194 0.00982779
internal_weight=3659.79 1799.82 1005.66 794.155 1859.97 596.688 1263.28
internal_count=12046 6062 3467 2595 5984 1955 4029
is_linear=0
shrinkage=0.03


Tree=33
num_leaves=8
num_cat=0
split_feature=23 39 12 15 21 40 21
split_gain=24.642 29.4717 32.1105 27.9511 16.0272 20.5388 11.3633
threshold=0.0013656679665408431 1.0000000180025095e-35 40.959532112308572 76.728592629146505 21.090463135115929 0.2110235489017501 24.043877905504665
decision_type=2 2 2 2 2 2 2
left_child=1 2 -1 -3 5 -2 -6
right_child=4 3 -4 -5 6 -7 -8
leaf_value=-0.0050105926566573209 -0.012752491757440082 -0.0095157290566908592 0.0066879785862501437 0.0099035966589160872 0.016223294878303159 0.0053978258543349051 0.0082470491413078918
leaf_weight=253.97775137424469 60.333571866154671 279.36007410287857 1181.7689984440804 84.986164748668671 197.46451005339622 536.46310023963451 1066.3754147440195
leaf_count=892 213 991 3906 273 613 1742 3416
internal_value=0.00518523 0.00266554 0.00460402 -0.00491576 0.0076094 0.00350139 0.00952878
internal_weight=3660.73 1800.09 1435.75 364.346 1860.64 596.797 1263.84
internal_count=12046 6062 4798 1264 5984 1955 4029
is_linear=0
shrinkage=0.03


Tree=34
num_leaves=8
num_cat=0
split_feature=23 8 21 24 5 25 20
split_gain=23.5069 18.9741 30.8599 16.1297 12.8125 11.7963 9.54088
threshold=0.0011544638196440444 -0.0019783200574509103 20.890439331732754 0.84961078220456498 -7.4597958746647195e-05 0.46185184944140206 -0.00028550265673781141
decision_type=2 2 2 2 2 2 2
left_child=3 2 -2 5 -5 -1 -3
right_child=1 6 -4 4 -6 -7 -8
leaf_value=-0.0028139938754648546 -0.0063313655681998997 0.014421075998935511 0.0064973304963212367 -0.0039537686842365796 0.0029524780695928199 0.012032760979676874 0.0076903372160712401
leaf_weight=61.370132654905319 225.68680557608604 231.27528300881386 643.36732740700245 435.13676482439041 538.54035243391991 190.25879172980785 1336.0817648470402
leaf_count=213 779 729 2106 1533 1807 623 4256
internal_value=0.00502868 0.00673429 0.00314171 0.00161954 -0.000120331 0.00835899 0.00871018
internal_weight=3661.72 2436.41 869.054 1225.31 973.677 251.629 1567.36
internal_count=12046 7870 2885 4176 3340 836 4985
is_linear=0
shrinkage=0.03


Tree=35
num_leaves=8
num_cat=0
split_feature=17 23 23 21 31 23 21
split_gain=27.1951 28.2945 20.8893 20.0526 19.8111 17.5778 16.1356
threshold=0.61196976570048744 0.0016997940403228058 0.0011544638196440444 16.177456847843597 -0.026461320300678343 0.0016539726991795323 22.583543132842976
decision_type=2 2 2 2 2 2 2
left_child=1 6 3 -2 -3 -4 -1
right_child=2 4 5 -5 -6 -7 -8
leaf_value=-0.0036825894156026235 0.011559846438402882 -0.0014708886418015651 0.013465589333100341 7.0451874525505838e-05 0.010828076810178763 0.0062431650212494069 0.0033382930523253996
leaf_weight=629.32387545704842 186.86920964717865 157.03645452857018 604.2064705491066 504.89693410694599 442.5049696713686 643.15932884812355 549.53422848880291
leaf_count=2183 613 531 1879 1711 1416 2046 1844
internal_value=0.00498726 0.00229189 0.00744657 0.00322012 0.00758752 0.00976957 -0.000396935
internal_weight=3717.53 1778.4 1939.13 691.766 599.541 1247.37 1178.86
internal_count=12223 5974 6249 2324 1947 3925 4027
is_linear=0
shrinkage=0.03


Tree=36
num_leaves=8
num_cat=0
split_feature=3 5 12 38 0 21 36
split_gain=19.4733 19.4781 15.9731 14.9661 12.7817 7.11473 6.57026
threshold=0.04313296229285378 0.0007784283261211834 67.61579247576671 0.78656609248549303 -0.00074496951408581727 37.994012369208654 0.0067171061687328901
decision_type=2 2 2 2 2 2 2
left_child=1 4 3 -2 -1 -4 -3
right_child=2 6 5 -5 -6 -7 -8
leaf_value=0.0056222500186440365 0.004256317505577493 0.0044202383739529241 0.019161165375632231 0.0098221993628970199 -0.0049002181339137087 0.0062635167595933945 0.01501156081556659
leaf_weight=133.56981085240841 2103.5752046853304 237.53035302460194 115.95025424659252 557.36186435818672 432.87872369587421 67.266790255904198 70.096740677952766
leaf_count=438 6938 777 347 1794 1505 211 213
internal_value=0.0048377 0.000898635 0.00604151 0.00543429 -0.00238156 0.0146256 0.00696343
internal_weight=3718.23 874.076 2844.15 2660.94 566.449 183.217 307.627
internal_count=12223 2933 9290 8732 1943 558 990
is_linear=0
shrinkage=0.03


Tree=37
num_leaves=6
num_cat=0
split_feature=23 12 40 23 5
split_gain=25.4939 16.5252 15.5562 12.9204 10.0176
threshold=0.00057804283649853859 67.952783274430558 0.86673591726747801 0.0013611645792334082 -0.00018626456259457355
decision_type=2 2 2 2 2
left_child=4 3 -3 -2 -1
right_child=1 2 -4 -5 -6
leaf_value=-0.016963970726179212 0.00267740512357891 0.020857953452750527 0.0052097443437411689 0.0064535194805306452 -0.0012554675378512392
leaf_weight=55.191760137677193 1573.2505002617836 113.69651247560978 123.01590400934219 1745.1574138998985 108.73390825092793
leaf_count=222 5262 337 388 5629 385
internal_value=0.00469308 0.00522962 0.0129004 0.00467048 -0.00677546
internal_weight=3719.05 3555.12 236.712 3318.41 163.926
internal_count=12223 11616 725 10891 607
is_linear=0
shrinkage=0.03


Tree=38
num_leaves=6
num_cat=0
split_feature=12 31 18 21 21
split_gain=17.0078 17.0303 14.5731 7.5218 6.40863
threshold=67.952783274430558 -0.28386977517173007 -0.0026255465131140923 38.329932398144358 29.535187148006607
decision_type=2 2 2 2 2
left_child=1 -1 -3 4 -2
right_child=3 2 -4 -5 -6
leaf_value=0.015614242005616405 0.0093533797211835419 -0.0093286824371442995 0.0039188798874923549 0.0044699198569425188 0.022241867362588867
leaf_weight=109.11306296288967 79.257250353693962 73.976322889328003 3296.1268492639065 81.665178850293159 79.400160744786263
leaf_count=341 247 257 10887 258 233
internal_value=0.00455205 0.00400755 0.00361828 0.012275 0.0160934
internal_weight=3719.54 3479.22 3370.1 240.323 158.657
internal_count=12223 11485 11144 738 480
is_linear=0
shrinkage=0.03


Tree=39
num_leaves=8
num_cat=0
split_feature=17 9 32 24 24 16 12
split_gain=24.7872 20.8321 15.6265 14.8322 11.6695 10.7724 10.5216
threshold=0.61196976570048744 -0.0098255937919372576 0.00074158415917668929 1.0691792880063626 0.83142820617526736 75.875221897931297 67.952783274430558
decision_type=2 2 2 2 2 2 2
left_child=1 3 -3 -1 5 -2 -6
right_child=4 2 -4 -5 6 -7 -8
leaf_value=0.016706498772490093 0.0089191105691381316 -0.0012950730544087881 0.0051277449763057871 -0.00070214684796101625 0.0048459314702973388 0.023399237381329901 0.011801348823131169
leaf_weight=131.91460514068604 193.39782348275185 1093.9770277291536 491.83568833768368 62.997082650661469 1450.8979418426752 64.44451516866684 230.92660441994667
leaf_count=411 621 3741 1610 212 4725 193 710
internal_value=0.00441558 0.00184521 0.00069145 0.0110537 0.00676327 0.0127482 0.00582275
internal_weight=3720.39 1780.72 1585.81 194.912 1939.67 257.842 1681.82
internal_count=12223 5974 5351 623 6249 814 5435
is_linear=0
shrinkage=0.03


Tree=40
num_leaves=6
num_cat=0
split_feature=36 37 33 30 20
split_gain=18.9323 15.8744 18.0223 17.5392 3.63584
threshold=0.013692658921273472 -0.91597561503675329 0.001058816378608958 0.3806316189398507 0.0030888339942969434
decision_type=2 2 2 2 2
left_child=1 3 -3 -1 -2
right_child=4 2 -4 -5 -6
leaf_value=-0.0094491282109106789 0.017488773322039061 -0.0019977814666716212 0.0053924792362403644 0.0030501262121626431 0.0076691804003909082
leaf_weight=157.17319622635841 108.40063002705574 328.09690165519714 2793.0616581141949 272.67938601970673 66.380327746272087
leaf_count=545 327 1159 9101 896 207
internal_value=0.00435024 0.00386478 0.00461003 -0.00150802 0.0139732
internal_weight=3725.79 3551.01 3121.16 429.853 174.781
internal_count=12235 11701 10260 1441 534
is_linear=0
shrinkage=0.03


Tree=41
num_leaves=6
num_cat=0
split_feature=36 38 8 25 38
split_gain=17.8739 15.2577 24.4378 14.1229 6.17797
threshold=0.013692658921273472 0.60355339059327384 -0.0037137656988620034 0.85012796993418827 0.37940952255126048
decision_type=2 2 2 2 2
left_child=1 3 -3 -1 -2
right_child=4 2 -4 -5 -6
leaf_value=0.0048030803440136079 0.018577856114052889 -0.0029238619575944862 0.0090067029962288391 0.00029977311829772543 0.0065813004287111994
leaf_weight=1217.0012619048357 98.625770539045334 185.94874502718449 842.51837931573391 1306.2696297168732 76.047862395644188
leaf_count=4001 295 628 2714 4358 239
internal_value=0.00421949 0.00374787 0.00683359 0.00247979 0.0135734
internal_weight=3726.41 3551.74 1028.47 2523.27 174.674
internal_count=12235 11701 3342 8359 534
is_linear=0
shrinkage=0.03


Tree=42
num_leaves=8
num_cat=0
split_feature=17 9 5 36 20 35 9
split_gain=18.2751 20.6695 12.7506 11.5226 12.9442 10.6762 3.72333
threshold=-12.994503939083286 -0.010244587945632653 -0.00069267227129854436 0.013692658921273472 -0.00028550265673781141 0.0045413423403837258 0.013079646949029635
decision_type=2 2 2 2 2 2 2
left_child=1 2 -1 4 -2 -3 -5
right_child=3 5 -4 6 -6 -7 -8
leaf_value=0.0029296625741577144 0.011484377400217015 -0.0031894488359397563 0.019118811249795378 0.018939664703156563 0.0042347182229710524 0.0024132070688917318 0.009132288192582546
leaf_weight=94.137544929981232 254.49505820870399 529.66258275508881 85.836485102772713 67.613290622830391 1869.1086412072182 719.37161086499691 106.91757521033287
leaf_count=311 813 1832 263 202 6103 2379 332
internal_value=0.00409303 0.00141235 0.0108586 0.00575072 0.00512057 2.40669e-05 0.0131882
internal_weight=3727.14 1429.01 179.974 2298.13 2123.6 1249.03 174.531
internal_count=12235 4785 574 7450 6916 4211 534
is_linear=0
shrinkage=0.03


Tree=43
num_leaves=5
num_cat=0
split_feature=23 17 21 23
split_gain=24.0712 19.0858 31.0721 16.84
threshold=0.00050882761457457938 -12.994503939083286 22.68197014726594 0.0011918208229151424
decision_type=2 2 2 2
left_child=-1 2 -2 -3
right_child=1 3 -4 -5
leaf_value=-0.014170170036518768 -0.004012468279045246 0.0028866669850421854 0.0050775161047091361 0.0082024837043866861
leaf_weight=62.413564130663872 549.02567182481289 927.87899529933929 871.86858466267586 1316.3908413946629
leaf_count=237 1884 3097 2868 4149
internal_value=0.00397141 0.00429199 0.00155395 0.0060159
internal_weight=3727.58 3665.16 1420.89 2244.27
internal_count=12235 11998 4752 7246
is_linear=0
shrinkage=0.03


Tree=44
num_leaves=7
num_cat=0
split_feature=17 21 8 33 21 9
split_gain=16.291 23.7266 21.076 15.3063 12.4435 13.8086
threshold=-1.165338654876255 22.040237855772396 -0.002773537192795605 0.001138605826117112 48.031228482155662 -0.0011967467796326068
decision_type=2 2 2 2 2 2
left_child=1 2 -1 -3 5 -2
right_child=4 3 -4 -5 -6 -7
leaf_value=-0.010732791009261743 0.014070499962331806 -0.0091767001556912302 0.00065283834140180547 0.0058740284864829692 0.016857030912963682 0.0044222346351724309
leaf_weight=192.76114383339882 145.04100580513477 62.724269762635231 579.41071309149265 897.11434206366539 85.657612696290016 1764.9443848729134
leaf_count=678 453 226 1962 2932 259 5725
internal_value=0.00385214 0.00170801 -0.00219042 0.00485785 0.00570193 0.0051767
internal_weight=3727.65 1732.01 772.172 959.839 1995.64 1909.99
internal_count=12235 5798 2640 3158 6437 6178
is_linear=0
shrinkage=0.03


Tree=45
num_leaves=7
num_cat=0
split_feature=23 23 40 12 39 6
split_gain=27.4614 13.9437 12.3636 9.98128 13.9243 6.41248
threshold=0.00076110631399271985 0.00081970402047384439 0.20679571934627974 55.919437371210556 1.0000000180025095e-35 0.00075381456420264847
decision_type=2 2 2 2 2 2
left_child=3 -2 -3 4 -1 -5
right_child=1 2 -4 5 -6 -7
leaf_value=-0.0041024549426667903 0.01504987721743793 -0.00035372248102945867 0.0043329162842357426 0.0089122591863547845 -0.020732532415056518 -0.0045166414489994366
leaf_weight=217.97997988760471 94.434181392192841 624.66489563882351 2546.9674810767174 64.385098412632942 57.080895692110062 58.524519741535187
leaf_count=795 299 2091 8241 213 224 202
internal_value=0.00284641 0.00375577 0.0034055 -0.00456054 -0.00773243 0.00242794
internal_weight=3664.04 3266.07 3171.63 397.97 275.061 122.91
internal_count=12065 10631 10332 1434 1019 415
is_linear=0
shrinkage=0.03


Tree=46
num_leaves=8
num_cat=0
split_feature=15 35 17 20 35 36 2
split_gain=15.7194 16.0148 11.5697 30.7136 10.7182 8.46582 4.08582
threshold=12.829673362402984 0.0059665812823050286 11.516988579989208 -0.00010144763683034134 0.013212532865700297 -0.0041415433741645571 0.2369512266338378
decision_type=2 2 2 2 2 2 2
left_child=1 6 3 -2 -4 -3 -1
right_child=2 5 4 -5 -6 -7 -8
leaf_value=-0.0059658551377186307 0.0043394073223375421 -0.0045264674703701033 0.0058124829462647808 -0.0038879525125145292 -0.0046148420414339735 0.010938266999693184 -0.017874823116521475
leaf_weight=57.844243004918098 1257.5403286516666 62.994359865784645 1473.3761380314827 600.84983198344707 91.336644396185875 59.356496796011925 60.699722304940224
leaf_count=203 4165 215 4726 2048 300 187 221
internal_value=0.00276073 -0.00459388 0.00328506 0.00166998 0.00518912 0.00291063 -0.0123836
internal_weight=3664 240.895 3423.1 1858.39 1564.71 122.351 118.544
internal_count=12065 826 11239 6213 5026 402 424
is_linear=0
shrinkage=0.03


Tree=47
num_leaves=7
num_cat=0
split_feature=23 36 37 17 24 16
split_gain=25.5624 18.6024 16.6333 17.9706 14.9379 7.24817
threshold=0.00076110631399271985 0.0026795608539587072 -0.91597561503675329 -22.984776973954371 0.84961078220456498 22.126406844059378
decision_type=2 2 2 2 2 2
left_child=1 4 5 -4 -1 -2
right_child=2 -3 3 -5 -6 -7
leaf_value=0.0050036048006483532 -0.011138147207757985 0.011278087226601815 0.0011107976591757636 0.0061335830125612669 -0.010295571934913662 -0.00024349717064975452
leaf_weight=69.883249849081039 63.542566448450089 55.405734464526176 995.09907208383083 1847.2952543348074 272.32352159917355 360.6991852670908
leaf_count=244 221 181 3315 5905 1009 1190
internal_value=0.00267708 -0.00447237 0.00355409 0.00438244 -0.00711678 -0.00195509
internal_weight=3664.25 397.613 3266.64 2842.39 342.207 424.242
internal_count=12065 1434 10631 9220 1253 1411
is_linear=0
shrinkage=0.03


Tree=48
num_leaves=6
num_cat=0
split_feature=23 36 24 23 38
split_gain=24.0402 17.5377 14.11 13.1224 12.109
threshold=0.00076110631399271985 0.0026795608539587072 0.84961078220456498 0.00081970402047384439 0.78656609248549303
decision_type=2 2 2 2 2
left_child=1 2 -1 -2 -5
right_child=3 -3 -4 4 -6
leaf_value=0.0048529159979468009 0.01439111926298756 0.010937148417673117 -0.010010403675514765 0.0021253472840421848 0.0066555416596527075
leaf_weight=69.952640265226364 94.604647412896156 55.480073794722557 271.74468778073788 2490.4961121678352 681.66263002157211
leaf_count=244 299 181 1009 8148 2184
internal_value=0.00259698 -0.00434004 -0.00691339 0.00344712 0.00310714
internal_weight=3663.94 397.177 341.697 3266.76 3172.16
internal_count=12065 1434 1253 10631 10332
is_linear=0
shrinkage=0.03


Tree=49
num_leaves=8
num_cat=0
split_feature=23 9 8 40 20 9 9
split_gain=22.6124 19.1093 16.0575 20.2502 18.9756 11.4039 9.29851
threshold=0.00076110631399271985 0.00027043177843899541 -0.0037802270869056738 0.5759464914209288 -0.00013083547883385231 0.0011702799802023602 -0.00040608680214931908
decision_type=2 2 2 2 2 2 2
left_child=1 6 3 -2 -4 -3 -1
right_child=2 5 4 -5 -6 -7 -8
leaf_value=-0.0059473275514331349 0.0019300092126745584 0.010961894565662723 0.0083110831411440239 -0.010815337924009247 0.0027082457958785269 -0.0035196250000344102 -0.020074977356668397
leaf_weight=135.00084710121155 504.17456510663033 80.16561171412468 780.9828832000494 141.89059190452099 1840.1139683574438 117.30397492647171 64.267835795879364
leaf_count=502 1669 272 2520 492 5950 411 249
internal_value=0.0025199 -0.00421161 0.00334399 -0.000870752 0.00438845 0.00233512 -0.0107325
internal_weight=3663.9 396.738 3267.16 646.065 2621.1 197.47 199.269
internal_count=12065 1434 10631 2161 8470 683 751
is_linear=0
shrinkage=0.03


Tree=50
num_leaves=5
num_cat=0
split_feature=23 17 23 21
split_gain=16.6044 13.5688 16.8936 16.8303
threshold=0.00053484207274745704 -21.029338859764646 0.0011643744418935846 18.976067484833266
decision_type=2 2 2 2
left_child=-1 3 -3 -2
right_child=1 2 -4 -5
leaf_value=-0.010031254192418073 -0.0065222628782989874 0.0010125690064039614 0.0063019448398261872 0.0021237512332849305
leaf_weight=89.389354586601257 252.07261008024216 897.04115808010101 1409.9737315475941 995.30011250078678
leaf_count=337 871 3016 4470 3303
internal_value=0.00256534 0.00289181 0.00425442 0.00035689
internal_weight=3643.78 3554.39 2307.01 1247.37
internal_count=11997 11660 7486 4174
is_linear=0
shrinkage=0.03


Tree=51
num_leaves=7
num_cat=0
split_feature=35 16 40 17 9 16
split_gain=15.8616 25.5368 17.1555 13.0944 9.48134 8.62529
threshold=0.0045413423403837258 13.340303701069873 0.082310187542731394 18.093786389266942 -0.010972058045487175 22.995949952018297
decision_type=2 2 2 2 2 2
left_child=1 -1 5 -3 -4 -2
right_child=2 3 4 -5 -6 -7
leaf_value=-0.018309897068380477 -0.014700052216580226 -0.00097747175122368107 0.013972244825435531 0.0046556656930299952 0.00446863202495553 0.001200422143846731
leaf_weight=61.651645839214325 58.314188286662102 1016.8164582103491 100.27890740334988 580.11035861074924 1767.549051374197 58.743277862668037
leaf_count=229 207 3485 313 1884 5684 195
internal_value=0.00248847 0.000312416 0.00429709 0.00106274 0.00500128 -0.00670856
internal_weight=3643.46 1658.58 1984.89 1596.93 1867.83 117.057
internal_count=11997 5598 6399 5369 5997 402
is_linear=0
shrinkage=0.03


Tree=52
num_leaves=5
num_cat=0
split_feature=23 31 3 22
split_gain=15.449 9.13689 10.977 9.9096
threshold=0.00053484207274745704 0.070462077459335512 0.090764484486417704 8.4449591322464617
decision_type=2 2 2 2
left_child=-1 2 -2 -3
right_child=1 3 -4 -5
leaf_value=-0.00975093288666074 -0.00038976216930884021 0.00098618273422764781 0.003396502296285631 0.012034461834979178
leaf_weight=89.168880730867386 980.22512429952621 125.67158845067024 2263.1740084886551 185.0492007881403
leaf_count=337 3273 412 7406 569
internal_value=0.00241374 0.00272847 0.00224805 0.00764882
internal_weight=3643.29 3554.12 3243.4 310.721
internal_count=11997 11660 10679 981
is_linear=0
shrinkage=0.03


Tree=53
num_leaves=8
num_cat=0
split_feature=35 17 21 26 8 9 8
split_gain=14.5776 14.5514 14.034 11.9876 9.73978 27.4507 11.7994
threshold=0.0045413423403837258 18.093786389266942 15.447437848222952 0.41742618081358374 -0.0057589594758597476 -0.010972058045487175 0.0017809252805269795
decision_type=2 2 2 2 2 2 2
left_child=1 2 -1 -3 5 -2 -6
right_child=4 3 -4 -5 6 -7 -8
leaf_value=0.0030969272795411261 0.011002695219353709 0.0077897028563358468 -0.0042157566661215453 -0.00075965035403544327 0.0073804116860620422 -0.0069160361092774946 0.0022543127368227739
leaf_weight=346.83889712393284 116.71456797420979 332.21730126440525 720.87879647314548 258.50162981450558 886.0854999423027 216.26740869879723 765.73337776958942
leaf_count=1169 370 1060 2507 862 2836 738 2455
internal_value=0.00234146 0.000255 -0.00182492 0.00403322 0.00407529 -0.000562314 0.00501878
internal_weight=3643.24 1658.44 1067.72 590.719 1984.8 332.982 1651.82
internal_count=11997 5598 3676 1922 6399 1108 5291
is_linear=0
shrinkage=0.03


Tree=54
num_leaves=7
num_cat=0
split_feature=23 36 21 38 7 7
split_gain=14.456 16.927 17.9658 8.88754 22.4272 19.1921
threshold=0.00076110631399271985 0.0021173614602838513 16.622303895407047 0.78656609248549303 0.0020321533569244159 0.0071014880165150016
decision_type=2 2 2 2 2 2
left_child=1 2 -1 5 -5 -2
right_child=3 -3 -4 4 -6 -7
leaf_value=0.0017295605078744959 0.0015655810825542667 0.0094311038195975493 -0.012497115576265662 0.0091733926741146034 -0.0032853653240047906 0.014547575430345353
leaf_weight=140.35026413202286 2467.533970862627 75.081064462661743 177.28900793194771 505.9508450627327 171.52811686694622 105.39453922212124
leaf_count=501 8088 247 670 1608 563 320
internal_value=0.00227171 -0.00313496 -0.00619258 0.00293109 0.00599655 0.00211407
internal_weight=3643.13 392.72 317.639 3250.41 677.479 2572.93
internal_count=11997 1418 1171 10579 2171 8408
is_linear=0
shrinkage=0.03


Tree=55
num_leaves=8
num_cat=0
split_feature=32 20 17 38 24 1 33
split_gain=21.1442 14.9573 10.5707 21.5753 11.1437 8.27058 6.05354
threshold=0.000108715450608754 0.0017910143396680366 6.0148288282941529 0.25881904510252057 0.87915318663198416 0.000442349956034463 0.0051381112928163145
decision_type=2 2 2 2 2 2 2
left_child=2 5 4 -4 -1 -2 -3
right_child=1 6 3 -5 -6 -7 -8
leaf_value=-0.0076235334523528141 -0.0041325168651196714 0.017642695310419482 -0.0014175498342099897 0.0077994167093054286 -0.00011707924804400272 0.0044315803818170112 0.005554458034200435
leaf_weight=234.26660630106926 105.52381835877895 106.00606879591942 529.88777935504913 396.54313322901726 739.23209933936596 1494.5991966426373 67.480858087539673
leaf_count=817 368 317 1763 1263 2501 4842 212
internal_value=0.00242981 0.00478393 0.000221595 0.00251976 -0.00195077 0.00385298 0.0131431
internal_weight=3673.54 1773.61 1899.93 926.431 973.499 1600.12 173.487
internal_count=12083 5739 6344 3026 3318 5210 529
is_linear=0
shrinkage=0.03


Tree=56
num_leaves=7
num_cat=0
split_feature=12 37 0 36 21 8
split_gain=27.7533 16.738 18.4089 11.5402 4.71168 7.12158
threshold=67.952783274430558 -0.91597561503675329 0.00012787090496084344 0.0029635555167165655 39.204512949719096 0.006598272902339831
decision_type=2 2 2 2 2 2
left_child=1 2 -1 -3 5 -2
right_child=4 3 -4 -5 -6 -7
leaf_value=-0.0095587909761926399 0.0075797595193269609 0.0013445569187239242 0.0027169939106415674 0.0055758075430261374 0.0056956265483758105 0.021153694087424235
leaf_weight=231.94603128731251 69.997360065579414 2211.4990881532431 203.41857339441776 793.02164028584957 76.430356904864311 86.89499431848526
leaf_count=801 219 7379 665 2523 240 256
internal_value=0.00235737 0.00166942 -0.00380259 0.00246932 0.0123358 0.0153637
internal_weight=3673.21 3439.89 435.365 3004.52 233.323 156.892
internal_count=12083 11368 1466 9902 715 475
is_linear=0
shrinkage=0.03


Tree=57
num_leaves=7
num_cat=0
split_feature=12 23 8 31 21 8
split_gain=26.2345 15.1107 13.5471 8.39247 4.45222 6.75179
threshold=67.952783274430558 0.00076895813159362253 -0.0042093191615039651 -0.0021338591975296937 39.204512949719096 0.006598272902339831
decision_type=2 2 2 2 2 2
left_child=1 3 -3 -1 5 -2
right_child=4 2 -4 -5 -6 -7
leaf_value=-0.0098749202197272595 0.0073624322043168156 -0.0017863621579825024 0.0033073995896606288 -0.00063667002063707006 0.0055332239955495762 0.020600588864839356
leaf_weight=135.35291689634323 69.961253449320793 574.76473750174046 2469.1012470275164 260.7087534070015 76.372992515563965 86.609249770641327
leaf_count=509 219 1925 8009 925 240 256
internal_value=0.00228794 0.00161944 0.00234009 -0.00386525 0.0119981 0.0149474
internal_weight=3672.87 3439.93 3043.87 396.062 232.943 156.571
internal_count=12083 11368 9934 1434 715 475
is_linear=0
shrinkage=0.03


Tree=58
num_leaves=7
num_cat=0
split_feature=12 37 36 33 16 8
split_gain=24.8037 15.8003 17.1266 14.6806 4.36009 3.31345
threshold=67.952783274430558 -0.91597561503675329 -0.0037055058821220395 0.00102763496310928 88.901770328201124 0.0081001587879754328
decision_type=2 2 2 2 2 2
left_child=1 2 -1 -3 5 -2
right_child=4 3 -4 -5 -6 -7
leaf_value=0.005531033716606377 0.0040036716563833724 -0.0039105716907378496 -0.007518509815439038 0.0030492939569287847 0.018451495605728424 0.012907316154825989
leaf_weight=124.38320118188858 81.701373130083084 299.81467328965664 310.86629393696785 2704.6464178860188 65.361127644777298 85.491808950901031
leaf_count=407 259 1069 1059 8833 195 261
internal_value=0.00222008 0.00157039 -0.00374674 0.00234764 0.0116703 0.00874383
internal_weight=3672.26 3439.71 435.249 3004.46 232.554 167.193
internal_count=12083 11368 1466 9902 715 520
is_linear=0
shrinkage=0.03


Tree=59
num_leaves=7
num_cat=0
split_feature=12 37 4 23 16 11
split_gain=23.4534 14.8638 17.3495 15.3739 4.12268 2.21126
threshold=67.952783274430558 -0.91597561503675329 0.00012788725802115322 0.00068634615332503399 88.901770328201124 75.266096346617701
decision_type=2 2 2 2 2 2
left_child=1 2 -1 -3 5 -2
right_child=4 3 -4 -5 -6 -7
leaf_value=-0.0092261515372772385 0.01280949287686908 -0.0045212795359437022 0.0026921688474440659 0.002953748660472193 0.017961678175316822 0.0052127791399868813
leaf_weight=231.77482284605503 67.797092944383621 269.00178106129169 203.42787243425846 2735.5711557865143 65.186435252428055 99.184319585561752
leaf_count=801 207 985 665 8917 195 313
internal_value=0.00215445 0.00152306 -0.003634 0.00227695 0.0113521 0.00850103
internal_weight=3671.94 3439.78 435.203 3004.57 232.168 166.981
internal_count=12083 11368 1466 9902 715 520
is_linear=0
shrinkage=0.03


Tree=60
num_leaves=8
num_cat=0
split_feature=13 23 17 17 20 33 40
split_gain=16.8549 13.4749 15.051 8.73987 20.666 15.2151 3.68293
threshold=-2.8523412649660993 0.00076895813159362253 -22.984776973954371 -14.116993799979648 -0.00021157974572567995 0.0026800364917656774 0.56299348762603196
decision_type=2 2 2 2 2 2 2
left_child=1 6 -3 5 -5 -2 -1
right_child=3 2 -4 4 -6 -7 -8
leaf_value=-0.012242913995298378 -0.00086364328245667002 -0.0039919569562761681 0.003200474781566038 0.015875342154948298 0.0044624218057563577 0.0067145379026472395 -0.0027250620574520109
leaf_weight=85.07830223441124 587.54586593806744 359.28041858971119 941.04671993851662 164.68778601288795 1095.973562374711 395.63987535238266 74.011684626340866
leaf_count=328 1981 1223 3039 512 3534 1272 273
internal_value=0.00269735 0.000176372 0.00119861 0.00432873 0.00598802 0.00217808 -0.00799695
internal_weight=3703.26 1459.42 1300.33 2243.85 1260.66 983.186 159.09
internal_count=12162 4863 4262 7299 4046 3253 601
is_linear=0
shrinkage=0.03


Tree=61
num_leaves=8
num_cat=0
split_feature=32 7 36 18 10 38 36
split_gain=12.9159 12.2682 16.0595 9.84746 9.01933 17.7512 15.3393
threshold=0.000108715450608754 -0.000671822850292214 -0.0044986292862087543 0.00063916278251803125 80.450228858603822 0.25881904510252057 -0.0010513367853989817
decision_type=2 2 2 2 2 2 2
left_child=1 2 -1 -3 6 -6 -2
right_child=4 3 -4 -5 5 -7 -8
leaf_value=-0.0021956031018903 0.0017418640059670804 -0.0025722624253142661 0.0058326183184289129 0.0083534162079034642 -0.0037106382963026608 0.0074340392688404646 0.0085421721638573641
leaf_weight=330.12284246087074 505.6733100861311 837.37276607751846 677.47404529154301 79.016900584101677 294.50868579745293 224.41282027959824 754.34866443276405
leaf_count=1111 1668 2830 2219 247 978 713 2396
internal_value=0.00261669 0.000901659 0.00318831 -0.00159771 0.00446004 0.00109023 0.00583204
internal_weight=3702.93 1923.99 1007.6 916.39 1778.94 518.922 1260.02
internal_count=12162 6407 3330 3077 5755 1691 4064
is_linear=0
shrinkage=0.03


Tree=62
num_leaves=8
num_cat=0
split_feature=30 33 30 24 17 21 21
split_gain=17.8621 13.4916 12.4552 9.97585 9.27356 35.6002 9.85286
threshold=0.10284941039950203 0.0014827201052256399 0.0057831338734542883 0.84806270874585388 -14.116993799979648 22.68197014726594 25.804775132884355
decision_type=2 2 2 2 2 2 2
left_child=1 3 -3 -1 5 -2 -6
right_child=4 2 -4 -5 6 -7 -8
leaf_value=0.00017703276444078051 -0.0053602783007631691 0.0067196622454771251 -0.003926015377151636 -0.015137713124241902 0.0063564392130964738 0.005253269020463529 0.0018562327629838339
leaf_weight=57.023454040288925 446.39185963571072 169.36359845101833 231.14060227572918 103.43352358043194 1218.9887637645006 773.37785868346691 703.26697757840157
leaf_count=195 1533 545 773 386 3936 2523 2271
internal_value=0.00253865 -0.00237029 0.000549539 -0.00966763 0.00342079 0.0013544 0.00472145
internal_weight=3702.99 560.961 400.504 160.457 3142.03 1219.77 1922.26
internal_count=12162 1899 1318 581 10263 4056 6207
is_linear=0
shrinkage=0.03


Tree=63
num_leaves=7
num_cat=0
split_feature=30 2 5 9 8 25
split_gain=16.813 15.5425 13.0296 11.9392 16.8833 4.53427
threshold=0.10284941039950203 0.6690258563883591 -7.4597958746647195e-05 -0.010244587945632653 -0.0037137656988620034 0.78900509177531364
decision_type=2 2 2 2 2 2
left_child=1 2 -1 5 -5 -2
right_child=3 -3 -4 4 -6 -7
leaf_value=-0.0032518189316546901 0.017259275254075411 -0.012515342413469185 0.0076892317728697703 -0.0026054151139005802 0.0038031377270680744 0.0065087670055888258
leaf_weight=314.62092535197735 67.497524917125702 106.29470869898796 139.78815047442913 428.33025290071964 2552.216512799263 94.169546395540237
leaf_count=1074 206 376 449 1440 8314 303
internal_value=0.00246256 -0.00230085 0.000100016 0.00331824 0.00287601 0.0112449
internal_weight=3702.92 560.704 454.409 3142.21 2980.55 161.667
internal_count=12162 1899 1523 10263 9754 509
is_linear=0
shrinkage=0.03


Tree=64
num_leaves=8
num_cat=0
split_feature=30 38 24 19 23 13 13
split_gain=15.8296 11.9361 17.5901 15.2878 11.852 8.56087 5.84597
threshold=0.10284941039950203 0.78656609248549303 1.1888749060455688 0.0048592047945040821 0.0016384320327511388 1.1863100085895975 -3.5261221697948861
decision_type=2 2 2 2 2 2 2
left_child=4 3 -3 -2 5 -1 -6
right_child=1 2 -4 -5 6 -7 -8
leaf_value=-0.0076742499122899478 0.0017829188552701562 0.0085132167458150249 -0.0065068389886696366 0.014675235032384683 -0.00051217751178530462 0.002379532719161657 0.01051174887901999
leaf_weight=293.31562052667141 2384.203165397048 597.0766136944294 76.84966866672039 84.25297923386097 93.822411373257637 98.938052594661713 74.471514239907265
leaf_count=1029 7844 1905 258 256 308 329 233
internal_value=0.00238893 0.00321914 0.00676406 0.00224055 -0.00223336 -0.00510113 0.00434408
internal_weight=3702.93 3142.38 673.926 2468.46 560.548 392.254 168.294
internal_count=12162 10263 2163 8100 1899 1358 541
is_linear=0
shrinkage=0.03


Tree=65
num_leaves=5
num_cat=0
split_feature=23 5 10 34
split_gain=16.69 14.6763 9.76262 9.01559
threshold=0.00052281405078147367 -0.00022239628232800787 60.270749464145588 0.0029252746303225501
decision_type=2 2 2 2
left_child=-1 3 -3 -2
right_child=1 2 -4 -5
leaf_value=-0.011756017999914655 0.0010281265784158288 0.0069255932161906729 0.0025976301313204229 -0.0069007562771489298
leaf_weight=72.991826802492142 1405.3777381777763 744.35281559824944 1324.2599066346884 139.92918340861797
leaf_count=281 4663 2402 4299 466
internal_value=0.00222288 0.00251571 0.0041674 0.000292472
internal_weight=3686.91 3613.92 2068.61 1545.31
internal_count=12111 11830 6701 5129
is_linear=0
shrinkage=0.03


Tree=66
num_leaves=8
num_cat=0
split_feature=17 13 22 5 38 36 17
split_gain=15.5762 22.3398 25.1323 16.1948 11.5439 18.5498 17.6818
threshold=11.516988579989208 -1.7305254617062891 11.148834655249546 -0.00050916062366707082 0.25881904510252057 0.013692658921273472 103.38049902632021
decision_type=2 2 2 2 2 2 2
left_child=1 3 -3 -1 5 -2 -6
right_child=4 2 -4 -5 6 -7 -8
leaf_value=-0.0013556752108506692 0.00081601171568413853 0.0040183106424614727 -0.011974385608756234 -0.012108552785450708 0.0097727797967132133 0.014969164349975731 -0.0024184695541538243
leaf_weight=613.56527289748192 863.95012180507183 1197.7932061254978 93.159114122390747 158.35125006735325 539.18830725550652 90.681212589144707 130.30494585633278
leaf_count=2076 2820 3929 322 573 1692 275 424
internal_value=0.002156 0.000416754 0.00283589 -0.0036065 0.00435263 0.0022046 0.0073775
internal_weight=3686.99 2062.87 1290.95 771.917 1624.12 954.631 669.493
internal_count=12111 6900 4251 2649 5211 3095 2116
is_linear=0
shrinkage=0.03


Tree=67
num_leaves=6
num_cat=0
split_feature=17 22 9 36 26
split_gain=14.6764 19.0347 14.696 8.05587 10.5254
threshold=11.516988579989208 11.338659878343259 -0.010244587945632653 -0.0020702986433859256 0.41338061036731344
decision_type=2 2 2 2 2
left_child=1 2 -1 -2 -5
right_child=3 -3 -4 4 -6
leaf_value=0.009025628678556644 0.01330056715563113 -0.012030533884766062 0.00021845116101193232 0.0056451921230834378 0.00050535180951010057
leaf_weight=187.18635714054108 83.003361433744431 102.99750347435474 1772.6184499263763 956.43366873264313 584.4176776856184
leaf_count=594 256 358 5948 3039 1916
internal_value=0.00209141 0.000402952 0.00107564 0.00422392 0.00370865
internal_weight=3686.66 2062.8 1959.8 1623.85 1540.85
internal_count=12111 6900 6542 5211 4955
is_linear=0
shrinkage=0.03


Tree=68
num_leaves=5
num_cat=0
split_feature=23 23 36 21
split_gain=15.4532 10.359 24.3059 21.3813
threshold=0.00052281405078147367 0.0013855027239880119 -0.0046118762033349739 18.840752739061916
decision_type=2 2 2 2
left_child=-1 2 -2 -3
right_child=1 3 -4 -5
leaf_value=-0.011443158098353551 -0.010361812262803418 -0.0019496288496218793 0.0017871252145254494 0.0056834465585929046
leaf_weight=72.753134101629257 160.94807669520378 427.06925322115421 1620.7717093229294 1404.8404434472322
leaf_count=281 564 1408 5378 4480
internal_value=0.00202946 0.00231103 0.000670878 0.0038956
internal_weight=3686.38 3613.63 1781.72 1831.91
internal_count=12111 11830 5942 5888
is_linear=0
shrinkage=0.03


Tree=69
num_leaves=8
num_cat=0
split_feature=5 17 19 36 1 28 40
split_gain=14.851 11.2685 16.6218 16.3604 10.654 11.8959 9.18488
threshold=-0.00022239628232800787 -21.634314974622033 -0.00088712816314988775 -0.01074893337727517 0.0014677576005459605 0.56423800152590819 0.2246438370702154
decision_type=2 2 2 2 2 2 2
left_child=1 3 -3 -1 5 -2 -6
right_child=4 2 -4 -5 6 -7 -8
leaf_value=0.0054562388530398102 0.0052711240047924844 0.0070907483050171825 -0.0010087380516226186 -0.0068571460353222371 -0.0011571165214951599 -0.00041106027136033761 0.0078178616870752723
leaf_weight=125.61063919961452 568.65047785639763 330.84375678002834 715.82292398810387 394.63009907305241 117.80134679377079 780.51628483831882 652.10567279160023
leaf_count=407 1846 1064 2388 1364 389 2600 2053
internal_value=0.00196827 -0.000237401 0.00154579 -0.00384588 0.00360496 0.00197704 0.00642575
internal_weight=3685.98 1566.91 1046.67 520.241 2119.07 1349.17 769.907
internal_count=12111 5223 3452 1771 6888 4446 2442
is_linear=0
shrinkage=0.03


Tree=70
num_leaves=8
num_cat=0
split_feature=38 23 22 22 14 37 17
split_gain=18.303 16.1467 15.444 9.59625 13.71 10.1596 6.45689
threshold=0.78656609248549303 0.00058736593581610794 30.510531857828301 -8.5072387971596228 55.683295720819281 -1.0000000180025095e-35 8.9457619868426175
decision_type=2 2 2 2 2 2 2
left_child=1 6 -3 5 -5 -2 -1
right_child=3 2 -4 4 -6 -7 -8
leaf_value=-0.015010458911569361 -0.0073372956492201991 0.00038863642706089688 0.014491873387313468 0.011841260758079437 0.0022174845907656322 0.0055269936248787286 -0.0017184940488849051
leaf_weight=81.15544418990612 92.283204704523087 2683.5510630905628 69.875632211565971 302.68686476349831 246.59653688967228 131.29300276935101 59.969532057642937
leaf_count=317 316 8838 213 952 798 428 218
internal_value=0.0013489 0.000247059 0.000762247 0.00544494 0.00757167 0.000132664 -0.00956993
internal_weight=3667.41 2894.55 2753.43 772.86 549.283 223.576 141.125
internal_count=12080 9586 9051 2494 1750 744 535
is_linear=0
shrinkage=0.03


Tree=71
num_leaves=7
num_cat=0
split_feature=33 1 18 8 20 16
split_gain=9.74047 10.0606 10.5985 8.602 13.9688 8.21311
threshold=0.0010869445814525771 0.00074919148271745701 -0.0002586075744914955 -0.0042093191615039651 -0.00086336636743403639 12.953920935964929
decision_type=2 2 2 2 2 2
left_child=1 2 -1 4 -2 -5
right_child=3 -3 -4 5 -6 -7
leaf_value=0.0099672404584010364 0.00063898208545064077 -0.014540220143013342 -0.0036561667542562501 -0.0062801159579266522 -0.011717473451688127 0.0028561015786745547
leaf_weight=61.068600803613663 465.90238893032074 57.436895400285721 270.98034077882767 88.830791130661964 97.530802428722382 2625.2097319662571
leaf_count=212 1540 207 960 301 339 8521
internal_value=0.00130888 -0.00315124 -0.00106105 0.00184508 -0.00150728 0.00254715
internal_weight=3666.96 389.486 332.049 3277.47 563.433 2714.04
internal_count=12080 1379 1172 10701 1879 8822
is_linear=0
shrinkage=0.03


Tree=72
num_leaves=6
num_cat=0
split_feature=38 34 26 22 35
split_gain=17.2424 15.0302 11.592 16.0582 11.3639
threshold=0.78656609248549303 0.0067778606707362696 0.13023060140321555 -8.5072387971596228 0.013681278963478136
decision_type=2 2 2 2 2
left_child=1 4 -2 -4 -1
right_child=2 -3 3 -5 -6
leaf_value=6.1067026593760089e-05 -0.0037600985386235389 0.010698275693235133 0.0001010325226227759 0.010029154839366927 -0.012229583591215298
leaf_weight=2710.7453045994043 107.33239030838013 115.79273056983948 223.59426029026508 441.89392103254795 67.388131469488144
leaf_count=8995 354 359 744 1396 232
internal_value=0.00126905 0.000199332 0.00524453 0.00672622 -0.000240251
internal_weight=3666.75 2893.93 772.821 665.488 2778.13
internal_count=12080 9586 2494 2140 9227
is_linear=0
shrinkage=0.03


Tree=73
num_leaves=8
num_cat=0
split_feature=38 23 22 8 27 24 16
split_gain=16.2248 15.0328 14.2316 11.0706 18.0129 11.5559 6.10771
threshold=0.78656609248549303 0.00058736593581610794 30.510531857828301 -0.0037802270869056738 -0.0074234826959004253 1.0373885679106156 51.07513705915536
decision_type=2 2 2 2 2 2 2
left_child=1 6 -3 4 -2 -5 -1
right_child=3 2 -4 5 -6 -7 -8
leaf_value=-0.0025569431016332091 0.0060946115326981258 0.00033194600600932575 0.013894128229557767 0.0095641530573776345 -0.014776255733219864 0.00059808913072102461 -0.01537011837001373
leaf_weight=69.298985093832016 91.689135536551476 2683.3357375711203 69.613926395773888 431.75203666090965 59.399149715900421 189.99488927423954 71.468511968851089
leaf_count=261 294 8838 213 1370 209 621 274
internal_value=0.00123125 0.000193345 0.000690176 0.0050876 -0.00209847 0.00685903 -0.00929152
internal_weight=3666.55 2893.72 2752.95 772.835 151.088 621.747 140.767
internal_count=12080 9586 9051 2494 503 1991 535
is_linear=0
shrinkage=0.03


Tree=74
num_leaves=6
num_cat=0
split_feature=38 40 26 34 16
split_gain=15.2709 21.7098 14.2092 13.8695 10.6483
threshold=0.78656609248549303 0.19234570977087476 0.13023060140321555 0.0071014880165150016 11.804989564922989
decision_type=2 2 2 2 2
left_child=3 -2 -3 4 -1
right_child=1 2 -4 -5 -6
leaf_value=-0.0092180487267700586 -0.0074950368822379642 -0.0031110238653372299 0.0088337759166818349 0.010850348053840064 0.00016399123166684862
leaf_weight=111.40708190202713 106.16716331243515 103.41663195192814 563.21496351063251 103.82752567529678 2678.0546769946814
leaf_count=387 363 340 1791 322 8877
internal_value=0.00119454 0.00493588 0.00695455 0.000187332 -0.000211676
internal_weight=3666.09 772.799 666.632 2893.29 2789.46
internal_count=12080 2494 2131 9586 9264
is_linear=0
shrinkage=0.03


Tree=75
num_leaves=6
num_cat=0
split_feature=9 36 13 23 9
split_gain=16.7191 17.148 14.3865 12.1553 10.5938
threshold=-0.010244587945632653 -0.0070694067055968026 8.1368543054414122 0.00057804283649853859 -0.014310143330888035
decision_type=2 2 2 2 2
left_child=4 2 -2 -3 -1
right_child=1 3 -4 -5 -6
leaf_value=0.00060804081168266369 -0.010719594599267229 -0.0067160853988367164 0.0050935295574425698 0.0016871115273398996 0.015812544217154861
leaf_weight=69.409174650907516 197.73435665667057 160.62823298573494 67.09475702047348 3062.6184373497963 108.57203701138496
leaf_count=227 685 606 216 10019 334
internal_value=0.00111662 0.00065156 -0.00664896 0.00125979 0.0100391
internal_weight=3666.06 3488.08 264.829 3223.25 177.981
internal_count=12087 11526 901 10625 561
is_linear=0
shrinkage=0.03


Tree=76
num_leaves=6
num_cat=0
split_feature=9 36 13 37 9
split_gain=15.7546 16.1395 13.5679 11.3204 9.96378
threshold=-0.010244587945632653 -0.0070694067055968026 8.1368543054414122 -0.91597561503675329 -0.014310143330888035
decision_type=2 2 2 2 2
left_child=4 2 -2 -3 -1
right_child=1 3 -4 -5 -6
leaf_value=0.00059030077980006283 -0.010409354688393092 -0.0036382846419611516 0.004944309073807873 0.0018726691322642744 0.015342006921995952
leaf_weight=69.410325706005096 197.58074679970741 376.83033230900764 67.106282219290733 2846.2059032022953 108.60565364360809
leaf_count=227 685 1266 216 9359 334
internal_value=0.00108342 0.000631749 -0.0064526 0.00122183 0.00974395
internal_weight=3665.74 3487.72 264.687 3223.04 178.016
internal_count=12087 11526 901 10625 561
is_linear=0
shrinkage=0.03


Tree=77
num_leaves=7
num_cat=0
split_feature=37 15 36 3 35 20
split_gain=10.0771 15.7879 11.2292 9.9717 10.7774 9.02825
threshold=-0.91597561503675329 20.276654626707181 -0.0037055058821220395 0.096191430479782139 0.005901290000667395 -0.00027568971443862558
decision_type=2 2 2 2 2 2
left_child=1 -1 -3 4 -2 -5
right_child=3 2 -4 5 -6 -7
leaf_value=-0.017006463624232901 -0.0028889074215631035 0.0076740291112617565 -0.0038373749203113438 0.0052876720757835984 0.0036069448767088717 0.0012780625102260254
leaf_weight=61.475481152534485 701.39269924163818 100.67679767310619 291.81599293649197 820.50109151005745 338.32528272271156 1351.485647931695
leaf_count=220 2387 325 978 2669 1086 4422
internal_value=0.00105119 -0.00311213 -0.00082267 0.00164591 -0.000757884 0.00280312
internal_weight=3665.67 453.968 392.493 3211.7 1039.72 2171.99
internal_count=12087 1523 1303 10564 3473 7091
is_linear=0
shrinkage=0.03


Tree=78
num_leaves=6
num_cat=0
split_feature=38 12 40 7 38
split_gain=13.0549 18.2836 16.8557 16.4764 12.241
threshold=0.78656609248549303 73.406773697708459 0.16981885987534456 0.0026729412143473579 -0.37940952255126015
decision_type=2 2 2 2 2
left_child=1 4 -2 -4 -1
right_child=2 -3 3 -5 -6
leaf_value=0.0017769937533607934 -0.007881320999161329 0.01520768265755628 0.0083338694249514601 -0.0032313892237845398 -0.0021746627330066072
leaf_weight=1345.6281708478928 85.59579373896122 68.250400558114052 554.72008901834488 135.17298670113087 1476.2603437900543
leaf_count=4430 293 208 1769 442 4945
internal_value=0.00101956 8.58724e-05 0.00447081 0.00604338 -0.000285065
internal_weight=3665.63 2890.14 775.489 689.893 2821.89
internal_count=12087 9583 2504 2211 9375
is_linear=0
shrinkage=0.03


Tree=79
num_leaves=6
num_cat=0
split_feature=38 12 40 34 38
split_gain=12.2713 17.2852 15.8764 15.5144 11.5192
threshold=0.78656609248549303 73.406773697708459 0.16981885987534456 0.0026729412143473579 -0.37940952255126015
decision_type=2 2 2 2 2
left_child=1 4 -2 -4 -1
right_child=2 -3 3 -5 -6
leaf_value=0.0017236681210045551 -0.0076538561482252156 0.014809453262568904 0.0080840841898045124 -0.0031348963586546922 -0.0021096969043734601
leaf_weight=1345.7012512683868 85.555481135845184 68.040100008249283 554.76529622077942 135.21455456316471 1476.1321438550949
leaf_count=4430 293 208 1769 442 4945
internal_value=0.000989113 8.36255e-05 0.00433504 0.00586113 -0.000276369
internal_weight=3665.41 2889.87 775.535 689.98 2821.83
internal_count=12087 9583 2504 2211 9375
is_linear=0
shrinkage=0.03


Tree=80
num_leaves=8
num_cat=0
split_feature=17 27 10 34 10 16 17
split_gain=16.3098 15.5517 13.2779 11.0644 19.9456 11.8842 10.7837
threshold=-16.697670167045079 -0.0035552286155981334 48.062147255779919 0.0026159529369272909 49.539121302186189 12.953920935964929 -36.002813257187334
decision_type=2 2 2 2 2 2 2
left_child=1 2 -1 5 -5 -2 -3
right_child=3 6 -4 4 -6 -7 -8
leaf_value=-0.0027702602814059672 -0.0059714546193997617 -0.00055251142699424963 0.0037378728209325356 -0.012426799524365295 0.0022320365833901497 0.0050161635606169102 -0.014456759305604269
leaf_weight=555.93136921525002 90.658444568514824 92.375854909420013 567.33602818846703 99.574342966079712 466.91998812556267 1678.9380858540535 114.84839607775211
leaf_count=1875 310 314 1842 338 1496 5457 420
internal_value=0.00176064 -0.000880983 0.000504316 0.00327103 -0.000352857 0.00443868 -0.00839479
internal_weight=3666.58 1330.49 1123.27 2336.09 566.494 1769.6 207.224
internal_count=12052 4451 3717 7601 1834 5767 734
is_linear=0
shrinkage=0.03


Tree=81
num_leaves=6
num_cat=0
split_feature=23 40 23 20 37
split_gain=15.0992 13.7225 13.5385 7.88699 7.2391
threshold=0.00057804283649853859 0.082310187542731394 0.0026927152168618952 -0.0013359661849792609 0.37940952255126054
decision_type=2 2 2 2 2
left_child=4 3 -3 -2 -1
right_child=1 2 -4 -5 -6
leaf_value=-0.00048112525401143103 -0.012768507447979444 0.0030029589565933432 -0.0050283736569554692 0.00085607061541879796 -0.013379413327551593
leaf_weight=78.722740575671196 82.874155342578888 3159.7831834554672 197.80138258635998 65.63321341574192 81.56270644068718
leaf_count=291 290 10280 655 221 315
internal_value=0.00170712 0.00212344 0.00252264 -0.00671607 -0.00722097
internal_weight=3666.38 3506.09 3357.58 148.507 160.285
internal_count=12052 11446 10935 511 606
is_linear=0
shrinkage=0.03


Tree=82
num_leaves=6
num_cat=0
split_feature=23 40 16 23 29
split_gain=14.2472 12.9213 17.3452 12.7445 6.61747
threshold=0.00057804283649853859 0.082310187542731394 29.179272995051544 0.0026927152168618952 0.968118138373111
decision_type=2 2 2 2 2
left_child=4 2 -2 -3 -1
right_child=1 3 -4 -5 -6
leaf_value=-0.0021386108605248241 -0.015122204400245552 0.0029128367629418957 0.0053055438390159334 -0.0048776641459950306 -0.014953230110553443
leaf_weight=101.74249173700809 86.336192488670349 3159.8797779977322 62.096142783761024 197.85657508671284 58.266072854399681
leaf_count=379 307 10280 204 655 227
internal_value=0.00165515 0.00205932 -0.0065197 0.00244668 -0.00702455
internal_weight=3666.18 3506.17 148.432 3357.74 160.009
internal_count=12052 11446 511 10935 606
is_linear=0
shrinkage=0.03


Tree=83
num_leaves=7
num_cat=0
split_feature=17 35 5 35 17 20
split_gain=15.1295 14.2234 11.9916 11.4923 11.0121 10.7534
threshold=-16.697670167045079 0.0040992657998763062 0.00032672419215984411 0.012864639457653969 -31.51910898773102 -0.00028550265673781141
decision_type=2 2 2 2 2 2
left_child=1 4 -3 5 -1 -2
right_child=3 2 -4 -5 -6 -7
leaf_value=-0.0020064413617690217 0.0090149343777927195 -0.0020343821189116843 0.0047551332382900838 -0.0062543587187823017 -0.012652647829633263 0.0027233211166351108
leaf_weight=259.725910410285 281.97600008547306 508.03234086930752 428.5836820602417 110.59001041948795 134.04539704322815 1942.9910328090191
leaf_count=884 898 1703 1378 367 486 6336
internal_value=0.00160474 -0.000939359 0.00105995 0.0030599 -0.00571409 0.00353479
internal_weight=3665.94 1330.39 936.616 2335.56 393.771 2224.97
internal_count=12052 4451 3081 7601 1370 7234
is_linear=0
shrinkage=0.03


Tree=84
num_leaves=8
num_cat=0
split_feature=17 9 9 24 9 40 8
split_gain=14.2434 13.3847 17.3431 15.8359 13.2434 10.9399 10.2489
threshold=-16.697670167045079 -0.0098255937919372576 -0.0078401578014622979 1.0786348657191622 -0.0023207951104549647 0.46611740808540009 -0.0011584335503384
decision_type=2 2 2 2 2 2 2
left_child=1 3 -3 -1 6 -6 -2
right_child=4 2 -4 -5 5 -7 -8
leaf_value=0.012092432462015813 0.0026952510542774376 -0.01462200945028668 -0.001050289031196128 -0.0059712080742285734 0.0055446346360615113 0.0009550675484808884 0.019440453776907295
leaf_weight=133.20271591842175 63.451829075813293 90.687425166368484 1044.3655456602573 61.794470071792603 681.49556286633015 1516.7301879376173 73.965427756309509
leaf_count=414 206 319 3509 209 2205 4967 223
internal_value=0.00155634 -0.000912325 -0.00217163 0.00628943 0.00296813 0.00238849 0.0119656
internal_weight=3665.69 1330.05 1135.05 194.997 2335.64 2198.23 137.417
internal_count=12052 4451 3828 623 7601 7172 429
is_linear=0
shrinkage=0.03


Tree=85
num_leaves=5
num_cat=0
split_feature=31 23 27 27
split_gain=14.6611 15.1838 13.9373 9.6131
threshold=-0.23535063102471032 0.0029209306613445928 -0.013079742279329093 -0.018410370234160138
decision_type=2 2 2 2
left_child=-1 2 -2 -3
right_child=1 3 -4 -5
leaf_value=0.011002087447412252 0.0083862332177815982 -0.0006371240745569203 0.00039826812319759564 -0.017449869876949957
leaf_weight=122.25575792789459 207.73843520879745 59.947007149457932 3248.2993351072073 65.317641451954842
leaf_count=383 655 196 10745 227
internal_value=0.000865275 0.000509099 0.000887326 -0.00965824
internal_weight=3703.56 3581.3 3456.04 125.265
internal_count=12206 11823 11400 423
is_linear=0
shrinkage=0.03


Tree=86
num_leaves=5
num_cat=0
split_feature=31 23 27 29
split_gain=13.8094 14.317 13.1297 9.27457
threshold=-0.23535063102471032 0.0029209306613445928 -0.013079742279329093 0.87327962411660331
decision_type=2 2 2 2
left_child=-1 2 -2 -3
right_child=1 3 -4 -5
leaf_value=0.010677615428878308 0.0081416845107710883 -0.017537363501897173 0.00038632339900594541 -0.0010389617056584027
leaf_weight=122.25255362689495 207.62072341144085 61.30648048222065 3248.3328337967396 64.001364141702652
leaf_count=383 655 213 10745 210
internal_value=0.000839361 0.000493557 0.000861014 -0.00937728
internal_weight=3703.51 3581.26 3455.95 125.308
internal_count=12206 11823 11400 423
is_linear=0
shrinkage=0.03


Tree=87
num_leaves=8
num_cat=0
split_feature=17 21 18 20 38 20 13
split_gain=9.85768 20.1948 28.7739 17.0003 19.3873 16.9151 14.0535
threshold=-22.984776973954371 22.68197014726594 -0.00020898392507637907 -0.00028550265673781141 -0.70710678118654757 -6.519894883082109e-05 -3.7455609462373185
decision_type=2 2 2 2 2 2 2
left_child=1 2 -1 6 -5 -3 -2
right_child=3 5 -4 4 -6 -7 -8
leaf_value=-0.017833671183348446 0.0013508583221564577 0.0025240969010141721 -0.00073945024322702435 -0.0043004370725487811 0.0024575573604968155 -0.012678440505487968 0.013426608491420336
leaf_weight=139.68409502506256 163.13006708025932 766.69007650017738 242.37810312211514 495.52734568715096 1634.0714513808489 69.869471594691277 192.1068599820137
leaf_count=505 540 2520 810 1660 5328 242 601
internal_value=0.00081421 -0.00138732 -0.00708857 0.00190017 0.000875472 0.00120928 0.00796184
internal_weight=3703.46 1218.62 382.062 2484.84 2129.6 836.56 355.237
internal_count=12206 4077 1315 8129 6988 2762 1141
is_linear=0
shrinkage=0.03


Tree=88
num_leaves=5
num_cat=0
split_feature=31 40 15 36
split_gain=12.9619 10.9719 19.3598 10.8793
threshold=-0.23535063102471032 0.082310187542731394 23.8166889104217 -0.01074893337727517
decision_type=2 2 2 2
left_child=-1 2 -2 -3
right_child=1 3 -4 -5
leaf_value=0.010321644164764179 -0.019305491310043547 0.008559341862674404 0.0029734216882793341 0.00041876750353177006
leaf_weight=122.23311142623425 65.756763160228729 153.10056857764721 69.875341415405273 3292.281762316823
leaf_count=383 239 484 231 10869
internal_value=0.000789428 0.000454292 -0.00784237 0.000789613
internal_weight=3703.25 3581.01 135.632 3445.38
internal_count=12206 11823 470 11353
is_linear=0
shrinkage=0.03


Tree=89
num_leaves=5
num_cat=0
split_feature=31 23 40 37
split_gain=12.2098 13.409 11.9091 8.56729
threshold=-0.23535063102471032 0.0029209306613445928 0.10668761751885726 -0.5
decision_type=2 2 2 2
left_child=-1 2 -2 -3
right_child=1 3 -4 -5
leaf_value=0.010018381147654624 -0.0061803904947722501 -0.016705660792618038 0.0012432617917725144 -0.00083700893666778769
leaf_weight=122.21598498523235 204.38529781997204 63.343355163931847 3251.1990679651499 61.994282618165016
leaf_count=383 702 220 10698 203
internal_value=0.000766048 0.000440665 0.00079652 -0.00911096
internal_weight=3703.14 3580.92 3455.58 125.338
internal_count=12206 11823 11400 423
is_linear=0
shrinkage=0.03


Tree=90
num_leaves=5
num_cat=0
split_feature=2 9 17 35
split_gain=10.9221 10.8013 17.5968 10.3935
threshold=0.78980825193680271 -0.010972058045487175 -16.697670167045079 0.007600611300557703
decision_type=2 2 2 2
left_child=1 3 -3 -1
right_child=-2 2 -4 -5
leaf_value=0.018008136297257633 -0.0082171433309428093 -0.0019923376716906608 0.0025319087073507837 0.0021638988600228416
leaf_weight=65.221627205610275 108.43556034564972 1168.6788320541382 2268.0466612577438 90.686691537499428
leaf_count=197 375 3937 7382 295
internal_value=0.00105826 0.0013468 0.000988786 0.0090312
internal_weight=3701.07 3592.63 3436.73 155.908
internal_count=12186 11811 11319 492
is_linear=0
shrinkage=0.03


Tree=91
num_leaves=8
num_cat=0
split_feature=15 26 40 36 21 36 11
split_gain=11.2753 15.0309 13.7465 26.2124 21.292 13.0213 10.6664
threshold=19.600162278215155 0.6846759594114914 0.65666411817680892 0.00092148958885918131 20.119326209603209 0.0033364972347382786 43.535509479807651
decision_type=2 2 2 2 2 2 2
left_child=2 5 4 -4 -1 -2 -3
right_child=1 6 3 -5 -6 -7 -8
leaf_value=-0.017226946224396349 -0.00099278025633389895 0.0041378879191279333 0.015092290383307831 -0.0091648220780581914 -0.0014625627297501804 0.0035022759099255845 0.01525966273767195
leaf_weight=108.38527585566044 1594.3993877917528 577.58114072680473 88.351352006196976 69.570291325449944 265.56094625592232 906.74127998948097 90.151194229722023
leaf_count=392 5314 1898 280 236 893 2893 280
internal_value=0.0010268 0.00170843 -0.00299746 0.00433137 -0.00613898 0.000632321 0.00570293
internal_weight=3700.74 3168.87 531.868 157.922 373.946 2501.14 667.732
internal_count=12186 10385 1801 516 1285 8207 2178
is_linear=0
shrinkage=0.03


Tree=92
num_leaves=6
num_cat=0
split_feature=33 14 22 22 3
split_gain=10.3417 11.3322 14.6043 8.17159 7.34654
threshold=0.0010869445814525771 82.79391506278418 -8.1973790759372225 30.510531857828301 0.051398640478724979
decision_type=2 2 2 2 2
left_child=1 2 -1 4 -2
right_child=3 -3 -4 -5 -6
leaf_value=-0.014557842787354969 -0.0012953575756958159 -0.015080315456112372 0.001719839795746134 0.010629622735464457 0.0020793951239402647
leaf_weight=58.772790461778641 750.62942379713058 63.004265144467354 264.08256447315216 85.186411440372467 2478.7733634412289
leaf_count=223 2487 229 919 265 8063
internal_value=0.000996086 -0.0036286 -0.00126857 0.00154084 0.00129002
internal_weight=3700.45 385.86 322.855 3314.59 3229.4
internal_count=12186 1371 1142 10815 10550
is_linear=0
shrinkage=0.03


Tree=93
num_leaves=7
num_cat=0
split_feature=15 26 7 36 36 10
split_gain=10.624 14.1653 12.1477 12.3873 12.0118 10.5116
threshold=19.600162278215155 0.6846759594114914 -0.0014376909024666482 0.0030475972849627335 0.0033364972347382786 48.305730743922062
decision_type=2 2 2 2 2 2
left_child=2 4 3 -1 -2 -3
right_child=1 5 -4 -5 -6 -7
leaf_value=0.00096979099671919004 -0.00097783230817205069 0.0037245196642857526 -0.013480887390623558 -0.013514417688572129 0.0033403530445651163 0.01374305568644776
leaf_weight=391.17972801625729 1594.2084973156452 553.0637738853693 81.289816647768021 59.272670581936836 906.20812845230103 114.79817226529121
leaf_count=1303 5314 1820 295 203 2893 358
internal_value=0.000965915 0.00162775 -0.00294071 -0.000954271 0.000582601 0.00550488
internal_weight=3700.02 3168.28 531.742 450.452 2500.42 667.862
internal_count=12186 10385 1801 1506 8207 2178
is_linear=0
shrinkage=0.03


Tree=94
num_leaves=4
num_cat=0
split_feature=2 22 36
split_gain=10.164 10.0316 9.59805
threshold=0.78980825193680271 30.510531857828301 -0.01074893337727517
decision_type=2 2 2
left_child=1 2 -1
right_child=-2 -3 -4
leaf_value=0.0069251244490225149 -0.0080152709039529851 0.011509631556653962 0.00054724310566230138
leaf_weight=225.89630277454853 108.33595609664917 81.50267119705677 3284.0091855973005
leaf_count=722 375 253 10836
internal_value=0.000936901 0.00121543 0.000965703
internal_weight=3699.74 3591.41 3509.91
internal_count=12186 11811 11558
is_linear=0
shrinkage=0.03


Tree=95
num_leaves=5
num_cat=0
split_feature=3 35 7 36
split_gain=7.33487 7.37527 13.1818 12.6488
threshold=0.83310217290421551 0.0058498796394596776 -0.0059290890948676669 -0.0079013523724081308
decision_type=2 2 2 2
left_child=1 3 -3 -1
right_child=-2 2 -4 -5
leaf_value=-0.010255412463987838 -0.0087190069394517105 -0.0051624595905517172 0.0037320481454958115 0.00028553370594203072
leaf_weight=105.57617871463299 71.598061248660088 168.87087109684944 1170.964090436697 2124.8754350394011
leaf_count=363 246 568 3754 7074
internal_value=0.000638823 0.00083546 0.00259379 -0.000215433
internal_weight=3641.88 3570.29 1339.83 2230.45
internal_count=12005 11759 4322 7437
is_linear=0
shrinkage=0.03


Tree=96
num_leaves=7
num_cat=0
split_feature=33 29 8 15 35 35
split_gain=13.6906 15.4242 11.6226 10.1684 11.2933 8.12994
threshold=0.0010741923583469518 0.91800832655512143 -0.0005148026894969403 12.829673362402984 0.0058785123528750606 0.015280982036146111
decision_type=2 2 2 2 2 2
left_child=1 2 -1 4 -2 -5
right_child=3 -3 -4 5 -6 -7
leaf_value=-0.010426715833795961 -0.012388153105346217 -0.016876175602555107 0.0022729119535655146 0.0019600641592799166 0.0011157455414580735 -0.0074269648241431915
leaf_weight=91.942194700241089 98.610618948936462 74.274725288152695 204.62753646075726 2968.9964475929737 120.25203840434551 82.882653638720512
leaf_count=338 347 284 702 9661 395 278
internal_value=0.000619131 -0.00481994 -0.00165744 0.00124298 -0.00495773 0.00169552
internal_weight=3641.59 370.844 296.57 3270.74 218.863 3051.88
internal_count=12005 1324 1040 10681 742 9939
is_linear=0
shrinkage=0.03


Tree=97
num_leaves=6
num_cat=0
split_feature=15 1 38 25 3
split_gain=11.4111 14.3092 15.1442 8.1299 7.71261
threshold=12.829673362402984 0.0022116108209930354 -0.37940952255126015 0.38543953806605608 0.47743662129189784
decision_type=2 2 2 2 2
left_child=1 2 -1 -2 -5
right_child=3 -3 -4 4 -6
leaf_value=0.0020549128105032954 -0.007119877980885655 0.0066794720849793028 -0.016185026560568888 0.0020224310708967354 -0.0016444046466151756
leaf_weight=59.606267869472504 103.76071508228779 59.582767099142075 117.64844019711018 2666.5905528962612 633.9671246111393
leaf_count=200 357 192 421 8730 2105
internal_value=0.000599665 -0.00573016 -0.0100132 0.00104754 0.001313
internal_weight=3641.16 236.837 177.255 3404.32 3300.56
internal_count=12005 813 621 11192 10835
is_linear=0
shrinkage=0.03


Tree=98
num_leaves=6
num_cat=0
split_feature=23 15 35 27 25
split_gain=10.8418 10.222 11.2628 9.81581 8.62488
threshold=0.00057804283649853859 12.829673362402984 0.005993074267894743 -0.0018331915038961881 0.92053865813635105
decision_type=2 2 2 2 2
left_child=4 2 -2 -3 -1
right_child=1 3 -4 -5 -6
leaf_value=-0.0010890845488318447 -0.011846521398055983 0.0011134909147900729 0.001268387716177314 0.012770099954605525 -0.016014001472880051
leaf_weight=87.373490273952484 112.74766886234283 3200.3848782330751 116.68638190627098 64.703549593687057 59.114851072430611
leaf_count=325 399 10454 383 212 232
internal_value=0.000581329 0.000922007 -0.00515836 0.00135675 -0.00734757
internal_weight=3641.01 3494.52 229.434 3265.09 146.488
internal_count=12005 11448 782 10666 557
is_linear=0
shrinkage=0.03


Tree=99
num_leaves=6
num_cat=0
split_feature=40 16 33 9 17
split_gain=18.0273 18.4857 14.7474 12.1798 11.0016
threshold=0.082310187542731394 29.514883567365533 0.0010741923583469518 -0.0098255937919372576 -4.6181939318602732
decision_type=2 2 2 2 2
left_child=1 -1 4 -4 -2
right_child=2 -3 3 -5 -6
leaf_value=-0.018484378211016231 -0.011941106254944042 0.0025886453983890415 0.010146069226976549 0.0012552200385292792 -0.00088803136151843233
leaf_weight=85.968715354800224 122.26587188243866 62.550798028707504 144.20923621952534 2981.9406034201384 243.77450098097324
leaf_count=311 458 208 450 9728 850
internal_value=0.000563557 -0.00959309 0.00100505 0.00167637 -0.0046656
internal_weight=3640.71 148.52 3492.19 3126.15 366.04
internal_count=12005 519 11486 10178 1308
is_linear=0
shrinkage=0.03


Tree=100
num_leaves=8
num_cat=0
split_feature=3 33 26 7 36 4 21
split_gain=10.2475 15.9358 10.9386 13.0939 6.23715 6.22667 5.66167
threshold=0.0014934661090023559 0.0020559604045800486 1.0093712690223471 0.0027128098640212266 -0.005525570851264038 -0.00032839295693248832 27.95197420992028
decision_type=2 2 2 2 2 2 2
left_child=1 5 3 -2 -4 -1 -3
right_child=2 6 4 -5 -6 -7 -8
leaf_value=-0.00089993611222624885 0.0030018168635585901 0.0052037149988803186 -0.013083054565331277 -0.0020756965090070242 -0.0012102393386419551 -0.011365644060984887 -0.0034803791941116773
leaf_weight=76.527214467525482 2390.7792038321495 179.78829458355904 62.498096838593483 559.91723996400833 113.85419408977032 177.88315327465534 103.80856412649155
leaf_count=260 7824 576 221 1830 386 631 343
internal_value=0.000932583 -0.00287484 0.00159386 0.00203249 -0.00560152 -0.00830761 0.00197033
internal_weight=3665.06 538.007 3127.05 2950.7 176.352 254.41 283.597
internal_count=12071 1810 10261 9654 607 891 919
is_linear=0
shrinkage=0.03


Tree=101
num_leaves=5
num_cat=0
split_feature=23 37 36 36
split_gain=13.4496 8.90351 10.8524 7.86875
threshold=0.00054546766387210106 -0.91597561503675329 -0.0037055058821220395 -0.0044986292862087543
decision_type=2 2 2 2
left_child=-1 2 -2 -3
right_child=1 3 -4 -5
leaf_value=-0.010076186985647211 0.0046720183118635211 -0.0012353993082738998 -0.0056565621226472036 0.0025260039191552096
leaf_weight=95.470098569989204 124.42205527424812 618.23693339526653 321.82980045676231 2505.1179753690958
leaf_count=372 408 2054 1083 8154
internal_value=0.000903582 0.00120692 -0.00273533 0.00177636
internal_weight=3665.08 3569.61 446.252 3123.35
internal_count=12071 11699 1491 10208
is_linear=0
shrinkage=0.03


Tree=102
num_leaves=8
num_cat=0
split_feature=3 33 34 37 33 17 20
split_gain=9.65364 14.9736 9.7943 18.5092 11.0363 7.34226 4.49971
threshold=0.0014934661090023559 0.0020559604045800486 0.0027128098640212266 -0.60355339059327362 0.0023063201587576799 -20.394113432336557 0.00010205247058253375
decision_type=2 2 2 2 2 2 2
left_child=1 5 3 -2 -4 -1 -3
right_child=2 6 4 -5 -6 -7 -8
leaf_value=-0.016236237343446511 -0.0017374328307009337 0.0058353987304773413 -0.0088765162891436319 0.0039044503024392154 0.00049954506756211563 -0.0046998755372712796 -0.0016330508355210502
leaf_weight=71.162733688950539 725.15638533234596 134.56271052360535 152.95658876001835 1841.8802577704191 406.97803363204002 183.02379129827023 149.02421495318413
leaf_count=258 2414 433 514 6017 1316 633 486
internal_value=0.000876138 -0.00282009 0.001518 0.00230474 -0.00205748 -0.00808972 0.00187427
internal_weight=3664.74 537.773 3126.97 2567.04 559.935 254.187 283.587
internal_count=12071 1810 10261 8431 1830 891 919
is_linear=0
shrinkage=0.03


Tree=103
num_leaves=7
num_cat=0
split_feature=15 37 20 8 38 38
split_gain=8.00743 34.0246 13.8054 24.9504 10.4847 8.78395
threshold=18.981328057118617 -0.70710678118654735 -0.00010144763683034134 -0.0010623401576458911 -0.70710678118654757 0.60355339059327384
decision_type=2 2 2 2 2 2
left_child=1 -1 3 -2 -4 -3
right_child=2 5 4 -5 -6 -7
leaf_value=-0.01782630408969919 0.0014615549220479173 0.0044202403597184232 -0.003949625215793646 0.01166990956084806 0.001125698257354039 -0.0049080255743935777
leaf_weight=103.35328042507172 870.59893311560154 270.06794914603233 480.23372888565063 286.72641874849796 1520.3209422230721 133.47528485953808
leaf_count=373 2872 892 1602 913 4966 453
internal_value=0.00084909 -0.00263388 0.00141423 0.00401937 -8.7872e-05 0.00128886
internal_weight=3664.78 506.897 3157.88 1157.33 2000.55 403.543
internal_count=12071 1718 10353 3785 6568 1345
is_linear=0
shrinkage=0.03


Tree=104
num_leaves=5
num_cat=0
split_feature=31 37 15 19
split_gain=7.76261 10.6599 11.3275 9.35232
threshold=-0.28386977517173007 -0.91597561503675329 24.783621159734111 -0.0030013862396831904
decision_type=2 2 2 2
left_child=-1 2 -2 -3
right_child=1 3 -4 -5
leaf_value=0.0086805123254546576 -0.013967107756366155 -0.0052082801617373397 -0.0014484764165406858 0.0016160882043153755
leaf_weight=108.05589857697487 78.832565918564796 189.79309457540512 356.43083368241787 2931.7609866708517
leaf_count=340 282 641 1183 9625
internal_value=0.000823445 0.000575789 -0.0038036 0.00119329
internal_weight=3664.87 3556.82 435.263 3121.55
internal_count=12071 11731 1465 10266
is_linear=0
shrinkage=0.03


Tree=105
num_leaves=6
num_cat=0
split_feature=40 9 9 9 33
split_gain=7.83303 8.99245 7.97895 10.4546 7.77888
threshold=0.082310187542731394 -0.0078401578014622979 -0.0094680132827358859 -0.0078401578014622979 0.0034169702330920575
decision_type=2 2 2 2 2
left_child=1 -1 4 -4 -2
right_child=2 -3 3 -5 -6
leaf_value=-0.014238521819198394 0.01341615673698114 0.00011358291649460518 -0.012074182751192796 0.00019950591224685205 0
leaf_weight=71.378590077161789 78.252751141786575 80.118387505412102 61.667116969823837 3274.2849231958389 76.072250545024872
leaf_count=252 240 272 214 10810 248
internal_value=-1.1479e-05 -0.00664818 0.000275937 -2.99855e-05 0.00690062
internal_weight=3641.77 151.497 3490.28 3335.95 154.325
internal_count=12036 524 11512 11024 488
is_linear=0
shrinkage=0.03


Tree=106
num_leaves=4
num_cat=0
split_feature=8 9 9
split_gain=11.0539 10.6905 11.8381
threshold=-0.011394502053605203 -0.010972058045487175 -0.0078401578014622979
decision_type=2 2 2
left_child=-1 -2 -3
right_child=1 2 -4
leaf_value=-0.011856375982033344 0.009971446397779641 -0.0088306784232491959 0.00028835804448750033
leaf_weight=67.595367059111595 96.322512716054916 131.19709879159927 3346.5027792304754
leaf_count=233 301 450 11052
internal_value=-1.10835e-05 0.000215257 -5.6227e-05
internal_weight=3641.62 3574.02 3477.7
internal_count=12036 11803 11502
is_linear=0
shrinkage=0.03


Tree=107
num_leaves=5
num_cat=0
split_feature=34 35 34 36
split_gain=9.95631 7.50925 14.9844 9.667
threshold=-0.0079089131483123225 0.0092287858764807194 0.0026159529369272909 0.0076374625596269405
decision_type=2 2 2 2
left_child=-1 2 -2 -3
right_child=1 3 -4 -5
leaf_value=-0.010071473133597769 0.00058511360125527349 0.0078784216057223751 -0.005290601765588542 -0.0015107171496669136
