tree
version=v4
num_class=1
num_tree_per_iteration=1
label_index=0
max_feature_idx=40
objective=binary sigmoid:1
feature_names=body_pct range_pct upper_wick_ratio lower_wick_ratio ret_1 ret_3 ret_6 ret_12 ret_24 ret_36 rsi_3 rsi_9 rsi_14 rsi_9_delta cci stoch_k stoch_d macd_hist price_vs_ema8 price_vs_ema21 ema_spread adx di_diff atr_pct atr_ratio range_vs_atr bb_pos bb_width vol_ratio vol_ratio_3 buy_pressure obv_slope ret_15m range_15m_pct ret_1h range_1h_pct ret_4h hour_sin hour_cos is_us_session pos_in_day_range
feature_infos=[-0.027859960545399361:0.023970671172033105] [0:0.046940486156205614] [0:0.99999995454545665] [0:0.99999993333333781] [-0.027338129496402797:0.024559375902918346] [-0.039384615384615462:0.037130270610446825] [-0.053846153846153877:0.054737929253808382] [-0.058809409505520938:0.063871146903637932] [-0.070879384911100463:0.10520796924152376] [-0.083243939068869288:0.12297962052002798] [0.24209716051012772:99.96753563161505] [4.1328254962512601:93.279418081603851] [7.5932640305363908:89.245697386497156] [-55.873753419178826:46.719289884263354] [-458.62068965518648:422.08672086717638] [-9.7966079692923813e-13:99.999999999999474] [-8.0567651315909146e-13:98.201737793967268] [-0.0066829958225076772:0.0065428043481849732] [-0.028411279731156442:0.027913465896853975] [-0.043311397239048144:0.048315909036064385] [-0.020709415613008927:0.022540785897367174] [7.5428678416345836:74.975866254471796] [-62.142498583195739:61.758690804503949] [0.00066672736736391608:0.011097702308885149] [0.45830474196877968:1.9136672915555626] [0:7.1875981989084003] [-0.52590304019581291:1.5379393306093427] [-0.10222557343331148:-0.0019629772989528988] [0:9.7307934653626162] [0:3.9217045939203192] [0:0.99999998795180745] [-0.12989519737511662:0.1341645877823843] [-0.039384615384615462:0.037130270610446825] [0:0.053366862237114614] [-0.058809409505520938:0.063871146903637932] [0.0021953896808651683:0.07712418298637283] [-0.095661375661375558:0.12935323383084585] [-1:1] [-1:1] [0:1] [0:0.99999999754299751]
tree_sizes=995 1009 1015 909 911 907 897 1025 1011 905 796 808 1018 699 693 1024 1008 1012 911 905 892 1017 797 1015 907 903 911 799 911 904 910 1012 1016 1013 903 799 687 1020 804 1003 1008 1022 1014 1012 889 795 901 799 799 804 908 1015 913 1005 907 805 899 690 917 915 910 911 799 1019 913 691 692 1007 677 666 773 916 697 1014 801 1020 1018 1007 1022 1009 799 904 689 905 902 900 916 907 1016 1003 803 913 699 1012 1016 1025 806 806 907 1025 808 1002 802 806 789 916 693 919 916 910 692 906 790 691 790 1029 909 693 908 1018 905 802 784 809 1033 692 693 698 689 912 906 1025 909 1017 912 803 695 699 700 804 909 810 800 805 798 1013 917 915 916 910 1008 906 1008 808 1035 992 795 772 903 795 705 817 595 1032 914 907 699 1018 1024 1024 694 693 688 694 700 1014 914 909 910 890 1025 1031 1032 1018 809 914 914 810 1010 909 1012 1031 1023 1009 1031 700 807 703 699 808 911 593 595 920 808 904 912 910 901 1019 703 1024 804 681 917 1015 894 915 1026 916 1029 1034 1022 906 1011 1026 1024 1019 704 710 810 693 699 806 808 807 1024 919 1026 923 698 696 697 928 811 1015 1025 694 913 909 804 914 806 809 1022 703 893 693 593 696 804 915 1015 915 804 1023 1011 1021 1019 1024 701 912 699 803 813 700 699 685 700 707 805 810 807 889 889 910 588 914 913 802 808 1023 1020 799 996 1018 1019 1013 1001 593

Tree=0
num_leaves=8
num_cat=0
split_feature=27 40 30 27 23 22 13
split_gain=21.5006 29.0977 23.6491 15.1282 14.4278 11.7945 3.20871
threshold=-0.0080864567311756865 0.30769230599433856 0.31643131003097136 -0.021427660932285299 0.0021699440154121018 -4.6618959618512692 1.0114314708694219
decision_type=2 2 2 2 2 2 2
left_child=2 6 5 -4 -3 -1 -2
right_child=1 4 3 -5 -6 -7 -8
leaf_value=-0.14584078784459495 -0.14782565627502062 -0.18035113347654808 -0.15888876786787148 -0.15318150089805344 -0.16229987930172596 -0.15227717517747022 -0.15721638431477478
leaf_weight=453.63895598053932 85.176602706313133 67.035360425710678 637.09728921949863 1185.8659121990204 102.59390279650688 641.61405277252197 60.083728924393654
leaf_count=1674 315 259 2392 4419 387 2388 225
internal_value=-0.153875 -0.161276 -0.153069 -0.155182 -0.16969 -0.149579 -0.151536
internal_weight=3233.11 314.89 2918.22 1822.96 169.629 1095.25 145.26
internal_count=12059 1186 10873 6811 646 4062 540
is_linear=0
shrinkage=1


Tree=1
num_leaves=8
num_cat=0
split_feature=4 35 29 20 28 0 40
split_gain=20.0463 22.6685 28.8313 18.8435 7.35621 9.98225 5.56358
threshold=-0.0030814814923025287 0.02245401194308597 0.77689157612473847 -0.0014543084023150965 0.57988183262051918 -0.0040247262662804015 0.44186046254732231
decision_type=2 2 2 2 2 2 2
left_child=4 3 -3 -2 5 -1 -6
right_child=1 2 -4 -5 6 -7 -8
leaf_value=-0.0043630987765809169 0.0091022639600616493 -0.013435671901154543 0.0033479689421874398 0.0032096555519629737 0.019264242085391743 0.012981714686313338 0.0097558145483617065
leaf_weight=55.127039179205894 679.20280255377293 145.0476998090744 242.79092514514923 1794.7873705327511 111.1558223515749 59.194827899336815 146.97926092147827
leaf_count=208 2517 554 907 6705 406 218 544
internal_value=0.00464572 0.0037804 -0.00292719 0.0048395 0.0111987 0.00455772 0.0140245
internal_weight=3234.29 2861.83 387.839 2473.99 372.457 114.322 258.135
internal_count=12059 10683 1461 9222 1376 426 950
is_linear=0
shrinkage=0.03


Tree=2
num_leaves=8
num_cat=0
split_feature=27 40 21 0 23 23 28
split_gain=20.1081 27.4032 16.6469 13.6538 13.5833 9.63704 3.69224
threshold=-0.0080864567311756865 0.30769230599433856 50.160185718929647 -0.0026653097825735874 0.0021699440154121018 0.0051770659581293109 0.72539120526844736
decision_type=2 2 2 2 2 2 2
left_child=2 6 3 -1 -3 -4 -2
right_child=1 4 5 -5 -6 -7 -8
leaf_value=0.010856972625919035 0.010674245188251223 -0.021180746352783015 -0.013761781712954608 0.0048810337198249686 -0.0036453364651910999 0.0024743781852539794 0.00066193519868832078
leaf_weight=409.24213151633739 86.618514090776443 66.931915685534477 60.227637052536011 2384.9071231037378 102.59674265980721 66.088137194514275 58.764676988124847
leaf_count=1511 320 259 230 8885 387 247 220
internal_value=0.00450592 -0.00265109 0.00528408 0.0057688 -0.0108222 -0.005244 0.00679289
internal_weight=3235.38 314.912 2920.47 2794.15 169.529 126.316 145.383
internal_count=12059 1186 10873 10396 646 477 540
is_linear=0
shrinkage=0.03


Tree=3
num_leaves=7
num_cat=0
split_feature=27 30 35 9 16 23
split_gain=18.9214 21.2703 19.3904 17.1071 8.88124 8.37184
threshold=-0.0080864567311756865 0.31643131003097136 0.02245401194308597 -0.0074927182725282307 31.035267711289773 0.0015924941585343988
decision_type=2 2 2 2 2 2
left_child=1 4 -3 -2 -1 -5
right_child=3 2 -4 5 -6 -7
leaf_value=0.012262244408571819 0.010874295586205536 0.0045622768285337846 -0.0034875023866493887 -0.015139851025355613 0.0064284291401648609 -0.0026851159288541308
leaf_weight=370.42017851769924 64.728392019867897 1500.156701400876 324.45056672394276 66.948391065001488 726.54213610291481 183.14126865565777
leaf_count=1364 239 5588 1223 257 2698 690
internal_value=0.0043693 0.00512382 0.00312041 -0.00257362 0.00843076 -0.00617238
internal_weight=3236.39 2921.57 1824.61 314.818 1096.96 250.09
internal_count=12059 10873 6811 1186 4062 947
is_linear=0
shrinkage=0.03


Tree=4
num_leaves=7
num_cat=0
split_feature=27 35 29 36 11 35
split_gain=17.8079 18.2971 26.4378 13.3631 12.8342 4.31941
threshold=-0.0080864567311756865 0.02245401194308597 0.65131468670715276 0.029138165275894971 41.657699957793362 0.0084475140411181034
decision_type=2 2 2 2 2 2
left_child=1 3 -3 -1 -2 -6
right_child=4 2 -4 -5 5 -7
leaf_value=0.0066255210930690287 0.0082345504996194988 -0.011620235419039142 0.0038819914843172296 -0.0025348616828186842 -0.0080600980379095973 0.0012197769018988053
leaf_weight=2269.3767370581627 73.621406480669975 132.74675025045872 370.94062021374702 149.50921593606472 185.83117501437664 55.283706396818161
leaf_count=8422 273 506 1383 562 706 207
internal_value=0.0042372 0.00496892 -0.000203756 0.0060515 -0.00249847 -0.00587814
internal_weight=3237.31 2922.57 503.687 2418.89 314.736 241.115
internal_count=12059 10873 1889 8984 1186 913
is_linear=0
shrinkage=0.03


Tree=5
num_leaves=7
num_cat=0
split_feature=30 35 35 27 17 29
split_gain=25.319 21.3307 14.3708 10.1366 20.0309 9.52464
threshold=0.48212003384582292 0.006466798252427638 0.022717099121579706 -0.0092619075204063896 -0.00032788805034770374 0.80243312648719112
decision_type=2 2 2 2 2 2
left_child=3 -2 -3 5 -5 -1
right_child=1 2 -4 4 -6 -7
leaf_value=0.0056941743245931585 -0.013224631006205259 0.0039897931263883869 -0.0037697860486706537 0.017319166117807459 -0.0025727777867620852 0.010784044897150997
leaf_weight=693.48034490644932 77.427705988287926 1286.3765576481819 254.19906769692898 56.124232739210129 206.30154310166836 685.19893488287926
leaf_count=2575 296 4791 959 205 777 2526
internal_value=0.00458919 0.00190996 0.00269649 0.00721605 0.00172354 0.00824664
internal_weight=3259.11 1618 1540.58 1641.11 262.426 1378.68
internal_count=12129 6046 5750 6083 982 5101
is_linear=0
shrinkage=0.03


Tree=6
num_leaves=7
num_cat=0
split_feature=2 4 9 25 31 14
split_gain=22.1785 19.2173 12.3507 7.09005 4.89513 4.66446
threshold=0.53846149704142998 -0.0030814814923025287 -0.034697506012724914 1.6897302840086084 -0.0052227182829586846 -46.608883286083334
decision_type=2 2 2 2 2 2
left_child=1 3 -3 -1 -2 -6
right_child=4 2 -4 -5 5 -7
leaf_value=0.0070442416899784265 0.0025732071854384078 -0.011629792360686333 0.0027744014529799445 0.016486927510190034 0.017815635613169588 0.0097600688268701316
leaf_weight=290.5828312933445 63.348939269781113 52.500893026590347 2372.1627774834633 102.20220017433167 99.491618573665619 279.70735737681389
leaf_count=1075 236 200 8849 373 363 1033
internal_value=0.00445059 0.00345707 0.002447 0.00961029 0.010698 0.0119954
internal_weight=3260 2817.45 2424.66 392.785 442.548 379.199
internal_count=12129 10497 9049 1448 1632 1396
is_linear=0
shrinkage=0.03


Tree=7
num_leaves=8
num_cat=0
split_feature=30 20 15 5 1 36 28
split_gain=22.7819 12.9585 12.6789 11.8539 8.63048 14.5633 7.71148
threshold=0.49999975000019442 0.0014804065134654137 48.484848484848094 -0.00059594760952830217 0.0018445322788288615 -0.00033211561285317876 0.52248400359298042
decision_type=2 2 2 2 2 2 2
left_child=4 2 -2 -3 5 -1 -6
right_child=1 3 -4 -5 6 -7 -8
leaf_value=0.0076931093815618828 0.0022227034053847491 -0.0033193681447883424 -0.0046073541483145986 0.0078632859849423944 0.0047450371506692754 -0.0045079263491496222 0.0096668427013269966
leaf_weight=207.38853462040424 706.69364912807941 103.65251916646957 371.35414592921734 419.3059549331665 469.29142022132874 148.65716271102428 834.51731590926647
leaf_count=768 2638 390 1399 1554 1743 560 3077
internal_value=0.00431727 0.00174808 -0.000120327 0.00561406 0.00678126 0.00256028 0.00791676
internal_weight=3260.86 1601.01 1078.05 522.958 1659.85 356.046 1303.81
internal_count=12129 5981 4037 1944 6148 1328 4820
is_linear=0
shrinkage=0.03


Tree=8
num_leaves=8
num_cat=0
split_feature=30 33 24 29 2 9 19
split_gain=21.5128 12.2949 11.368 10.2895 9.64902 12.5168 7.54368
threshold=0.41666664062499797 0.0040034491394368215 0.85258112930463337 0.80243312648719112 0.2499999687499779 0.0087060844077723205 0.0035570652801093896
decision_type=2 2 2 2 2 2 2
left_child=1 2 -1 -3 5 -2 -6
right_child=4 3 -4 -5 6 -7 -8
leaf_value=0.0077722310003953635 -0.0017283221567793692 0.0050747244652209148 -0.0033310129638081053 0.010769653585917291 0.0024842028943437193 0.0050022175954998532 0.0098158692340903665
leaf_weight=147.44988764822483 812.57714419066906 543.13057263195515 182.85975357890129 651.71447159349918 370.49594753980637 355.52780169248581 197.89920894801617
leaf_count=546 3049 2015 687 2397 1382 1322 731
internal_value=0.0041872 0.00678874 0.00159727 0.0082063 0.00188848 0.000312434 0.00508865
internal_weight=3261.65 1525.15 330.31 1194.85 1736.5 1168.1 568.395
internal_count=12129 5645 1233 4412 6484 4371 2113
is_linear=0
shrinkage=0.03


Tree=9
num_leaves=7
num_cat=0
split_feature=30 35 35 33 28 28
split_gain=20.2272 18.901 11.7563 11.5587 21.8959 12.3476
threshold=0.41666664062499797 0.006466798252427638 0.02245401194308597 0.0040034491394368215 0.76105895990003403 0.59605874254234881
decision_type=2 2 2 2 2 2
left_child=3 -2 -3 4 -1 -5
right_child=1 2 -4 5 -6 -7
leaf_value=0.0057578739834015956 -0.012195897918377703 0.0036964681971622519 -0.0029334670934056924 0.0044486871716178013 -0.01250765295874218 0.010679394077352859
leaf_weight=255.94568897783756 80.055900067090988 1368.7805925160646 287.86943447589874 526.79139111936092 74.397027790546417 668.53642201423645
leaf_count=950 306 5094 1084 1955 283 2457
internal_value=0.00406173 0.00183239 0.00253322 0.00658389 0.00154862 0.00795801
internal_weight=3262.38 1736.71 1656.65 1525.67 330.343 1195.33
internal_count=12129 6484 6178 5645 1233 4412
is_linear=0
shrinkage=0.03


Tree=10
num_leaves=6
num_cat=0
split_feature=21 40 1 35 21
split_gain=28.0544 13.7828 10.9698 8.20887 4.63998
threshold=50.160185718929647 0.054474707959241787 0.0013829348248501868 0.024668183343081133 28.842037456193818
decision_type=2 2 2 2 2
left_child=1 4 -3 -2 -1
right_child=3 2 -4 -5 -6
leaf_value=0.0064360907134165665 -0.017295211011726742 -0.0015551335989184233 0.0038214389872524819 -0.0014397931644054471 0.019181918485692128
leaf_weight=55.210329070687294 72.105897009372711 387.02446880936623 2632.0043113529682 53.002726256847382 62.769873395562172
leaf_count=204 276 1452 9783 199 228
internal_value=0.00297031 0.00353179 0.00312665 -0.0108244 0.0135491
internal_weight=3262.12 3137.01 3019.03 125.109 117.98
internal_count=12142 11667 11235 475 432
is_linear=0
shrinkage=0.03


Tree=11
num_leaves=6
num_cat=0
split_feature=21 23 27 20 35
split_gain=26.457 20.1455 15.9697 19.1338 13.445
threshold=50.160185718929647 0.0051770659581293109 -0.0081744270579449368 -0.00025604957278264347 0.022717099121579706
decision_type=2 2 2 2 2
left_child=2 -2 4 -4 -1
right_child=1 -3 3 -5 -6
leaf_value=0.0050601783747015504 -0.023536040584831379 0.00022859680038301921 0.0049051574211940894 -0.0093582628577488884 -0.00063887756309587889
leaf_weight=2366.2942682504654 56.098193526268005 68.922482714056969 155.05421832203865 180.04272928833961 436.20172102749348
leaf_count=8772 217 258 577 685 1633
internal_value=0.00288078 -0.0105195 0.00342586 -0.00272393 0.00416796
internal_weight=3262.61 125.021 3137.59 335.097 2802.5
internal_count=12142 475 11667 1262 10405
is_linear=0
shrinkage=0.03


Tree=12
num_leaves=8
num_cat=0
split_feature=27 17 5 39 35 14 36
split_gain=12.7998 20.5619 17.2087 13.8204 13.48 22.7202 12.3588
threshold=-0.0081744270579449368 -9.2307904400747674e-05 -0.00067487769763202577 1.0000000180025095e-35 0.022717099121579706 101.15982731240382 0.029138165275894971
decision_type=2 2 2 2 2 2 2
left_child=4 2 -2 -3 6 -6 -1
right_child=1 3 -4 -5 5 -7 -8
leaf_value=0.0048969929758721775 0.017010331336661518 -0.015610785950246033 -0.0027679885989591374 0.002150108668329861 -0.0047445677585541317 0.010054432918118542 -0.0039902097973154556
leaf_weight=2284.8796876072884 62.41281969845295 118.01713740825653 99.058479145169258 56.012708231806755 373.90313865244389 121.98055504262447 146.73736494779587
leaf_count=8469 228 453 373 210 1408 450 551
internal_value=0.00279342 -0.00271962 0.00489967 -0.00984963 0.00343178 -0.00104832 0.00435169
internal_weight=3263 335.501 161.471 174.03 2927.5 495.884 2431.62
internal_count=12142 1264 601 663 10878 1858 9020
is_linear=0
shrinkage=0.03


Tree=13
num_leaves=5
num_cat=0
split_feature=9 27 17 40
split_gain=18.9799 13.5899 19.3754 13.2381
threshold=-0.038632863104329222 -0.0081744270579449368 -9.2307904400747674e-05 0.79034066313422946
decision_type=2 2 2 2
left_child=-1 3 -3 -2
right_child=1 2 -4 -5
leaf_value=-0.013282600264684622 0.004787860726426358 0.0047538891067836798 -0.009564699562538229 -0.00011979861338304938
leaf_weight=63.182197719812393 2237.5852279216051 161.51115736365318 173.87683250010014 627.19440288841724
leaf_count=241 8295 601 663 2342
internal_value=0.00270928 0.0030378 -0.0026376 0.00370885
internal_weight=3263.35 3200.17 335.388 2864.78
internal_count=12142 11901 1264 10637
is_linear=0
shrinkage=0.03


Tree=14
num_leaves=5
num_cat=0
split_feature=9 23 12 17
split_gain=17.8981 14.082 31.4609 18.5143
threshold=-0.038632863104329222 0.0031398314248940345 48.253947379198131 0.0012161303408895544
decision_type=2 2 2 2
left_child=-1 2 -2 -3
right_child=1 3 -4 -5
leaf_value=-0.0129083161232464 0.0054955453180719274 0.005591662794223881 -0.0050236272193762187 -0.001611012033624641
leaf_weight=63.122673556208611 491.19300863146782 1793.0426841825247 529.78112760186195 386.55355784296989
leaf_count=241 1820 6638 1996 1447
internal_value=0.00262718 0.00294613 2.33578e-05 0.00430708
internal_weight=3263.69 3200.57 1020.97 2179.6
internal_count=12142 11901 3816 8085
is_linear=0
shrinkage=0.03


Tree=15
num_leaves=8
num_cat=0
split_feature=13 23 20 35 22 27 38
split_gain=15.8381 15.5266 14.3248 13.1922 17.7907 13.2672 10.5365
threshold=7.0345867708274925 0.0026863787482661662 -0.0033821639561132564 0.02245401194308597 24.73553516410027 -0.0089253545359399469 -0.12940952255126037
decision_type=2 2 2 2 2 2 2
left_child=3 6 -3 5 -5 -1 -2
right_child=1 2 -4 4 -6 -7 -8
leaf_value=0.0061932585256020637 0.00048899058230412725 -0.008315701886475433 0.0031651135950996816 -0.0041990850548337486 0.012343613546711622 -0.00027919210317432444 -0.015602991328986779
leaf_weight=1673.6672476679087 57.218141153454781 115.00736950337887 584.62794850766659 303.44133740663528 70.213315859436989 337.95017898082733 91.214251324534416
leaf_count=6186 214 435 2172 1141 258 1267 349
internal_value=0.00288533 -0.000619619 0.00123817 0.00413724 -0.00100145 0.00509925 -0.00937607
internal_weight=3233.34 848.068 699.635 2385.27 373.655 2011.62 148.432
internal_count=12022 3170 2607 8852 1399 7453 563
is_linear=0
shrinkage=0.03


Tree=16
num_leaves=8
num_cat=0
split_feature=13 2 10 35 26 26 2
split_gain=14.9076 18.6653 15.1519 13.8218 9.72971 9.46895 6.5302
threshold=7.0345867708274925 0.047619045351481593 77.402935765881082 0.024105135533047526 0.059346501534460798 0.11933508462163001 0.16542287045802731
decision_type=2 2 2 2 2 2 2
left_child=2 5 3 -1 -4 -2 -3
right_child=1 6 4 -5 -6 -7 -8
leaf_value=0.0042683026561738599 0.00099638569631926507 0.0085402988952560793 0.0040830718053704307 -0.0029063652354452017 0.0202607579193716 -0.010869075736510208 0.00072540672854922166
leaf_weight=1970.7492372393608 85.708443135023117 122.12680420279503 62.806553915143013 271.4083064198494 80.696301952004433 185.2846350222826 454.87683174014091
leaf_count=7307 320 451 233 1019 293 703 1696
internal_value=0.00279821 -0.000602023 0.00401262 0.00339132 0.0134368 -0.00708157 0.00242918
internal_weight=3233.66 847.997 2385.66 2242.16 143.503 270.993 577.004
internal_count=12022 3170 8852 8326 526 1023 2147
is_linear=0
shrinkage=0.03


Tree=17
num_leaves=8
num_cat=0
split_feature=13 2 10 40 26 26 29
split_gain=14.0211 17.5775 14.2774 11.9114 9.13788 8.93205 8.40387
threshold=7.0345867708274925 0.047619045351481593 77.402935765881082 0.74975148361222066 0.059346501534460798 0.11933508462163001 0.61953202817605069
decision_type=2 2 2 2 2 2 2
left_child=2 5 3 -1 -4 -2 -3
right_child=1 6 4 -5 -6 -7 -8
leaf_value=0.0044951296956874049 0.00096711843864417967 -0.0037060975544878426 0.0039635716826389583 -0.00064741908389229674 0.019649010019243924 -0.010553754945426186 0.0044988126102475379
leaf_weight=1719.2016427516937 85.713520124554634 148.37936556339264 62.81924432516098 523.2733785957098 80.773454815149307 185.15757402777672 428.69708409905434
leaf_count=6372 320 557 233 1954 293 703 1590
internal_value=0.00271482 -0.000582484 0.00389239 0.00328894 0.0130386 -0.00687279 0.00235773
internal_weight=3234.02 847.948 2386.07 2242.48 143.593 270.871 577.076
internal_count=12022 3170 8852 8326 526 1023 2147
is_linear=0
shrinkage=0.03


Tree=18
num_leaves=7
num_cat=0
split_feature=13 2 3 35 23 8
split_gain=13.1974 16.5446 12.7254 9.69448 7.02518 6.73141
threshold=7.0345867708274925 0.047619045351481593 0.77272723760330808 0.02245401194308597 0.0061138182967214244 0.0087422652885923453
decision_type=2 2 2 2 2 2
left_child=2 5 3 -1 -3 -2
right_child=1 4 -4 -5 -6 -7
leaf_value=0.005043065903175283 -0.0091712649673012948 0.0034286807495924072 -0.0075258391130007757 -0.00025072452813800519 -0.0072803198923024528 0.0019997404505454719
leaf_weight=1938.4344020038843 211.38130101561546 518.10572150349617 83.761482268571854 364.2550064176321 59.033181607723236 59.360992267727852
leaf_count=7174 802 1924 316 1362 223 221
internal_value=0.00263358 -0.000565179 0.00377587 0.00419966 0.00228604 -0.00667029
internal_weight=3234.33 847.881 2386.45 2302.69 577.139 270.742
internal_count=12022 3170 8852 8536 2147 1023
is_linear=0
shrinkage=0.03


Tree=19
num_leaves=7
num_cat=0
split_feature=21 35 35 7 9 37
split_gain=12.4333 15.2608 14.0289 19.0938 15.6416 5.03236
threshold=47.664810481507558 0.026322548950569704 0.023437499993869185 0.0181381315517164 -0.010011629696426437 0.37940952255126054
decision_type=2 2 2 2 2 2
left_child=2 5 4 -4 -1 -2
right_child=1 -3 3 -5 -6 -7
leaf_value=0.0080115416250777088 -0.0043405378540172226 0.0066455211541706699 -0.0066241533490368704 0.0081470408727955124 0.0025144746832304952 -0.01755733545029442
leaf_weight=606.51008583605289 53.883355483412743 61.141639247536659 271.62278915941715 108.05133119225502 2073.3557771593332 60.02443265914917
leaf_count=2233 203 227 1025 399 7705 230
internal_value=0.00255382 -0.00515076 0.00300261 -0.00236046 0.00376922 -0.0116174
internal_weight=3234.59 175.049 3059.54 379.674 2679.87 113.908
internal_count=12022 660 11362 1424 9938 433
is_linear=0
shrinkage=0.03


Tree=20
num_leaves=7
num_cat=0
split_feature=20 27 36 21 37 9
split_gain=14.0015 15.016 21.1542 18.7384 13.6759 10.3822
threshold=-0.0045973889998216257 -0.01126856466954866 -0.012013710067052151 17.788020982036823 -0.5 -0.02144256931847632
decision_type=2 2 2 2 2 2
left_child=4 3 -3 -2 -1 -6
right_child=1 2 -4 -5 5 -7
leaf_value=0.007171175854799209 0.010712158878340839 0.011379309815901358 -0.0017123353381100386 0.0037050798281340678 -0.0030233541709815395 -0.018684514994971216
leaf_weight=76.438376918435097 435.5726308375597 130.13862442970276 692.65885309875011 1691.0432168841362 136.23680254817009 53.284723415970802
leaf_count=283 1598 477 2595 6269 512 204
internal_value=0.00322808 0.00382507 0.000362704 0.00515603 -0.00331546 -0.00765401
internal_weight=3215.37 2949.41 822.797 2126.62 265.96 189.522
internal_count=11938 10939 3072 7867 999 716
is_linear=0
shrinkage=0.03


Tree=21
num_leaves=8
num_cat=0
split_feature=20 27 36 21 8 32 23
split_gain=13.1905 14.1225 19.9147 17.6226 13.5904 3.86869 1.84037
threshold=-0.0045973889998216257 -0.01126856466954866 -0.012013710067052151 17.788020982036823 -0.022567034730742282 -0.004828731938706309 0.0046927285071255457
decision_type=2 2 2 2 2 2 2
left_child=4 3 -3 -2 5 -1 -6
right_child=1 2 -4 -5 6 -7 -8
leaf_value=0.0080205962388818584 0.010388770875816206 0.011039146712525221 -0.0016612756040543764 0.0035935377643487461 -0.0061279395811620159 -0.0014207920659433521 -0.014849670397287906
leaf_weight=64.730732426047325 435.71741393208504 130.18517372012138 692.59198695421219 1691.2849208861589 53.399757117033005 88.142963036894798 59.638387963175774
leaf_count=239 1598 477 2595 6269 201 331 228
internal_value=0.00313109 0.00371048 0.000351977 0.00500104 -0.0032199 0.00253204 -0.011038
internal_weight=3215.69 2949.78 822.777 2127 265.912 152.874 113.038
internal_count=11938 10939 3072 7867 999 570 429
is_linear=0
shrinkage=0.03


Tree=22
num_leaves=6
num_cat=0
split_feature=30 0 21 15 37
split_gain=11.66 14.3288 12.1521 10.8045 9.13199
threshold=0.7857142295918621 0.00026017952820692978 50.779809527870611 7.6923076923062856 -0.91597561503675329
decision_type=2 2 2 2 2
left_child=2 -2 3 -1 -3
right_child=1 4 -4 -5 -6
leaf_value=-0.0044110422909718538 -0.012543622979749506 0.0092491901471675169 -0.0064738265448570512 0.005053806170785667 -1.6159976539853866e-05
leaf_weight=111.15541392564774 72.122255802154541 108.52290692925453 90.469342589378357 2141.7621643394232 691.90817561745644
leaf_count=416 274 400 342 7922 2584
internal_value=0.00303693 5.86267e-05 0.0041385 0.00457668 0.00124127
internal_weight=3215.94 872.553 2343.39 2252.92 800.431
internal_count=11938 3258 8680 8338 2984
is_linear=0
shrinkage=0.03


Tree=23
num_leaves=8
num_cat=0
split_feature=20 38 38 8 9 5 38
split_gain=12.207 14.4205 34.7867 12.8514 7.32605 3.69673 2.81646
threshold=-0.0045973889998216257 0.91597561503675351 0.78656609248549303 -0.022567034730742282 -0.010011629696426437 -0.0021381799125668173 -0.12940952255126037
decision_type=2 2 2 2 2 2 2
left_child=3 2 -2 5 -3 -1 -5
right_child=1 4 -4 6 -6 -7 -8
leaf_value=0.0061892374522373311 0.0038440619501767187 0.01711233569565335 -0.0079195051762614294 -0.015929438225472992 0.0066473882410485654 -0.0031362429596364198 -0.0056476700432614244
leaf_weight=92.655199751257896 2342.3953053951263 81.217966482043266 247.82062055170536 52.728759825229645 278.9510767608881 60.237687230110168 60.238608196377754
leaf_count=343 8680 295 933 202 1031 227 227
internal_value=0.00294494 0.00350232 0.00270755 -0.00316453 0.00913011 0.00242523 -0.0107709
internal_weight=3216.25 2950.38 2590.22 265.86 360.169 152.893 112.967
internal_count=11938 10939 9613 999 1326 570 429
is_linear=0
shrinkage=0.03


Tree=24
num_leaves=7
num_cat=0
split_feature=30 23 18 16 33 35
split_gain=10.9771 13.9814 17.1694 14.6839 13.3433 10.571
threshold=0.41666664062499797 0.0030870372741803559 -0.0035510014241934007 32.758408258407364 0.016209795075439185 0.023664571411267682
decision_type=2 2 2 2 2 2
left_child=4 3 -3 -2 5 -1
right_child=1 2 -4 -5 -6 -7
leaf_value=0.0050070297808223379 0.0039031974746822568 -0.0084539197368325644 0.003956918062809494 -0.0070429236947257461 0.01841994301316327 -0.003562745792435928
leaf_weight=1275.6221316754818 168.07005763053894 107.27965018153191 1157.6141277849674 306.83460265398026 60.460234194993973 140.64610379934311
leaf_count=4712 624 406 4292 1158 219 527
internal_value=0.0028562 0.00122768 0.00288079 -0.00313749 0.00476044 0.00414159
internal_weight=3216.53 1739.8 1264.89 474.905 1476.73 1416.27
internal_count=11938 6480 4698 1782 5458 5239
is_linear=0
shrinkage=0.03


Tree=25
num_leaves=7
num_cat=0
split_feature=2 35 4 36 28 36
split_gain=16.741 12.4656 10.23 10.1407 9.26899 7.60997
threshold=0.57142848979590177 0.0060165458760995617 -0.0030814814923025287 -0.0030045075135256001 1.166397638554405 0.0092610460711580762
decision_type=2 2 2 2 2 2
left_child=1 3 -3 -1 5 -2
right_child=4 2 -4 -5 -6 -7
leaf_value=0.000745330973629224 0.0082007180720217749 0.0064563432542135641 0.0011431554769344809 -0.015810490088828993 0.015773295767212574 -0.0021963078367882739
leaf_weight=63.08551324903965 214.35623706877232 378.91410438716412 2379.5520908236504 64.477384924888611 102.56494297087193 85.724060863256454
leaf_count=236 788 1395 8853 248 373 320
internal_value=0.002261 0.00145229 0.00188258 -0.00762201 0.00798463 0.00518606
internal_weight=3288.67 2886.03 2758.47 127.563 402.645 300.08
internal_count=12213 10732 10248 484 1481 1108
is_linear=0
shrinkage=0.03


Tree=26
num_leaves=7
num_cat=0
split_feature=27 38 38 7 39 9
split_gain=10.9876 11.6859 14.4562 13.3353 10.2621 7.5455
threshold=-0.0078027987638829106 0.91597561503675351 0.78656609248549303 -0.0066420227189292738 1.0000000180025095e-35 -0.0060280166406871385
decision_type=2 2 2 2 2 2
left_child=1 2 -1 -3 5 -2
right_child=4 3 -4 -5 -6 -7
leaf_value=0.0027317790560649545 0.0020730231702072756 -0.0018008882611905139 -0.0048079808755494714 0.011003766436054659 0.0058776628700872588 -0.0105334291503743
leaf_weight=2387.4959318637848 56.538277119398117 95.860417440533638 249.98555913567543 277.97224816679955 73.927746817469597 146.99738582968712
leaf_count=8853 210 358 937 1019 275 561
internal_value=0.00219362 0.0027231 0.00200836 0.0076883 -0.00347747 -0.00697252
internal_weight=3288.78 3011.31 2637.48 373.833 277.463 203.536
internal_count=12213 11167 9790 1377 1046 771
is_linear=0
shrinkage=0.03


Tree=27
num_leaves=6
num_cat=0
split_feature=21 29 35 24 35
split_gain=10.5189 13.3967 10.2026 26.5416 8.34689
threshold=50.160185718929647 0.81299667386708008 0.0060165458760995617 0.88267048776085311 0.018093023685843476
decision_type=2 2 2 2 2
left_child=2 -2 3 -1 -4
right_child=1 -3 4 -5 -6
leaf_value=0.0067756656988967722 -0.016516370152888118 0.0026490828466416848 0.0038409799614074996 -0.018965516889782087 0.00033224401399087534
leaf_weight=73.970540076494217 58.839540302753448 67.895452618598938 2157.5782620757818 66.043970853090286 864.57416987419128
leaf_count=275 226 253 7984 255 3220
internal_value=0.0021278 -0.00625074 0.00247208 -0.00535676 0.00284305
internal_weight=3288.9 126.735 3162.17 140.015 3022.15
internal_count=12213 479 11734 530 11204
is_linear=0
shrinkage=0.03


Tree=28
num_leaves=7
num_cat=0
split_feature=2 4 35 17 27 1
split_gain=15.7785 11.4086 9.14548 6.43155 6.24715 5.7938
threshold=0.57142848979590177 -0.0030814814923025287 0.0060165458760995617 0.00058655979249504252 -0.0098095116865632489 0.0039429784640755174
decision_type=2 2 2 2 2 2
left_child=1 3 -3 -1 5 -2
right_child=4 2 -4 -5 -6 -7
leaf_value=0.0089286337674911991 0.012097720518831347 -0.0072806604405630986 0.00095870505658774416 0.00060663725587181011 -0.00069744847270485912 0.003537438811120269
leaf_weight=249.0267509073019 222.27919463813305 125.49258933961391 2379.9712343961 131.7878355383873 64.621746510267258 115.80141566693783
leaf_count=913 812 477 8853 489 241 428
internal_value=0.00206363 0.00127857 0.000534555 0.00610605 0.00761922 0.00924776
internal_weight=3288.98 2886.28 2505.46 380.815 402.702 338.081
internal_count=12213 10732 9330 1402 1481 1240
is_linear=0
shrinkage=0.03


Tree=29
num_leaves=7
num_cat=0
split_feature=2 35 36 28 1 21
split_gain=14.8518 10.2154 9.54945 8.92277 9.51814 8.1068
threshold=0.57142848979590177 0.0060165458760995617 -0.0030045075135256001 1.166397638554405 0.0039429784640755174 48.83657050164831
decision_type=2 2 2 2 2 2
left_child=1 2 -1 4 -2 -3
right_child=3 5 -4 -5 -6 -7
leaf_value=0.0011257303208885552 0.0075663891994322986 0.0019951775409615302 -0.014951248632123333 0.015024484761226994 -0.0049459508499061049 -0.0056378445097557944
leaf_weight=63.012962147593498 231.75467467308044 2630.3484040051699 64.272476211190224 102.58804677426815 68.392642974853516 128.65686209499836
leaf_count=236 852 9762 248 373 256 486
internal_value=0.0020023 0.00124043 -0.00698199 0.00739224 0.00465177 0.00162998
internal_weight=3289.03 2886.29 127.285 402.735 300.147 2759.01
internal_count=12213 10732 484 1481 1108 10248
is_linear=0
shrinkage=0.03


Tree=30
num_leaves=7
num_cat=0
split_feature=3 36 23 33 22 14
split_gain=10.9756 7.26479 15.6761 5.96758 5.61336 6.11844
threshold=0.41666664062500475 -0.00045440502177096492 0.0031012244653604395 0.0097262881730476002 18.781542140607424 -120.47794457209936
decision_type=2 2 2 2 2 2
left_child=1 3 -3 -1 5 -2
right_child=4 2 -4 -5 -6 -7
leaf_value=0.0031904592355165881 0.0031506657525903078 -0.004246314238483543 0.003058800113536255 0.0086254091886709076 0.0062438706754658685 -0.0041548728306556523
leaf_weight=1040.2449108660221 126.65922401845455 366.94997915625572 924.44469626247883 226.25246621668339 69.001337200403214 489.24803814291954
leaf_count=3854 470 1378 3423 832 255 1834
internal_value=0.00166382 0.00256891 0.000968097 0.00418528 -0.0016922 -0.0026229
internal_weight=3242.8 2557.89 1291.39 1266.5 684.909 615.907
internal_count=12046 9487 4801 4686 2559 2304
is_linear=0
shrinkage=0.03


Tree=31
num_leaves=8
num_cat=0
split_feature=30 35 8 28 40 33 33
split_gain=11.2788 9.09474 15.6879 11.689 8.17712 14.399 7.3343
threshold=0.41666664062499797 0.020491250784826446 -0.013305877096102479 0.39021150744479882 0.79034066313422946 0.011347877265493437 0.0049102706647852394
decision_type=2 2 2 2 2 2 2
left_child=4 2 -2 -3 6 -6 -1
right_child=1 3 -4 -5 5 -7 -8
leaf_value=0.0014264492926657389 0.011208850254974439 -0.013598860045540078 6.8825572021934383e-05 -0.001110482887621239 -0.0052865533975935018 0.011203464199286304 0.0062703842068458906
leaf_weight=452.07327245175838 123.49765467643738 88.319598317146301 1248.8349299281836 281.14776735007763 196.79645220935345 60.455608263611794 791.73698541522026
leaf_count=1680 453 337 4652 1052 737 221 2914
internal_value=0.00161443 -2.0014e-05 0.0010971 -0.0041933 0.0035185 -0.00129692 0.00452697
internal_weight=3242.86 1741.8 1372.33 369.467 1501.06 257.252 1243.81
internal_count=12046 6494 5105 1389 5552 958 4594
is_linear=0
shrinkage=0.03


Tree=32
num_leaves=8
num_cat=0
split_feature=30 35 9 11 40 16 16
split_gain=10.6177 8.57392 11.0308 7.76359 7.69033 14.99 5.56301
threshold=0.41666664062499797 0.020491250784826446 0.0094097679473097457 73.440210074221696 0.79034066313422946 57.266640285417374 88.529906540526369
decision_type=2 2 2 2 2 2 2
left_child=4 2 -2 -3 6 -6 -1
right_child=1 3 -4 -5 5 -7 -8
leaf_value=0.0048290504956167218 -0.00051789555219331146 -0.0064694667053654493 0.0055908443531688208 0.0036759201229666122 -0.011578563993136832 0.0037098683037909085 -0.0047107527711760166
leaf_weight=1189.3046923428774 1015.6364419907331 283.82019314169884 356.74523462355137 85.545518338680267 83.652075961232185 173.58237016201019 54.552787646651268
leaf_count=4390 3787 1072 1318 317 316 642 204
internal_value=0.00156633 -1.92886e-05 0.00106496 -0.00407225 0.00341371 -0.00125501 0.00439173
internal_weight=3242.84 1741.75 1372.38 369.366 1501.09 257.234 1243.86
internal_count=12046 6494 5105 1389 5552 958 4594
is_linear=0
shrinkage=0.03


Tree=33
num_leaves=8
num_cat=0
split_feature=30 7 37 23 40 22 16
split_gain=9.98547 7.7151 16.8483 7.99157 7.23784 16.4313 5.24404
threshold=0.41666664062499797 -0.0090170186682815828 -0.60355339059327362 0.0022151446611448256 0.79034066313422946 20.910984262872798 88.529906540526369
decision_type=2 2 2 2 2 2 2
left_child=4 2 -2 -3 6 -6 -1
right_child=1 3 -4 -5 5 -7 -8
leaf_value=0.0046841558123629909 0.0077819071096044299 -0.0071617528554507271 -0.010284947679685286 0.0013476584760110306 -0.0057781499535634771 0.011250767185745339 -0.0045747213710212167
leaf_weight=1189.3713739514351 62.157016232609749 104.48932789266109 162.3371170759201 1412.6968481689692 190.00067462027073 67.222055017948151 54.549215525388718
leaf_count=4390 230 397 616 5251 712 246 204
internal_value=0.0015191 -1.83845e-05 -0.0051919 0.000743081 0.00331057 -0.00121751 0.0042594
internal_weight=3242.82 1741.68 224.494 1517.19 1501.14 257.223 1243.92
internal_count=12046 6494 846 5648 5552 958 4594
is_linear=0
shrinkage=0.03


Tree=34
num_leaves=7
num_cat=0
split_feature=36 16 21 35 23 4
split_gain=10.0745 21.8723 12.5379 8.49297 16.6276 13.384
threshold=0.029138165275894971 63.333571408971203 33.696136444928577 0.02245401194308597 0.005575375623998023 -0.0036256425479603833
decision_type=2 2 2 2 2 2
left_child=3 -2 -3 4 -1 -5
right_child=1 2 -4 5 -6 -7
leaf_value=0.002032108618446527 -0.015771623649443286 -0.010037847380271223 0.0067416174986693724 0.0085678319036470163 0.013039415122582684 -0.0053736875187330698
leaf_weight=2473.594013094902 91.922164276242256 54.057304367423058 136.47209686040878 76.85027988255024 128.83110372722149 281.05657529830933
leaf_count=9176 350 204 504 282 470 1060
internal_value=0.00147334 -0.00390391 0.00184819 0.00199375 0.00259237 -0.00230749
internal_weight=3242.78 282.452 190.529 2960.33 2602.43 357.907
internal_count=12046 1058 708 10988 9646 1342
is_linear=0
shrinkage=0.03


Tree=35
num_leaves=6
num_cat=0
split_feature=21 27 23 2 29
split_gain=16.4103 14.9643 14.7858 13.9079 10.3198
threshold=50.160185718929647 -0.032482526764075294 0.0022428266986853143 0.57979624025499288 0.56699484652454213
decision_type=2 2 2 2 2
left_child=2 -2 4 -4 -1
right_child=1 -3 3 -5 -6
leaf_value=0.0017972590357985773 0.0012674562755597433 -0.019029547571301125 0.001833887645246102 0.0083196057403602357 -0.0097842248872264722
leaf_weight=120.65736645460129 62.33694489300251 63.387423023581505 2553.7488206773996 337.56925658881664 153.2746544033289
leaf_count=451 233 244 9475 1238 582
internal_value=0.00153827 -0.00898614 0.00196645 0.00260152 -0.00465258
internal_weight=3290.97 125.724 3165.25 2891.32 273.932
internal_count=12223 477 11746 10713 1033
is_linear=0
shrinkage=0.03


Tree=36
num_leaves=5
num_cat=0
split_feature=21 27 3 5
split_gain=15.4644 14.144 11.4371 9.011
threshold=50.160185718929647 -0.032482526764075294 0.78571424362246722 -0.004828731938706309
decision_type=2 2 2 2
left_child=2 -2 3 -1
right_child=1 -3 -4 -5
leaf_value=0.0063688802032151161 0.0012305190325415751 -0.018503314092298721 -0.0081467116880852807 0.0015831248616862085
leaf_weight=410.92858773469925 62.341861113905907 63.292765453457832 96.123832613229752 2658.2155682444572
leaf_count=1513 233 244 363 9870
internal_value=0.001492 -0.00872772 0.00190762 0.00223251
internal_weight=3290.9 125.635 3165.27 3069.14
internal_count=12223 477 11746 11383
is_linear=0
shrinkage=0.03


Tree=37
num_leaves=8
num_cat=0
split_feature=33 37 7 18 36 20 29
split_gain=14.3471 13.3681 17.3202 15.1329 9.01198 11.0128 5.3738
threshold=0.0040034491394368215 -0.60355339059327362 -0.007182540907347267 -0.0015134154670104292 0.0015141956077054932 0.0022856845299952387 0.46757783473797293
decision_type=2 2 2 2 2 2 2
left_child=4 3 -3 -2 6 -6 -1
right_child=1 2 -4 -5 5 -7 -8
leaf_value=0.0040116300938631286 0.01167303483326794 -0.004264185609112443 0.0026193757890257798 0.0027566819085205578 -0.010548539402441012 0.004280300327879686 -0.0028662307054694775
leaf_weight=182.70779396593571 257.02673676609993 424.44391499459743 1425.8407936245203 530.63901786506176 187.57765237987041 56.259374007582664 226.3884956240654
leaf_count=677 940 1590 5283 1966 711 208 848
internal_value=0.00144692 0.00243511 0.00102933 0.00570741 -0.00251787 -0.00705915 0.000173597
internal_weight=3290.88 2637.95 1850.28 787.666 652.933 243.837 409.096
internal_count=12223 9779 6873 2906 2444 919 1525
is_linear=0
shrinkage=0.03


Tree=38
num_leaves=6
num_cat=0
split_feature=21 27 1 35 8
split_gain=14.5835 13.325 12.5907 13.3748 12.4774
threshold=50.160185718929647 -0.032482526764075294 0.0019922523758189536 0.018093023685843476 -0.010023724525501708
decision_type=2 2 2 2 2
left_child=2 -2 4 -4 -1
right_child=1 -3 3 -5 -6
leaf_value=0.0081807560134514075 0.0011315746655910046 -0.018023031688615201 0.0044650046662708005 -0.00022509549780382491 -0.003114533099775886
leaf_weight=99.336091816425323 62.350983381271362 63.195233061909676 1593.4705873280764 823.60067391395569 648.91119576990604
leaf_count=365 233 244 5883 3067 2431
internal_value=0.00140378 -0.00852395 0.00180742 0.00286182 -0.00157718
internal_weight=3290.86 125.546 3165.32 2417.07 748.247
internal_count=12223 477 11746 8950 2796
is_linear=0
shrinkage=0.03


Tree=39
num_leaves=8
num_cat=0
split_feature=3 14 32 6 40 3 10
split_gain=9.35993 10.2788 9.72166 11.4764 9.6246 6.30275 4.514
threshold=0.437499972656268 85.926781849529164 -0.004828731938706309 -0.0094031606671081663 0.48866207142118179 0.58236431001930178 15.83662170286375
decision_type=2 2 2 2 2 2 2
left_child=2 4 6 -4 -2 -3 -1
right_child=1 5 3 -5 -6 -7 -8
leaf_value=0.010212563374540238 7.0007010913158786e-05 -0.0012499852541417193 -0.010217469338361108 0.0018129422885099717 -0.0079721305803961504 0.01210356705706927 0.0033157121202934329
leaf_weight=174.72488620877266 281.98694007098675 56.000745490193367 71.463249683380127 2206.3973468542099 246.89709836244583 65.559607565402985 187.73104326426983
leaf_count=639 1052 209 270 8189 930 240 694
internal_value=0.00136143 -0.00184559 0.00215795 0.0014203 -0.00367191 0.00590976 0.00671935
internal_weight=3290.76 650.444 2640.32 2277.86 528.884 121.56 362.456
internal_count=12223 2431 9792 8459 1982 449 1333
is_linear=0
shrinkage=0.03


Tree=40
num_leaves=8
num_cat=0
split_feature=35 22 5 33 21 2 27
split_gain=12.905 17.9283 25.1918 9.7482 14.0229 12.2002 3.32807
threshold=0.023201721537517216 19.775603897184286 -0.007632467506279216 0.0049102706647852394 13.7568476025519 0.2499999687499779 -0.043752942199835256
decision_type=2 2 2 2 2 2 2
left_child=3 2 -2 4 -1 -5 -3
right_child=1 6 -4 5 -6 -7 -8
leaf_value=-0.008700587913682124 0.0062597431883911134 0.011026637778774663 -0.012310831236320405 0.0011136344673922138 0.0010017443357037644 0.0061359205668878843 0.0013223697153369942
leaf_weight=157.0163765847683 87.402560070157051 55.686368599534035 241.83520893752575 1087.6789252460003 846.04944787919521 735.55446475744247 81.594744622707367
leaf_count=595 323 204 921 4035 3146 2708 303
internal_value=0.00107882 -0.0035229 -0.0073276 0.00184566 -0.000516391 0.00315252 0.00546829
internal_weight=3292.82 466.519 329.238 2826.3 1003.07 1823.23 137.281
internal_count=12235 1751 1244 10484 3741 6743 507
is_linear=0
shrinkage=0.03


Tree=41
num_leaves=8
num_cat=0
split_feature=13 33 36 36 1 27 6
split_gain=10.5933 9.08839 10.5912 7.91488 7.43775 11.236 9.88669
threshold=10.953117228162531 0.0037583051841171022 -0.016083658383505724 -0.0040847113437469931 0.0034778266252921664 -0.017366114842784625 0.0020879248627990736
decision_type=2 2 2 2 2 2 2
left_child=1 3 -3 -1 6 -6 -2
right_child=4 2 -4 -5 5 -7 -8
leaf_value=0.0024842931276076179 7.017093385095929e-05 -0.0015149301946066015 0.0036485534560475718 -0.0050341872889783038 -0.0051214009603765985 0.006138629536169434 -0.012370816904191824
leaf_weight=216.67699779570103 99.338842988014221 440.03668151795864 1803.0441352576017 290.73750166594982 166.23700200021267 149.49297414720058 127.06449843943119
leaf_count=804 371 1641 6668 1094 624 551 482
internal_value=0.00104702 0.00180589 0.00262848 -0.00179704 -0.00276802 0.00016791 -0.0068936
internal_weight=3292.63 2750.5 2243.08 507.414 542.133 315.73 226.403
internal_count=12235 10207 8309 1898 2028 1175 853
is_linear=0
shrinkage=0.03


Tree=42
num_leaves=8
num_cat=0
split_feature=35 22 5 1 8 22 12
split_gain=12.1028 16.844 23.6789 8.28196 14.5051 11.9866 2.88816
threshold=0.023201721537517216 19.775603897184286 -0.007632467506279216 0.0019922523758189536 -0.010434184756534957 -20.583653943345229 71.805853249885701
decision_type=2 2 2 2 2 2 2
left_child=3 2 -2 4 -1 -5 -3
right_child=1 6 -4 5 -6 -7 -8
leaf_value=0.010099605357072937 0.006034323691146779 0.0097931974370371842 -0.011967647787314253 -0.0050578853805065627 -0.0025603849033764945 0.0033870953640889483 0.00086413595102699298
leaf_weight=90.919801414012909 87.423908516764641 64.858997717499733 241.63164322078228 161.03010283410549 646.98333141207695 1927.276002407074 72.444969907402992
leaf_count=333 323 238 921 603 2423 7125 269
internal_value=0.00101527 -0.00344178 -0.00713199 0.00175795 -0.000957144 0.00272451 0.00526973
internal_weight=3292.57 466.36 329.056 2826.21 737.903 2088.31 137.304
internal_count=12235 1751 1244 10484 2756 7728 507
is_linear=0
shrinkage=0.03


Tree=43
num_leaves=8
num_cat=0
split_feature=13 10 40 3 1 27 6
split_gain=10.0362 12.2268 15.2144 11.5198 6.9754 10.3968 9.3623
threshold=10.953117228162531 78.07413453858959 0.85880657488557299 0.77272723760330808 0.0034778266252921664 -0.017366114842784625 0.0020879248627990736
decision_type=2 2 2 2 2 2 2
left_child=1 3 -3 -1 6 -6 -2
right_child=4 2 -4 -5 5 -7 -8
leaf_value=0.0014936298496770542 4.8011273393440263e-05 0.013179294889803727 -0.0032100552108131827 -0.0094886840183274791 -0.0049745533203109198 0.0058579451002274737 -0.012056089059702797
leaf_weight=2427.642328903079 99.334997624158859 165.41767127811909 70.439774364233017 86.840173617005348 166.17848019301891 149.51852874457836 126.99717347323895
leaf_count=9011 371 604 263 329 624 551 482
internal_value=0.000985184 0.00172396 0.00823565 0.00110114 -0.00272846 0.000113235 -0.00672413
internal_weight=3292.37 2750.34 235.857 2514.48 542.029 315.697 226.332
internal_count=12235 10207 867 9340 2028 1175 853
is_linear=0
shrinkage=0.03


Tree=44
num_leaves=7
num_cat=0
split_feature=35 13 6 21 1 24
split_gain=11.2742 14.8764 16.9179 9.26595 9.92416 4.16572
threshold=0.023201721537517216 -8.7275126558312426 0.0085034500808501851 50.160185718929647 0.0019922523758189536 1.1266883106194949
decision_type=2 2 2 2 2 2
left_child=3 5 -3 4 -1 -2
right_child=1 2 -4 -5 -6 -7
leaf_value=-0.0010397899361220197 0.011030603409417195 -0.011407765324091769 0.0022458792923563432 -0.0087223123228238018 0.0030350039130387398 0
leaf_weight=723.99061889946461 61.036968022584915 223.14775379002094 124.71883092820644 72.685457184910774 2029.4681982547045 57.265543460845947
leaf_count=2704 224 851 463 277 7503 213
internal_value=0.000955332 -0.00334718 -0.00648486 0.00167219 0.00195816 0.00570888
internal_weight=3292.31 466.169 347.867 2826.14 2753.46 118.303
internal_count=12235 1751 1314 10484 10207 437
is_linear=0
shrinkage=0.03


Tree=45
num_leaves=6
num_cat=0
split_feature=40 22 5 29 22
split_gain=13.7505 12.5839 23.8567 8.81417 8.62353
threshold=0.054474707959241787 -22.310483635486076 -0.0050980154342054043 0.83395574475379386 -5.999086367069423
decision_type=2 2 2 2 2
left_child=3 2 -2 -1 -3
right_child=1 4 -4 -5 -6
leaf_value=0.00088606374988282497 0.0073305940468437521 0.0041748370804157477 -0.014255320872641593 0.015747913744017645 0.00049463438731192915
leaf_weight=61.065437689423561 70.29860608279705 791.64240244030952 123.28951244056225 94.734514802694321 2107.7940909713507
leaf_count=227 259 2928 470 345 7836
internal_value=0.00145351 0.00100673 -0.00634522 0.010103 0.00150681
internal_weight=3248.82 3093.02 193.588 155.8 2899.44
internal_count=12065 11493 729 572 10764
is_linear=0
shrinkage=0.03


Tree=46
num_leaves=7
num_cat=0
split_feature=36 19 20 15 21 3
split_gain=10.5749 13.726 7.55546 16.6064 7.72764 7.28812
threshold=0.029138165275894971 0.01633043850625502 0.0014429356034776099 86.569099684790388 34.647223415859123 0.33333332365320201
decision_type=2 2 2 2 2 2
left_child=2 5 3 -1 -4 -2
right_child=1 -3 4 -5 -6 -7
leaf_value=0.0014949331784456176 -0.0037267288219935673 0.0088123783009362265 0.003081352777623338 -0.014305336680709966 0.011110890946218548 -0.015673602202105792
leaf_weight=2157.9062817543745 159.22740024328232 56.35704493522644 616.26765188574791 59.449249342083931 132.7238263040781 66.889395266771317
leaf_count=8016 596 207 2279 226 486 255
internal_value=0.00141058 -0.00409996 0.00194279 0.00105205 0.00454999 -0.00743302
internal_weight=3248.82 282.474 2966.35 2217.36 748.991 226.117
internal_count=12065 1058 11007 8242 2765 851
is_linear=0
shrinkage=0.03


Tree=47
num_leaves=6
num_cat=0
split_feature=40 22 5 36 29
split_gain=12.9577 11.8502 22.4958 10.2733 8.29499
threshold=0.054474707959241787 -22.310483635486076 -0.0050980154342054043 0.029138165275894971 0.83395574475379386
decision_type=2 2 2 2 2
left_child=4 2 -2 -3 -1
right_child=1 3 -4 -5 -6
leaf_value=0.00081687127964928381 0.0070723572727383601 0.0020106174587787812 -0.013887713828628256 -0.0039801109074381093 0.01523939847788308
leaf_weight=61.06748740375042 70.306577607989311 2617.0893285870552 123.2085645198822 282.41206413507462 94.746491000056267
leaf_count=227 259 9706 470 1058 345
internal_value=0.00136808 0.000934248 -0.00620148 0.00141961 0.00976388
internal_weight=3248.83 3093.02 193.515 2899.5 155.814
internal_count=12065 11493 729 10764 572
is_linear=0
shrinkage=0.03


Tree=48
num_leaves=6
num_cat=0
split_feature=40 22 18 36 14
split_gain=12.2171 11.1535 12.9249 9.67092 9.42374
threshold=0.054474707959241787 -22.310483635486076 -0.003990019994256684 0.029138165275894971 -99.082934261024505
decision_type=2 2 2 2 2
left_child=4 2 -2 -3 -1
right_child=1 3 -4 -5 -6
leaf_value=0.0031700404649335138 0.0025026255471600439 0.0019502833532712728 -0.012871939580233227 -0.0038621230924784284 0.018440115240591325
leaf_weight=93.999400079250336 85.813468500971794 2617.1709085404873 107.60680654644966 282.37029626965523 61.81420311331749
leaf_count=348 319 9706 410 1058 224
internal_value=0.00132732 0.000905913 -0.00601825 0.0013768 0.00947994
internal_weight=3248.78 3092.96 193.42 2899.54 155.814
internal_count=12065 11493 729 10764 572
is_linear=0
shrinkage=0.03


Tree=49
num_leaves=6
num_cat=0
split_feature=40 33 40 20 9
split_gain=11.5254 9.10229 11.6869 8.93428 8.33461
threshold=0.054474707959241787 0.0049102706647852394 0.74603173892668306 0.0022856845299952387 -0.020414885321717587
decision_type=2 2 2 2 2
left_child=4 3 -3 -2 -1
right_child=1 2 -4 -5 -6
leaf_value=0.0009249756832041549 -0.0025627128223600598 0.0034886689302042746 -0.0013029862574287989 0.0063175052544694327 0.015151897896225461
leaf_weight=67.134765043854713 862.60605101287365 1456.2050083577633 661.17348952591419 112.9334851205349 88.680324107408524
leaf_count=250 3227 5387 2463 416 322
internal_value=0.00128782 0.000878357 0.00198553 -0.00150853 0.00920652
internal_weight=3248.73 3092.92 2117.38 975.54 155.815
internal_count=12065 11493 7850 3643 572
is_linear=0
shrinkage=0.03


Tree=50
num_leaves=7
num_cat=0
split_feature=8 2 23 25 7 2
split_gain=12.01 15.386 14.6414 12.1656 12.0083 9.60196
threshold=-0.0050613388416981811 0.2499999687500126 0.0031545373729673903 1.7889226847385371 -0.009557975948527973 0.16666664583335938
decision_type=2 2 2 2 2 2
left_child=3 5 -3 4 -1 -2
right_child=1 2 -4 -5 -6 -7
leaf_value=-0.0017001169131591529 -0.00097534063181867637 -0.0031167575845354144 0.005530456179717892 0.016226544743891274 0.0051989312145672237 -0.0079618095932374178
leaf_weight=331.77815122902393 1074.5170982182026 243.68514150381088 609.32193924486637 65.061908751726151 693.76189783215523 212.05334313213825
leaf_count=1242 4007 911 2245 236 2559 797
internal_value=0.00122792 -7.19445e-05 0.00304108 0.00378723 0.00295342 -0.00214907
internal_weight=3230.18 2139.58 853.007 1090.6 1025.54 1286.57
internal_count=11997 7960 3156 4037 3801 4804
is_linear=0
shrinkage=0.03


Tree=51
num_leaves=8
num_cat=0
split_feature=4 2 38 17 38 27 9
split_gain=17.6001 13.4019 12.899 10.3217 12.1356 9.97111 5.97727
threshold=-0.0031580458467442836 0.24999999162946426 -0.37940952255126015 0.00057381000225428791 0.37940952255126048 -0.0092619075204063896 0.014830766029167554
decision_type=2 2 2 2 2 2 2
left_child=3 2 -2 4 -1 -3 -5
right_child=1 5 -4 6 -6 -7 -8
leaf_value=0.015890823996340481 -0.0048205272841773004 0.0038888670461123685 0.0006404423120527123 -0.0069275629237923395 0.0011448536568494389 -0.0042894191692483454 0.0061480688004494893
leaf_weight=156.63079971075058 604.09267090260983 1041.100672647357 1076.7912033647299 53.976045444607735 77.317610234022141 150.61869840323925 69.5401261895895
leaf_count=568 2265 3846 4009 202 286 565 256
internal_value=0.00119109 0.00040216 -0.00131666 0.00745174 0.011132 0.00283721 0.000295229
internal_weight=3230.07 2872.6 1680.88 357.465 233.948 1191.72 123.516
internal_count=11997 10685 6274 1312 854 4411 458
is_linear=0
shrinkage=0.03


Tree=52
num_leaves=7
num_cat=0
split_feature=0 40 6 40 38 26
split_gain=13.1239 8.63225 17.5847 12.6733 6.80743 5.86106
threshold=-0.0034413538810220364 0.77455220075165399 -0.0041835534771788576 0.64215354493775889 -0.60355339059327384 0.93390585815389493
decision_type=2 2 2 2 2 2
left_child=4 3 -3 -2 -1 -6
right_child=1 2 -4 -5 5 -7
leaf_value=0.013355530304300414 0.00036687759427219503 -0.015515374303159527 -0.00060454597143804378 0.0062593113676753459 0.0069784480871207671 -0.0041356722234724957
leaf_weight=102.76571230590343 1884.8431168943644 79.901866316795349 565.71999977529049 397.69722312688828 141.55492196977139 57.422425255179405
leaf_count=374 7012 304 2107 1466 520 214
internal_value=0.00115578 0.000534141 -0.00251528 0.00140469 0.0070956 0.00368718
internal_weight=3229.91 2928.16 645.622 2282.54 301.743 198.977
internal_count=11997 10889 2411 8478 1108 734
is_linear=0
shrinkage=0.03


Tree=53
num_leaves=8
num_cat=0
split_feature=8 2 35 21 37 27 20
split_gain=11.0134 14.1087 13.5606 16.9297 15.2238 13.1524 11.8
threshold=-0.0050613388416981811 0.2499999687500126 0.023437499993869185 46.75091326901773 -0.5 -0.0092619075204063896 0.0012232990010632753
decision_type=2 2 2 2 2 2 2
left_child=2 6 3 -1 -4 -3 -2
right_child=1 5 4 -5 -6 -7 -8
leaf_value=0.0061718002294889607 -0.0048491052172096377 0.0044413654925298729 0.0074282735320998694 -0.0099131103473554805 -0.010469529547448649 -0.0058603520472185703 0.00088021316805653757
leaf_weight=850.37462691962719 673.96203522384167 724.08286443352699 64.975999861955643 60.814126506447792 114.31057851016521 128.87029400467873 612.45890466868877
leaf_count=3129 2529 2671 241 231 436 485 2275
internal_value=0.00112125 -0.000123333 0.00357244 0.00506248 -0.00388998 0.00285729 -0.00211263
internal_weight=3229.85 2139.37 1090.48 911.189 179.287 852.953 1286.42
internal_count=11997 7960 4037 3360 677 3156 4804
is_linear=0
shrinkage=0.03


Tree=54
num_leaves=7
num_cat=0
split_feature=0 2 38 28 38 29
split_gain=12.419 11.2643 8.53489 7.62646 6.44681 3.76961
threshold=-0.0034413538810220364 0.55684753358561045 0.91597561503675351 1.2146865398944267 -0.60355339059327384 1.1995288197792584
decision_type=2 2 2 2 2 2
left_child=4 2 -2 -3 -1 -6
right_child=1 3 -4 -5 5 -7
leaf_value=0.012960446334135107 -0.00092872279304378655 0.0026175173564393093 0.0043134855077626112 0.012142647336739705 0.0065895338805050567 -0.0018460518853766466
leaf_weight=102.71240250766277 2204.4323634803295 303.17548328638077 317.69747532904148 102.60247245430946 128.69895660877228 70.254454523324966
leaf_count=374 8218 1121 1176 374 473 261
internal_value=0.00108733 0.000482541 -0.000259556 0.00511051 0.00686603 0.00354739
internal_weight=3229.57 2927.91 2522.13 405.778 301.666 198.953
internal_count=11997 10889 9394 1495 1108 734
is_linear=0
shrinkage=0.03


Tree=55
num_leaves=6
num_cat=0
split_feature=8 36 16 20 38
split_gain=9.00205 7.50411 16.6596 8.35115 6.25505
threshold=-0.024958359662850312 0.030422107219707065 65.273030720952065 -0.0043664075240846959 -0.60355339059327384
decision_type=2 2 2 2 2
left_child=4 3 -3 -2 -1
right_child=1 2 -4 -5 -6
leaf_value=0.00020067226142394225 -0.0060836733747109536 -0.015386277056211137 0.00049266349311158093 0.0007578222782147337 0.01309182156006849
leaf_weight=62.463710710406303 168.55110149085522 88.37986296415329 168.50251422822475 2682.0102284103632 79.024147108197212
leaf_count=234 636 337 627 9959 290
internal_value=0.000239472 -9.49314e-05 -0.00498917 0.000344051 0.00758733
internal_weight=3248.93 3107.44 256.882 2850.56 141.488
internal_count=12083 11559 964 10595 524
is_linear=0
shrinkage=0.03


Tree=56
num_leaves=7
num_cat=0
split_feature=40 36 38 40 38 29
split_gain=13.9285 17.4672 14.0012 10.9613 11.8796 10.1574
threshold=0.27272727132526514 0.0092610460711580762 -0.5 0.31973454060933121 0.78656609248549303 0.55721468657012985
decision_type=2 2 2 2 2 2
left_child=1 2 -1 5 -5 -2
right_child=3 -3 -4 4 -6 -7
leaf_value=-0.00068582617892232688 0.0018730578752211274 -0.012664130071585102 0.0071366257587941523 0.00071126232044897209 -0.0048085025585241394 -0.013352766504812773
leaf_weight=315.3700066357851 56.454839393496513 55.564951166510582 572.36658677458763 1694.5605078041553 439.78236043453217 114.76135969161987
leaf_count=1175 210 210 2109 6296 1648 435
internal_value=0.000232295 0.00330304 0.00434553 -0.00101935 -0.000422503 -0.00828212
internal_weight=3248.86 943.302 887.737 2305.56 2134.34 171.216
internal_count=12083 3494 3284 8589 7944 645
is_linear=0
shrinkage=0.03


Tree=57
num_leaves=5
num_cat=0
split_feature=8 21 21 2
split_gain=8.44963 9.79143 7.99312 7.64094
threshold=-0.024958359662850312 50.160185718929647 39.201049759949484 0.53846149704142998
decision_type=2 2 2 2
left_child=2 3 -1 -2
right_child=1 -3 -4 -5
leaf_value=0.01477450193627319 -0.00041086988464822643 -0.009729833113236613 0.00037470812473784935 0.0039490302207573066
leaf_weight=66.355634987354279 2599.2415754050016 90.254998654127121 75.163695394992828 417.8105141222477
leaf_count=242 9674 344 282 1541
internal_value=0.000224645 -9.92353e-05 0.0073428 0.00019015
internal_weight=3248.83 3107.31 141.519 3017.05
internal_count=12083 11559 524 11215
is_linear=0
shrinkage=0.03


Tree=58
num_leaves=7
num_cat=0
split_feature=37 17 27 8 18 22
split_gain=9.55906 17.2508 13.4018 8.53846 9.13891 7.90349
threshold=-0.91597561503675329 0.00090228635573215237 -0.01468326029378024 -0.011882637218912027 0.0010286072922838176 -15.619613615447729
decision_type=2 2 2 2 2 2
left_child=1 2 -1 5 -5 -2
right_child=3 -3 -4 4 -6 -7
leaf_value=0.013006723015492208 1.79547202396416e-05 -0.0077105056886402736 0.00061829105197101482 -0.0026884255980858841 0.0011169439593342189 0.0077759419548548486
leaf_weight=181.08543574810028 297.69144561886787 80.091301783919334 142.70232656598091 1403.9876218140125 944.78212463855743 198.37005454301834
leaf_count=661 1112 301 530 5241 3509 729
internal_value=0.000218076 0.00452806 0.00763015 -0.000391293 -0.0011517 0.00316918
internal_weight=3248.71 403.879 323.788 2844.83 2348.77 496.062
internal_count=12083 1492 1191 10591 8750 1841
is_linear=0
shrinkage=0.03


Tree=59
num_leaves=7
num_cat=0
split_feature=40 36 40 27 40 26
split_gain=13.0708 16.3809 13.6741 12.293 17.8195 8.44435
threshold=0.27272727132526514 0.0092610460711580762 0.15724538397745605 -0.0090196573709787255 0.31973454060933121 0.62708739046179274
decision_type=2 2 2 2 2 2
left_child=1 2 -1 4 -2 -5
right_child=3 -3 -4 5 -6 -7
leaf_value=0.0010054793294841666 -0.010898112430484941 -0.012275142798997503 0.0085878321659095536 -0.010367997241727279 0.00055811551592579122 0.00059792727825021177
leaf_weight=517.48698344826698 128.56367762386799 55.555186972022057 370.23502296209335 192.23937565088272 1894.9178515523672 89.655772298574448
leaf_count=1923 485 210 1361 733 7036 335
internal_value=0.000212037 0.00318692 0.00419684 -0.00100039 -0.000172403 -0.00684784
internal_weight=3248.65 943.277 887.722 2305.38 2023.48 281.895
internal_count=12083 3494 3284 8589 7521 1068
is_linear=0
shrinkage=0.03


Tree=60
num_leaves=7
num_cat=0
split_feature=31 26 23 25 17 37
split_gain=8.56791 14.5521 14.177 10.9371 8.42016 5.12949
threshold=-0.00071772460436490251 0.84155219299779815 0.0031398314248940345 1.9994428563365001 0.0021112318079524674 -0.25881904510252113
decision_type=2 2 2 2 2 2
left_child=3 2 -2 4 -1 -3
right_child=1 5 -4 -5 -6 -7
leaf_value=-0.0013363388603362092 -0.0028725242214070034 0.01815096590312016 0.0028895852364218175 0.011223151870628957 -0.012423480648827402 0.0056149361501324543
leaf_weight=1255.4749300628901 560.14595893025398 56.871701300144196 1203.8487533032894 57.524198576807976 63.401939928531647 73.758920907974243
leaf_count=4678 2100 206 4455 210 241 272
internal_value=0.000470116 0.00178137 0.00105019 -0.00132391 -0.00189869 0.0113772
internal_weight=3271.03 1894.63 1763.99 1376.4 1318.88 130.631
internal_count=12162 7033 6555 5129 4919 478
is_linear=0
shrinkage=0.03


Tree=61
num_leaves=7
num_cat=0
split_feature=22 23 22 24 21 38
split_gain=6.83428 26.0076 18.078 12.6769 12.3779 12.3324
threshold=-3.737313292068158 0.0031682244037121786 5.2333907173828278 0.83833850457148051 47.189550159408078 0.78656609248549303
decision_type=2 2 2 2 2 2
left_child=4 3 -3 -2 5 -1
right_child=1 2 -4 -5 -6 -7
leaf_value=0.0046027845428590237 0.0029499750779844033 -0.0031057590834152947 0.0041195518812856087 -0.0081445925409429545 -0.0078258120295300361 -0.0025290402217666569
leaf_weight=945.69006805121899 112.03228740394115 475.71206158399582 887.86837595701218 469.22086092829704 101.23640754818916 279.12892004847527
leaf_count=3493 418 1773 3280 1771 385 1042
internal_value=0.000456419 -0.000669964 0.00158702 -0.0059777 0.00211822 0.00296378
internal_weight=3270.89 1944.83 1363.58 581.253 1326.06 1224.82
internal_count=12162 7242 5053 2189 4920 4535
is_linear=0
shrinkage=0.03


Tree=62
num_leaves=6
num_cat=0
split_feature=4 25 25 8 29
split_gain=6.68939 10.6754 14.887 6.28833 5.91042
threshold=-0.0031580458467442836 1.6897302840086084 1.4160773744562296 -0.024958359662850312 1.5255458927264682
decision_type=2 2 2 2 2
left_child=1 2 -1 -2 -5
right_child=3 -3 -4 4 -6
leaf_value=0.0048755662736084861 0.0070138547443777764 0.012538566567487381 -0.01149397316069852 -0.0008831885883566436 0.0031165467116780038
leaf_weight=216.08495399355888 107.14018532633781 99.337446764111519 62.681434899568558 2402.3963716030121 383.05566477775574
leaf_count=796 398 362 236 8951 1419
internal_value=0.000442286 0.0041843 0.00108575 -4.42197e-05 -0.000325922
internal_weight=3270.7 378.104 278.766 2892.59 2785.45
internal_count=12162 1394 1032 10768 10370
is_linear=0
shrinkage=0.03


Tree=63
num_leaves=8
num_cat=0
split_feature=26 14 21 40 27 38 27
split_gain=7.56701 16.1506 16.5245 14.618 8.4082 9.84592 8.75996
threshold=0.72797727364063092 27.562162665789632 32.282219621916589 0.81040939905626008 -0.018713908842166043 -0.9159756150367534 -0.012678788378043379
decision_type=2 2 2 2 2 2 2
left_child=1 3 -3 -1 5 -2 -6
right_child=4 2 -4 -5 6 -7 -8
leaf_value=-0.0019759814657420473 -0.01238776131529341 -0.00037997724385592795 0.0071489112248096761 -0.01256817001788633 0.0089031437919165814 0.0011667610853766091 0.0013951498158057221
leaf_weight=761.15243113040924 53.42078423500061 1034.1960653960705 348.03019085526466 138.23951871693134 269.55925697088242 364.30533245205879 301.73808118700981
leaf_count=2841 203 3849 1282 524 988 1356 1119
internal_value=0.000429444 -0.000515377 0.00151247 -0.00364495 0.00262087 -0.000581686 0.00498256
internal_weight=3270.64 2281.62 1382.23 899.392 989.023 417.726 571.297
internal_count=12162 8496 5131 3365 3666 1559 2107
is_linear=0
shrinkage=0.03


Tree=64
num_leaves=7
num_cat=0
split_feature=31 14 17 12 17 13
split_gain=8.22901 12.4775 13.4393 12.9767 8.18734 6.40702
threshold=-0.00071772460436490251 -76.266422654594933 0.00023998781014801445 38.53953483208884 0.0021112318079524674 -21.527965397133389
decision_type=2 2 2 2 2 2
left_child=4 2 -2 -3 5 -1
right_child=1 3 -4 -5 -6 -7
leaf_value=0.0087976734510878517 0.011372244072986511 -0.01324338091722055 -0.0049082136437478344 0.0012349148744510755 -0.011654640513029359 -0.0012731439125146945
leaf_weight=57.299520701169968 203.50129929184914 55.644188717007637 55.961060509085655 1579.2837209552526 64.19066958129406 1254.6317915767431
leaf_count=210 745 212 210 5866 244 4675
internal_value=0.000416276 0.00170159 0.00779281 0.000717409 -0.00134212 -0.000809156
internal_weight=3270.51 1894.39 259.462 1634.93 1376.12 1311.93
internal_count=12162 7033 955 6078 5129 4885
is_linear=0
shrinkage=0.03


Tree=65
num_leaves=5
num_cat=0
split_feature=3 23 40 35
split_gain=10.2724 8.74241 26.7765 7.62428
threshold=0.77272723760330808 0.0015924941585343988 0.33446050038269692 0.007009660762431146
decision_type=2 2 2 2
left_child=1 2 -1 -3
right_child=-2 3 -4 -5
leaf_value=0.0072079017646607072 -0.0080961650975005916 0.0079485320601643209 -0.021378047451604331 0.001403559760095487
leaf_weight=58.66865436732769 102.05845005810261 169.18963631987572 54.875331923365593 2875.1723123192787
leaf_count=218 386 627 214 10666
internal_value=0.00115817 0.00146694 -0.00660865 0.0017772
internal_weight=3259.96 3157.91 113.544 3044.36
internal_count=12111 11725 432 11293
is_linear=0
shrinkage=0.03


Tree=66
num_leaves=5
num_cat=0
split_feature=3 13 33 5
split_gain=9.67948 9.46317 10.2488 9.26359
threshold=0.77272723760330808 12.584402195163147 0.013221961948743822 0.0045561139233010204
decision_type=2 2 2 2
left_child=1 3 -3 -1
right_child=-2 2 -4 -5
leaf_value=0.0015741843720587221 -0.0078615455510849287 -0.0051267204442124997 0.0065357433702928781 0.0083735115198716771
leaf_weight=2547.8937932401896 102.0115527510643 333.99012365937233 82.183338925242424 193.82824885845184
leaf_count=9456 386 1254 303 712
internal_value=0.00112319 0.00142297 -0.00276758 0.00206609
internal_weight=3259.91 3157.9 416.173 2741.72
internal_count=12111 11725 1557 10168
is_linear=0
shrinkage=0.03


Tree=67
num_leaves=8
num_cat=0
split_feature=36 22 8 9 9 17 36
split_gain=7.4077 15.7207 12.8347 14.3062 12.3036 8.49327 8.16418
threshold=0.029138165275894971 16.345220603153731 0.011566672018182513 0.015181934331943482 0.0042953131575170786 0.0017517253746868885 0.050476900321773883
decision_type=2 2 2 2 2 2 2
left_child=2 5 3 -1 -4 -2 -3
right_child=1 6 4 -5 -6 -7 -8
leaf_value=0.00016909556315430468 -0.0031205434717911213 -0.0022448003126117723 0.019526387880014037 0.009715398234638491 0.0043034424626000314 -0.020111311795718869 0.011251511339276441
leaf_weight=2402.8231273442507 53.670986860990524 125.31576040387154 54.592090934514999 148.38956059515476 361.19918657839298 57.41051073372364 56.445409268140793
leaf_count=8940 201 468 197 544 1333 221 207
internal_value=0.00108958 -0.00343148 0.00154287 0.0007374 0.00642198 -0.012235 0.00194165
internal_weight=3259.85 292.843 2967 2551.21 415.791 111.081 181.761
internal_count=12111 1097 11014 9484 1530 422 675
is_linear=0
shrinkage=0.03


Tree=68
num_leaves=5
num_cat=0
split_feature=3 23 36 31
split_gain=9.11158 8.11462 7.84432 5.47649
threshold=0.78571424362246722 0.0015924941585343988 0.029138165275894971 1.0000000180025095e-35
decision_type=2 2 2 2
left_child=1 3 -3 -1
right_child=-2 2 -4 -5
leaf_value=-0.013058621868417353 -0.0081766890459896904 0.0021216213304429627 -0.0030707255555219178 0
leaf_weight=55.083864092826843 91.014885246753693 2770.0979571342468 285.20452636480331 58.366175845265388
leaf_count=211 345 10266 1068 221
internal_value=0.00105741 0.00133235 0.00163033 -0.00645169
internal_weight=3259.77 3168.75 3055.3 113.45
internal_count=12111 11766 11334 432
is_linear=0
shrinkage=0.03


Tree=69
num_leaves=5
num_cat=0
split_feature=3 13 5 28
split_gain=8.60954 8.9379 8.64023 8.24215
threshold=0.77272723760330808 12.584402195163147 0.0045561139233010204 0.480383268837488
decision_type=2 2 2 2
left_child=1 2 -1 -3
right_child=-2 3 -4 -5
leaf_value=0.0014577952094583155 -0.0074520222746946047 -0.0091107321863067268 0.0080243628827579867 0
leaf_weight=2547.7662365138531 101.91426788270473 125.878671631217 193.8212099224329 290.26335252821445
leaf_count=9456 386 476 712 1081
internal_value=0.0010249 0.00130778 0.00193301 -0.00276496
internal_weight=3259.64 3157.73 2741.59 416.142
internal_count=12111 11725 10168 1557
is_linear=0
shrinkage=0.03


Tree=70
num_leaves=6
num_cat=0
split_feature=2 14 25 10 5
split_gain=7.53291 11.2666 8.00308 6.15549 7.6992
threshold=0.57979624025499288 193.9150530226303 0.68587675457310493 75.97825992325177 -0.0028382336097712009
decision_type=2 2 2 2 2
left_child=1 2 -1 4 -2
right_child=3 -3 -4 -5 -6
leaf_value=-0.0017296358149574789 0.011204753863642399 -0.010993405205162125 0.001662472060514052 0.01274130679119392 0
leaf_weight=935.36909030377865 71.714687049388885 76.50444358587265 1870.3848193883896 69.481793910264969 226.63709431886673
leaf_count=3495 262 289 6940 253 841
internal_value=0.000730279 0.000207488 0.000525858 0.00476292 0.00278245
internal_weight=3250.09 2882.26 2805.75 367.834 298.352
internal_count=12080 10724 10435 1356 1103
is_linear=0
shrinkage=0.03


Tree=71
num_leaves=7
num_cat=0
split_feature=33 33 8 16 20 16
split_gain=8.40364 11.8704 8.03631 12.6331 8.89905 7.46808
threshold=0.0049102706647852394 0.0050639337489582015 -0.0050613388416981811 32.758408258407364 0.0011883442538307522 56.811095153860769
decision_type=2 2 2 2 2 2
left_child=2 -2 3 -1 -4 -3
right_child=1 5 4 -5 -6 -7
leaf_value=0.0072168694986043036 0.014297641546460894 -0.00019190309972364083 -0.0057620508174183833 -0.0047841953920383486 0.0014146431179668192 0.0033406232530642016
leaf_weight=192.12092983722687 64.005095019936562 1221.7677645236254 463.46709775924683 129.88406789302826 228.09087365865707 950.65107277035713
leaf_count=707 233 4546 1747 486 847 3514
internal_value=0.000708723 0.00173842 -0.00154748 0.00233017 -0.00337614 0.00134868
internal_weight=3249.99 2236.42 1013.56 322.005 691.558 2172.42
internal_count=12080 8293 3787 1193 2594 8060
is_linear=0
shrinkage=0.03


Tree=72
num_leaves=5
num_cat=0
split_feature=34 17 9 14
split_gain=8.16924 12.1965 7.72765 4.62786
threshold=0.026022369229691148 0.0022079137325573921 0.0091384424652056779 36.283347711918999
decision_type=2 2 2 2
left_child=1 2 -1 -3
right_child=-2 3 -4 -5
leaf_value=-1.2525619674390735e-05 0.011513882648643992 -0.015702532250306798 0.0034977022275108397 -0.0027221974529025869
leaf_weight=2346.881424844265 59.664401054382324 52.150327742099762 737.69316266477108 53.458133429288864
leaf_count=8734 218 200 2728 200
internal_value=0.000687774 0.000473513 0.000823828 -0.0094441
internal_weight=3249.85 3190.18 3084.57 105.608
internal_count=12080 11862 11462 400
is_linear=0
shrinkage=0.03


Tree=73
num_leaves=8
num_cat=0
split_feature=33 33 16 24 17 23 16
split_gain=7.86518 11.214 10.5917 7.6767 14.101 8.76776 6.5617
threshold=0.0049102706647852394 0.0057860422224547559 56.811095153860769 0.83833850457148051 -0.00030343708580695696 0.0024691240905012741 33.170727094966146
decision_type=2 2 2 2 2 2 2
left_child=3 6 -3 5 -5 -1 -2
right_child=1 2 -4 4 -6 -7 -8
leaf_value=0.009171003193678192 0.012039903565732344 -0.0012736169556972553 0.0032617544551933582 0.0026271608315651842 -0.006267400180638814 -0.0013090724645721031 0.0034179111589900022
leaf_weight=109.13990111649036 125.07263474166393 1048.8359329998493 823.85971027612686 239.25902289152145 468.2301821410656 196.81963089108467 238.58210247755051
leaf_count=404 457 3909 3045 886 1764 733 882
internal_value=0.000666806 0.00166311 0.00071499 -0.00151588 -0.00323936 0.00241589 0.00647395
internal_weight=3249.8 2236.35 1872.7 1013.45 707.489 305.96 363.655
internal_count=12080 8293 6954 3787 2650 1137 1339
is_linear=0
shrinkage=0.03


Tree=74
num_leaves=6
num_cat=0
split_feature=40 26 16 40 4
split_gain=11.1391 11.415 9.88636 29.0825 12.8735
threshold=0.057104037026281147 0.89411237519005793 56.811095153860769 0.86271582962244853 -0.0036860980611518874
decision_type=2 2 2 2 2
left_child=1 -1 3 -2 -4
right_child=2 -3 4 -5 -6
leaf_value=0.015296816758891656 -0.00040311340757194649 -0.00028011008615865223 0.011488993120740691 -0.018810854383845641 0.0012115597381922901
leaf_weight=89.825391069054604 1624.7885425388813 74.998985782265663 118.93831694126129 79.232342109084129 1261.9134561270475
leaf_count=327 6052 279 434 303 4685
internal_value=0.000647356 0.00820065 0.000233873 -0.00128886 0.00212298
internal_weight=3249.7 164.824 3084.87 1704.02 1380.85
internal_count=12080 606 11474 6355 5119
is_linear=0
shrinkage=0.03


Tree=75
num_leaves=8
num_cat=0
split_feature=35 29 17 36 22 9 37
split_gain=9.35197 21.8228 14.5131 13.007 12.7901 8.85256 7.17668
threshold=0.02245401194308597 0.80243312648719112 -0.00067031114375556403 -0.016083658383505724 23.802528519985305 0.0094097679473097457 -0.60355339059327362
decision_type=2 2 2 2 2 2 2
left_child=2 6 3 -1 -3 -4 -2
right_child=1 4 5 -5 -6 -7 -8
leaf_value=0.0018084507749806197 -0.0031570868579908901 -0.0022414279849751703 -0.0008088108615159857 0.011018244157382198 0.010412954054258787 0.0033509337007519568 -0.015669882584297783
leaf_weight=324.95072558522224 71.272867545485497 218.72164611518383 1517.0958992391825 245.47426423430443 103.93783715367317 657.16380447149277 113.73597259819508
leaf_count=1204 268 819 5651 897 380 2431 437
internal_value=0.000874722 -0.00284794 0.00157031 0.00582261 0.00182774 0.000443492 -0.011015
internal_weight=3252.35 507.668 2744.68 570.425 322.659 2174.26 185.009
internal_count=12087 1904 10183 2101 1199 8082 705
is_linear=0
shrinkage=0.03


Tree=76
num_leaves=8
num_cat=0
split_feature=35 29 17 31 35 31 37
split_gain=8.81268 20.5827 13.6677 12.8577 12.5645 8.56555 6.76542
threshold=0.02245401194308597 0.80243312648719112 -0.00067031114375556403 0.0013123197583831711 0.011545214333238045 0.011791988636985816 -0.60355339059327362
decision_type=2 2 2 2 2 2 2
left_child=2 6 4 -4 -1 -3 -2
right_child=1 5 3 -5 -6 -7 -8
leaf_value=0.012400190125677609 -0.003065458096112183 -0.0013261939051344438 0.002037855172255818 -0.0028774182233062807 0.0026481188231799423 0.0092917552605310035 -0.015226788314686603
leaf_weight=172.14190839231014 71.261127501726151 228.20909209549427 1466.618520155549 707.6401938945055 398.22771641612053 94.42267033457756 113.59462676942348
leaf_count=628 268 853 5443 2639 1473 346 437
internal_value=0.000848484 -0.00276568 0.00152374 0.00043005 0.00565062 0.00177319 -0.0107019
internal_weight=3252.12 507.488 2744.63 2174.26 570.37 322.632 184.856
internal_count=12087 1904 10183 8082 2101 1199 705
is_linear=0
shrinkage=0.03


Tree=77
num_leaves=8
num_cat=0
split_feature=30 29 35 21 15 22 10
split_gain=8.357 6.77253 7.94104 6.87227 5.98382 10.8091 5.646
threshold=0.31643131003097136 2.0179582341123354 0.023201721537517216 25.561144208700515 16.660458278104407 -17.939069019374227 22.476590452010381
decision_type=2 2 2 2 2 2 2
left_child=4 2 -2 -3 6 -6 -1
right_child=1 3 -4 -5 5 -7 -8
leaf_value=0.0041473982504482559 -8.2865936476715531e-06 -0.00066711247566099017 -0.0056085595149959911 0.013910908895223405 -0.0086720895790873276 0.0026562014183329867 0.015097579142916012
leaf_weight=170.46481250226498 1629.1461628526449 53.915752217173576 263.96928308904171 56.456947937607765 80.021410003304482 939.07693299651146 58.847491383552551
leaf_count=629 6061 201 999 206 301 3476 214
internal_value=0.000823009 -0.000371149 -0.000802179 0.0067711 0.00274896 0.00173675 0.00712859
internal_weight=3251.9 2003.49 1893.12 110.373 1248.41 1019.1 229.312
internal_count=12087 7467 7060 407 4620 3777 843
is_linear=0
shrinkage=0.03


Tree=78
num_leaves=8
num_cat=0
split_feature=40 39 16 40 17 31 40
split_gain=11.4518 19.6797 15.3672 10.3271 14.5738 9.72554 7.68839
threshold=0.79034066313422946 1.0000000180025095e-35 54.318502279869399 0.64215354493775889 0.0012161303408895544 -0.00184081899729484 0.26101323874416615
decision_type=2 2 2 2 2 2 2
left_child=3 2 -2 6 -5 -3 -1
right_child=1 5 -4 4 -6 -7 -8
leaf_value=0.0028048808521413948 -0.007102008799584645 0.0001492991169069513 0.0046903523544321365 0.0075362924338239724 -0.0065588816656201787 -0.014194741694441097 -0.00086510573655681241
leaf_weight=910.26244907081127 145.71802096068859 55.845068961381912 300.87614591419697 446.20884469151497 74.703399196267128 152.27574233710766 1165.8530380576849
leaf_count=3373 549 208 1112 1641 281 577 4346
internal_value=0.000798603 -0.00273295 0.000794708 0.0016961 0.00546888 -0.0103096 0.000737914
internal_weight=3251.74 654.715 446.594 2597.03 520.912 208.121 2076.12
internal_count=12087 2446 1661 9641 1922 785 7719
is_linear=0
shrinkage=0.03


Tree=79
num_leaves=8
num_cat=0
split_feature=40 22 6 2 38 16 22
split_gain=10.7799 13.1863 17.0954 12.3649 12.7685 9.83127 5.45183
threshold=0.79034066313422946 3.9793717747689432 -0.0026026659823122351 0.2499999687499779 0.91597561503675351 53.079190874486891 19.775603897184286
decision_type=2 2 2 2 2 2 2
left_child=3 2 -2 4 -1 -3 -5
right_child=1 5 -4 6 -6 -7 -8
leaf_value=-0.0010314232265638465 0.0011604954673667513 -0.0090182685414135939 -0.018657046519099101 0.0035668387528765542 0.006798727817697062 0.001740906112098182 0.011655855129958112
leaf_weight=1393.307634755969 65.904814407229424 91.871555313467979 89.220411583781242 906.44143958389759 214.50643128156662 407.66389931738377 82.731246903538704
leaf_count=5196 245 348 341 3351 792 1512 302
internal_value=0.000774276 -0.00265201 -0.0102345 0.00164514 1.10669e-05 -0.00023602 0.00428067
internal_weight=3251.65 654.661 155.125 2596.99 1607.81 499.535 989.173
internal_count=12087 2446 586 9641 5988 1860 3653
is_linear=0
shrinkage=0.03


Tree=80
num_leaves=6
num_cat=0
split_feature=3 14 34 17 2
split_gain=9.04256 9.63201 5.76383 8.9281 4.95403
threshold=0.59999991000003172 85.926781849529164 0.026022369229691148 0.0012161303408895544 0.066666662222233622
decision_type=2 2 2 2 2
left_child=2 4 3 -1 -2
right_child=1 -3 -4 -5 -6
leaf_value=0.0016271390549725232 -0.0026808162090483194 0.0068385807951909239 0.01039066967081659 -0.0036195139485596067 -0.011173414957302929
leaf_weight=2537.1442096531391 147.26734890043736 56.732030227780342 58.810687303543091 326.49148505926132 115.25865833461285
leaf_count=9416 553 209 215 1222 437
internal_value=0.000693877 -0.00407365 0.00122226 0.00102161 -0.00652238
internal_weight=3241.7 319.258 2922.45 2863.64 262.526
internal_count=12052 1199 10853 10638 990
is_linear=0
shrinkage=0.03


Tree=81
num_leaves=7
num_cat=0
split_feature=22 40 37 26 40 35
split_gain=8.9242 15.5657 13.1282 9.87576 6.95343 4.06356
threshold=24.73553516410027 0.85880657488557299 0.12940952255126045 0.44571890769960493 0.054474707959241787 0.020491250784826446
decision_type=2 2 2 2 2 2
left_child=1 4 -2 -3 -1 -4
right_child=2 3 5 -5 -6 -7
leaf_value=0.0072341901724610469 -0.0017507080186729522 -0.0035683716761782092 0.0060862872899928571 -0.017905484344367117 0.00057016128846327921 0.017888374761734414
leaf_weight=147.75331529974937 94.295298963785172 227.9079912006855 54.769050389528275 53.291387945413589 2595.6050668656826 67.985214427113533
leaf_count=544 351 853 202 204 9652 246
internal_value=0.000672964 0.000244166 0.00652295 -0.00644569 0.000939549 0.0129249
internal_weight=3241.61 3024.56 217.05 281.199 2743.36 122.754
internal_count=12052 11253 799 1057 10196 448
is_linear=0
shrinkage=0.03


Tree=82
num_leaves=5
num_cat=0
split_feature=6 40 16 3
split_gain=8.6135 10.8586 15.6726 7.50663
threshold=0.017399168842742844 0.8138742044819065 54.318502279869399 0.59999991000003172
decision_type=2 2 2 2
left_child=1 3 -3 -1
right_child=-2 2 -4 -5
leaf_value=0.0017288565025610273 0.011639008286971373 -0.011449360979789207 -2.0973671576931558e-05 -0.0035825066346987077
leaf_weight=2409.6281460821629 61.089261993765831 155.30126546323299 353.04453077912331 262.43882347643375
leaf_count=8941 223 590 1313 985
internal_value=0.000652954 0.000430038 -0.00357296 0.0011993
internal_weight=3241.5 3180.41 508.346 2672.07
internal_count=12052 11829 1903 9926
is_linear=0
shrinkage=0.03


Tree=83
num_leaves=7
num_cat=0
split_feature=22 17 37 3 1 36
split_gain=8.24088 14.1737 12.4344 9.63848 8.70656 4.26027
threshold=24.73553516410027 0.0012161303408895544 0.12940952255126045 0.59999991000003172 0.0030183502850116479 0.024649508195787487
decision_type=2 2 2 2 2 2
left_child=1 3 -2 -1 -3 -4
right_child=2 4 5 -5 -6 -7
leaf_value=0.0015059320479516082 -0.001792543970636416 0.0033305950685872387 0.018539238104476399 -0.0044291934770673237 -0.008699416481775744 0.0065849045957756562
leaf_weight=2454.1480832397938 94.289846405386925 67.171634942293167 57.232461407780647 270.8010275810957 232.21441511809826 65.491373583674431
leaf_count=9109 351 249 207 1018 877 241
internal_value=0.000633081 0.000220847 0.00625507 0.000907792 -0.00594635 0.012488
internal_weight=3241.35 3024.34 217.014 2724.95 299.386 122.724
internal_count=12052 11253 799 10127 1126 448
is_linear=0
shrinkage=0.03


Tree=84
num_leaves=7
num_cat=0
split_feature=22 40 3 8 12 9
split_gain=7.77203 13.9418 9.53333 9.07027 4.57225 4.50961
threshold=24.73553516410027 0.85880657488557299 0.59999991000003172 0.01494122157584621 68.996712621796632 0.028685249072423872
decision_type=2 2 2 2 2 2
left_child=1 2 -1 -3 -2 -6
right_child=4 3 -4 -5 5 -7
leaf_value=0.0014653459708563032 0.01234129659934839 -0.0019285252963119396 -0.0044162967745815414 -0.013236238174525983 -0.0026925066129575665 0.0076293594489804158
leaf_weight=2470.3724711686373 70.083890706300735 179.82356226444244 272.79474645853043 101.22478729486465 66.851580440998077 80.054986298084259
leaf_count=9170 256 672 1026 385 249 294
internal_value=0.000614392 0.000213913 0.000872189 -0.00611895 0.00607448 0.00285846
internal_weight=3241.21 3024.22 2743.17 281.048 216.99 146.907
internal_count=12052 11253 10196 1057 799 543
is_linear=0
shrinkage=0.03


Tree=85
num_leaves=7
num_cat=0
split_feature=20 37 26 37 37 26
split_gain=12.2269 21.7416 12.7725 12.2272 11.8088 8.19122
threshold=-0.0040810526791546838 -0.5 0.72037773636320745 -0.60355339059327362 -1.0000000180025095e-35 0.91172528295235022
decision_type=2 2 2 2 2 2
left_child=1 -1 4 -4 -2 -3
right_child=2 5 3 -5 -6 -7
leaf_value=0.0065701136304172477 -0.0024769617583500735 -0.013862321660495095 0.011196163758897331 0.0021997457214113429 0.0019153546627960812 -0.0016086537767684356
leaf_weight=99.596753716468811 1006.4339906424284 157.69262067973614 182.42402416467667 548.1029882133007 1211.5823369473219 75.965261176228523
leaf_count=368 3756 603 667 2030 4498 284
internal_value=0.000435438 -0.00498614 0.00105625 0.0044912 -7.13562e-05 -0.00998961
internal_weight=3281.8 333.255 2948.54 730.527 2218.02 233.658
internal_count=12206 1255 10951 2697 8254 887
is_linear=0
shrinkage=0.03


Tree=86
num_leaves=7
num_cat=0
split_feature=28 1 27 35 27 16
split_gain=10.9458 11.0712 13.6075 9.94377 6.51607 3.90786
threshold=0.13377749055635776 0.0019922523758189536 -0.021427660932285299 0.0079772082621429093 -0.0090859672419180883 27.694888675126972
decision_type=2 2 2 2 2 2
left_child=4 3 -3 -2 5 -1
right_child=1 2 -4 -5 -6 -7
leaf_value=0.013236950957393733 0.0015222482285025794 -0.0022850997868952973 0.0023971355922649084 -0.0070653059347219847 -0.0012185936117633427 0.005040942369718698
leaf_weight=84.942194923758507 181.1646860986948 874.32528705894947 1531.9667748659849 347.16704326868057 92.440103828907013 169.58692125976086
leaf_count=310 679 3270 5670 1303 348 626
internal_value=0.000422467 -0.000169758 0.000689134 -0.00409772 0.00544668 0.00791649
internal_weight=3281.59 2934.62 2406.29 528.332 346.969 254.529
internal_count=12206 10922 8940 1982 1284 936
is_linear=0
shrinkage=0.03


Tree=87
num_leaves=7
num_cat=0
split_feature=20 38 38 9 1 16
split_gain=11.3193 13.001 30.9703 10.998 10.1372 14.1218
threshold=-0.0040810526791546838 0.91597561503675351 0.78656609248549303 0.0044982328886969966 0.0069938503351147712 27.421201870929917
decision_type=2 2 2 2 2 2
left_child=4 2 -2 -3 5 -1
right_child=1 3 -4 -5 -6 -7
leaf_value=-0.0038391713307588471 0.0013333109580031554 0.010319594244843931 -0.009734252735192038 -0.00026609907756950036 0.0055370172815368901 -0.021166681736163991
leaf_weight=215.55532136559486 2331.8889849334955 227.3404488414526 250.06259745359421 139.09685957431793 65.297145932912827 52.255912616848946
leaf_count=811 8656 834 943 518 242 202
internal_value=0.000410017 0.00100743 0.000248905 0.006281 -0.00480747 -0.00740759
internal_weight=3281.5 2948.39 2581.95 366.437 333.108 267.811
internal_count=12206 10951 9599 1352 1255 1013
is_linear=0
shrinkage=0.03


Tree=88
num_leaves=8
num_cat=0
split_feature=20 22 8 40 15 22 21
split_gain=10.6659 14.0992 12.2702 10.8934 9.76709 8.40852 7.29586
threshold=-0.0040810526791546838 -6.9085332575256517 -0.024958359662850312 0.15724538397745605 20.455379865683174 24.73553516410027 38.90809145055082
decision_type=2 2 2 2 2 2 2
left_child=2 3 6 -2 -4 -3 -1
right_child=1 5 4 -5 -6 -7 -8
leaf_value=0.010395159193735733 -0.00073673311823913251 -0.00086342891072318454 -0.0036705011591725923 0.0069337358532543854 -0.017393504218137536 0.0053287906951896271 -0.0035586685085554366
leaf_weight=56.138407081365585 239.50388750433922 1972.648031771183 120.38928511738777 519.13303393125534 79.88641931116581 217.05205762386322 76.602444723248482
leaf_count=206 890 7350 452 1911 307 800 290
internal_value=0.000397126 0.000977105 -0.00466808 0.00449686 -0.00933637 -0.000238484 0.00229803
internal_weight=3281.35 2948.34 333.017 758.637 200.276 2189.7 132.741
internal_count=12206 10951 1255 2801 759 8150 496
is_linear=0
shrinkage=0.03


Tree=89
num_leaves=8
num_cat=0
split_feature=28 37 16 20 37 40 40
split_gain=10.2951 12.2031 10.9644 9.19763 16.9672 11.7015 8.19621
threshold=0.13377749055635776 -0.37940952255126059 38.852192088445264 -0.0040810526791546838 -0.5 0.054474707959241787 0.40775968319714778
decision_type=2 2 2 2 2 2 2
left_child=1 2 -1 4 -2 -5 -3
right_child=3 6 -4 5 -6 -7 -8
leaf_value=0.0076558808562119541 0.0054801726770826696 0.0039470921008809418 -0.0095588057098549613 0.012208630675653059 -0.0096564477980731374 3.8655410657983321e-05 0.015912882445246732
leaf_weight=57.263753443956375 92.909601598978043 117.14698638021946 73.123883172869682 71.224621787667274 216.95407621562481 2553.1201023161411 99.412145406007767
leaf_count=211 344 435 276 260 825 9493 362
internal_value=0.000384755 0.00525772 -0.0018837 -0.000189515 -0.00506374 0.000383705 0.00960401
internal_weight=3281.16 346.947 130.388 2934.21 309.864 2624.34 216.559
internal_count=12206 1284 487 10922 1169 9753 797
is_linear=0
shrinkage=0.03


Tree=90
num_leaves=6
num_cat=0
split_feature=40 1 33 24 35
split_gain=7.11531 12.6817 8.66437 13.7 10.4779
threshold=0.063891637540351251 0.0032440004458551964 0.0045662100439246038 0.87946135777107781 0.02297761289348851
decision_type=2 2 2 2 2
left_child=1 -1 3 -2 -4
right_child=2 -3 4 -5 -6
leaf_value=0.013750169984135498 0.0012656451260268876 -0.0014632320799116869 0.0018678490552519916 -0.0064725112962942533 -0.003281062746150754
leaf_weight=92.150378167629242 392.91489215195179 99.532915353775024 1829.4955056160688 423.38446490466595 438.00949983298779
leaf_count=336 1462 372 6775 1594 1647
internal_value=0.000260807 0.00583952 -8.46539e-05 -0.00273553 0.00086462
internal_weight=3275.49 191.683 3083.8 816.299 2267.51
internal_count=12186 708 11478 3056 8422
is_linear=0
shrinkage=0.03


Tree=91
num_leaves=7
num_cat=0
split_feature=40 27 40 35 18 26
split_gain=6.69993 8.53991 12.3435 10.3638 7.5236 4.88373
threshold=0.063891637540351251 -0.0092619075204063896 0.28225806280892313 0.0083443287243922352 -0.0032388568410586789 0.77987517151959951
decision_type=2 2 2 2 2 2
left_child=4 3 -3 -2 -1 -6
right_child=1 2 -4 -5 5 -7
leaf_value=-0.0010885446560751379 0.0079045090786625995 0.0023655183177529251 -0.0076285631936051307 8.6754891827030685e-05 0.0037996025796782893 0.01694195412409966
leaf_weight=81.359531193971634 161.04460813105106 175.7466121762991 289.14095525443554 2457.6952119320631 54.92233718931675 55.362980052828789
leaf_count=304 592 653 1097 9136 203 201
internal_value=0.000252965 -8.21052e-05 -0.00382431 0.000578912 0.00566699 0.0107149
internal_weight=3275.27 3083.63 464.888 2618.74 191.645 110.285
internal_count=12186 11478 1750 9728 708 404
is_linear=0
shrinkage=0.03


Tree=92
num_leaves=5
num_cat=0
split_feature=13 27 14 35
split_gain=6.25793 6.31439 10.5109 10.0357
threshold=24.169116441226709 -0.0092619075204063896 55.997945104944826 0.010082082745887571
decision_type=2 2 2 2
left_child=1 3 -3 -1
right_child=-2 2 -4 -5
leaf_value=0.0053415222892758477 -0.008973845781567567 1.3156892232795672e-06 -0.0097392056023412089 0.00023310325466168822
leaf_weight=406.55264849960804 62.799132436513901 354.30568574368954 135.10289280116558 2316.3335347473621
leaf_count=1499 237 1325 514 8611
internal_value=0.000246072 0.000436456 -0.00268576 0.0010047
internal_weight=3275.09 3212.29 489.409 2722.89
internal_count=12186 11949 1839 10110
is_linear=0
shrinkage=0.03


Tree=93
num_leaves=8
num_cat=0
split_feature=30 9 21 24 21 30 27
split_gain=8.07151 9.4824 9.10148 15.2418 12.2477 8.89402 8.06704
threshold=0.7857142295918621 -0.010011629696426437 47.189550159408078 0.98587355897020024 34.647223415859123 0.83333330952381257 -0.015101139228436826
decision_type=2 2 2 2 2 2 2
left_child=2 6 4 -4 -1 -3 -2
right_child=1 5 3 -5 -6 -7 -8
leaf_value=0.00072831873610739188 -0.00036777973048748961 -0.011761890551773825 -0.015264100537506937 0.0037999260341474747 0.0071340598219475212 -0.0023373745772176067 0.012686939184424095
leaf_weight=1926.3126007765532 134.40365052223206 106.52445510029793 75.508097916841507 70.448080837726593 311.8969399034977 590.949791431427 58.927385255694389
leaf_count=7150 504 404 290 262 1149 2212 215
internal_value=0.000238455 -0.00218926 0.00115289 -0.00603418 0.00163323 -0.00382773 0.00362367
internal_weight=3274.97 890.805 2384.17 145.956 2238.21 697.474 193.331
internal_count=12186 3335 8851 552 8299 2616 719
is_linear=0
shrinkage=0.03


Tree=94
num_leaves=8
num_cat=0
split_feature=30 22 21 13 17 21 20
split_gain=7.59876 8.61702 14.8203 6.69428 6.36379 5.54014 1.86413
threshold=0.7857142295918621 25.347248721494768 47.189550159408078 17.467467715640968 -0.00033745852552132525 36.023178016914052 -0.00067731614917470261
decision_type=2 2 2 2 2 2 2
left_child=1 2 -1 4 -2 -3 -5
right_child=3 5 -4 6 -6 -7 -8
leaf_value=0.0012076374525070985 0.002679840856555352 0.0004173574433759709 -0.010158718802901123 -0.0044611237766055637 -0.0030364627089677831 0.012844329069011968 -0.013188020833389588
leaf_weight=2135.5258650034666 258.28862498700619 54.747904673218727 106.32054315507412 53.385049268603325 525.70732919871807 87.458637908101082 53.323042258620262
leaf_count=7923 960 203 406 201 1971 319 203
internal_value=0.000231072 0.00111845 0.000653324 -0.00212446 -0.00113211 0.00823624 -0.00912242
internal_weight=3274.76 2384.05 2241.85 890.704 783.996 142.207 106.708
internal_count=12186 8851 8329 3335 2931 522 404
is_linear=0
shrinkage=0.03


Tree=95
num_leaves=8
num_cat=0
split_feature=27 35 28 35 35 20 19
split_gain=7.42481 21.5471 8.98195 8.6333 15.6393 10.083 7.75799
threshold=-0.01033213862168693 0.010521498320817906 3.4859481028078378 0.009379509376689665 0.011370515086167956 -0.00093345153690525373 -0.0013145515073077888
decision_type=2 2 2 2 2 2 2
left_child=1 6 -3 5 -5 -2 -1
right_child=3 2 -4 4 -6 -7 -8
leaf_value=0.01230018537719936 -0.014070488200648738 -0.0010467228168484059 0.0098413296990497237 0.0076613165730780456 -0.0082113097600676529 -0.0030505316490915839 0.0033840355231744817
leaf_weight=151.79455715417862 96.344726637005806 2105.2554494291544 68.290609627962112 143.75142426788807 88.153991520404816 344.25110629200935 225.23425035178661
leaf_count=554 365 7843 250 529 331 1300 833
internal_value=-0.000279662 0.000455113 -0.000689004 -0.00308175 0.00154492 -0.00554684 0.00705928
internal_weight=3223.08 2550.57 2173.55 672.501 231.905 440.596 377.029
internal_count=12005 9480 8093 2525 860 1665 1387
is_linear=0
shrinkage=0.03


Tree=96
num_leaves=6
num_cat=0
split_feature=21 37 33 15 35
split_gain=10.2146 11.4838 9.98489 11.166 9.78198
threshold=50.779809527870611 0.37940952255126054 0.0030035041707260806 21.92982456140253 0.011305321490248051
decision_type=2 2 2 2 2
left_child=2 -2 3 -1 -4
right_child=1 -3 4 -5 -6
leaf_value=0.0049205254764640239 0.00030592026279656169 -0.018322851018172326 0.0033312955142899719 -0.0085198951473936697 -0.00053526107600961948
leaf_weight=71.036424979567528 57.051792725920677 56.833965763449669 832.82606163620949 221.80573365092278 1983.3658522665501
leaf_count=263 215 220 3087 841 7379
internal_value=-0.000271015 -0.00901699 5.01246e-05 -0.00519744 0.000604417
internal_weight=3222.92 113.886 3109.03 292.842 2816.19
internal_count=12005 435 11570 1104 10466
is_linear=0
shrinkage=0.03


Tree=97
num_leaves=6
num_cat=0
split_feature=21 37 27 25 6
split_gain=9.63073 10.8609 9.06115 9.25799 8.78225
threshold=50.779809527870611 0.37940952255126054 -0.01033213862168693 2.2809828916713735 -0.00026263964047856797
decision_type=2 2 2 2 2
left_child=2 -2 3 -1 -4
right_child=1 -3 4 -5 -6
leaf_value=0.00059596610264154085 0.00029704683916418945 -0.017819407466147113 0.0002988204385139111 0.012306587854357514 -0.0065171206903489884
leaf_weight=2377.8438391685486 57.053091943264008 56.744344100356102 341.82939048111439 60.568840265274048 328.71491359174252
leaf_count=8831 215 220 1275 221 1243
internal_value=-0.00026312 -0.00875881 4.84576e-05 0.000902845 -0.00302964
internal_weight=3222.75 113.797 3108.96 2438.41 670.544
internal_count=12005 435 11570 9052 2518
is_linear=0
shrinkage=0.03


Tree=98
num_leaves=7
num_cat=0
split_feature=23 24 35 25 21 21
split_gain=9.28223 16.1274 10.5158 13.6 8.8082 7.64727
threshold=0.0022151446611448256 0.87946135777107781 0.01082497230727459 0.75680106653168744 50.779809527870611 19.945729935432443
decision_type=2 2 2 2 2 2
left_child=1 -1 3 -2 -4 -3
right_child=2 5 4 -5 -6 -7
leaf_value=0.0035747763040827607 -0.0013422811722742563 -0.016294898947616036 -0.00035856432128972406 0.0069661575330455328 -0.0093202250134260013 -0.0025008570314191767
leaf_weight=102.855225071311 306.47461903095245 103.75121201574802 2138.3337741941214 408.7609041929245 101.81584045290947 60.512513220310211
leaf_count=385 1143 401 7953 1506 390 227
internal_value=-0.000255039 -0.00559123 0.000225649 0.00339131 -0.000780516 -0.0113948
internal_weight=3222.5 267.119 2955.39 715.236 2240.15 164.264
internal_count=12005 1013 10992 2649 8343 628
is_linear=0
shrinkage=0.03


Tree=99
num_leaves=8
num_cat=0
split_feature=23 40 20 38 40 9 21
split_gain=8.74761 10.0755 14.3053 11.2981 8.89229 8.48674 5.78334
threshold=0.0022151446611448256 0.33446050038269692 -0.00091213330668793923 0.37940952255126048 0.94793093230597181 0.0088875589157323426 33.932591209064675
decision_type=2 2 2 2 2 2 2
left_child=1 2 -1 -3 5 -2 -6
right_child=4 3 -4 -5 6 -7 -8
leaf_value=-0.012291812505119492 -0.00045519848951213783 -0.0024552455789156819 0.0067584201249116715 -0.021270192558103737 -0.015025521145433934 0.0032015323384366914 -0.0011492847213589264
leaf_weight=53.908364936709404 2057.1734233349562 60.893077149987221 94.97738941013813 57.204831063747406 52.928455278277397 786.20109111070633 58.978381738066673
leaf_count=204 7658 231 354 224 201 2913 220
internal_value=-0.000248059 -0.00542976 -0.00011135 -0.0118963 0.000218345 0.000552166 -0.00799259
internal_weight=3222.27 266.984 148.886 118.098 2955.28 2843.37 111.907
internal_count=12005 1013 558 455 10992 10571 421
is_linear=0
shrinkage=0.03


Tree=100
num_leaves=6
num_cat=0
split_feature=13 8 35 27 1
split_gain=11.2445 9.8356 8.04365 7.55277 5.25457
threshold=19.195907246262838 -0.024958359662850312 0.018093023685843476 -0.040584970749402156 0.0052720604006050017
decision_type=2 2 2 2 2
left_child=1 3 -3 -1 -2
right_child=4 2 -4 -5 -6
leaf_value=-0.00016573511758738912 -0.012200149727043195 0.00097345122342084949 -0.0025858817329227754 0.013747388390744518 -0.00049864580708560422
leaf_weight=55.927738204598427 94.156933456659317 2177.3440334200859 772.33341908454895 83.541061952710152 58.47710058093071
leaf_count=211 358 8089 2889 306 218
internal_value=1.14775e-05 0.000411018 3.52852e-05 0.00813865 -0.00787851
internal_weight=3241.78 3089.15 2949.68 139.469 152.634
internal_count=12071 11495 10978 517 576
is_linear=0
shrinkage=0.03


Tree=101
num_leaves=8
num_cat=0
split_feature=37 26 23 37 6 10 36
split_gain=8.95546 29.0888 28.1116 16.4191 10.8572 8.40121 6.94217
threshold=-0.60355339059327362 0.62708739046179274 0.003803958094442486 -0.5 0.0088903002716911334 43.555624807736237 -0.0163761045531951
decision_type=2 2 2 2 2 2 2
left_child=1 2 -1 5 -5 -2 -3
right_child=3 6 -4 4 -6 -7 -8
leaf_value=-0.0095268153187874488 -0.019026636810950456 0.002623619798474842 0.0036542185937611391 -0.0010237785438864562 0.0064756386305230181 -0.0036239219388337629 0.012183546496948611
leaf_weight=236.59796127676964 62.642812639474869 102.96693152189255 370.18735620379448 1968.5023330152035 188.31773599982262 70.980728849768639 241.49928642809391
leaf_count=894 239 382 1369 7345 693 266 883
internal_value=1.07015e-05 0.00245901 -0.00147511 -0.00100083 -0.000356643 -0.0111294 0.00940085
internal_weight=3241.7 951.252 606.785 2290.44 2156.82 133.624 344.466
internal_count=12071 3528 2263 8543 8038 505 1265
is_linear=0
shrinkage=0.03


Tree=102
num_leaves=6
num_cat=0
split_feature=8 38 20 11 8
split_gain=9.64252 11.1264 9.86638 12.338 11.3536
threshold=-0.024958359662850312 -0.60355339059327384 -0.0045973889998216257 29.7474769082528 -0.010823829102636238
decision_type=2 2 2 2 2
left_child=1 -1 3 -2 -4
right_child=2 -3 4 -5 -6
leaf_value=-0.0015569775835194855 0.0026321893862835712 0.015049410674885036 0.005106611417452638 -0.0149081312031254 -0.00064083676326082432
leaf_weight=62.950180798768997 57.409247741103172 78.285115882754326 348.90756870806217 87.628636598587036 2606.3383495807648
leaf_count=237 214 287 1287 337 9709
internal_value=1.00903e-05 0.00762464 -0.000336652 -0.0079219 3.56512e-05
internal_weight=3241.52 141.235 3100.28 145.038 2955.25
internal_count=12071 524 11547 551 10996
is_linear=0
shrinkage=0.03


Tree=103
num_leaves=6
num_cat=0
split_feature=8 38 20 11 8
split_gain=9.07826 10.4908 9.29452 11.6505 10.6879
threshold=-0.024958359662850312 -0.60355339059327384 -0.0045973889998216257 29.7474769082528 -0.010823829102636238
decision_type=2 2 2 2 2
left_child=1 -1 3 -2 -4
right_child=2 -3 4 -5 -6
leaf_value=-0.0015117957560076421 0.0025556548070449349 0.014607543306003997 0.0049552645488478708 -0.014486798964117961 -0.00062162805752606111
leaf_weight=62.946411594748497 57.414446294307709 78.293927282094955 348.83933226764202 87.531543746590614 2606.3313329070807
leaf_count=237 214 287 1287 337 9709
internal_value=9.74867e-06 0.00739813 -0.000326581 -0.00769114 3.45228e-05
internal_weight=3241.36 141.24 3100.12 144.946 2955.17
internal_count=12071 524 11547 551 10996
is_linear=0
shrinkage=0.03


Tree=104
num_leaves=6
num_cat=0
split_feature=13 37 16 37 7
split_gain=10.448 10.2632 28.3581 14.3322 3.8716
threshold=19.195907246262838 -0.60355339059327362 43.049552906109703 -0.5 0.0052550580007226797
decision_type=2 2 2 2 2
left_child=1 2 -1 -3 -2
right_child=4 3 -4 -5 -6
leaf_value=0.0092524648782351046 -0.011271686266570977 -0.010384904971383665 -0.0014240894061117134 -9.9072875474808835e-05 -0.0010907720655548459
leaf_weight=383.94180668890476 95.093330889940262 127.86576549708843 527.64818236231804 2049.1754355728626 57.452758297324181
leaf_count=1412 362 483 1966 7634 214
internal_value=9.41428e-06 0.000394673 0.00306663 -0.000719059 -0.00759809
internal_weight=3241.18 3088.63 911.59 2177.04 152.546
internal_count=12071 11495 3378 8117 576
is_linear=0
shrinkage=0.03


Tree=105
num_leaves=7
num_cat=0
split_feature=40 33 24 36 40 35
split_gain=11.7963 14.659 15.3968 11.6654 11.9306 9.80156
threshold=0.26853035803852948 0.0045397048701814203 0.81654449199855361 0.0083995514306415293 0.15724538397745605 0.023437499993869185
decision_type=2 2 2 2 2 2
left_child=3 2 -2 4 -1 -3
right_child=1 5 -4 -5 -6 -7
leaf_value=0.0008354204198922886 0.0030485043549197083 0.0012579360434063411 -0.008448028243202085 -0.0095953794102586892 0.0080849172081068534 -0.0043633170382977628
leaf_weight=512.60459198057652 138.20037034153938 1429.4796936511993 401.58156125247478 60.564930990338326 344.29311645030975 344.57787592709064
leaf_count=1908 514 5301 1521 228 1267 1297
internal_value=-1.05954e-05 -0.00115664 -0.0054765 0.00285964 0.00377771 0.000153982
internal_weight=3231.3 2313.84 539.782 917.463 856.898 1774.06
internal_count=12036 8633 2035 3403 3175 6598
is_linear=0
shrinkage=0.03


Tree=106
num_leaves=5
num_cat=0
split_feature=25 15 21 16
split_gain=6.67082 6.33114 12.3486 6.45844
threshold=2.1428328496266063 7.3441089365691177 24.501201860494312 31.035267711289773
decision_type=2 2 2 2
left_child=1 2 -1 -3
right_child=-2 3 -4 -5
leaf_value=0.0018553359557110722 0.0076293135479117719 0.002141183685023299 -0.017214254588875079 -0.00089261824319086228
leaf_weight=62.88709582388401 97.577620536088943 897.31923677027225 54.681046605110168 2118.5975769907236
leaf_count=233 359 3336 209 7899
internal_value=-1.01768e-05 -0.000257571 -0.00702808 5.87279e-06
internal_weight=3231.06 3133.48 117.568 3015.92
internal_count=12036 11677 442 11235
is_linear=0
shrinkage=0.03


Tree=107
num_leaves=7
num_cat=0
split_feature=40 17 40 27 17 40
split_gain=11.07 12.911 12.6987 11.4262 13.5636 12.1424
threshold=0.26853035803852948 0.00038827930100894021 0.15724538397745605 -0.0097323143258889275 0.00042777391491438297 0.3118291488972606
decision_type=2 2 2 2 2 2
left_child=1 2 -1 5 -5 -2
right_child=3 -3 -4 4 -6 -7
leaf_value=0.00087828980293312611 -0.0097947013655678775 -0.0086597921272685546 0.0084711165543376286 -0.0086711791286460792 0.0068636931783418158 0.00036165057750476502
