tree
version=v4
num_class=1
num_tree_per_iteration=1
label_index=0
max_feature_idx=40
objective=binary sigmoid:1
feature_names=body_pct range_pct upper_wick_ratio lower_wick_ratio ret_1 ret_3 ret_6 ret_12 ret_24 ret_36 rsi_3 rsi_9 rsi_14 rsi_9_delta cci stoch_k stoch_d macd_hist price_vs_ema8 price_vs_ema21 ema_spread adx di_diff atr_pct atr_ratio range_vs_atr bb_pos bb_width vol_ratio vol_ratio_3 buy_pressure obv_slope ret_15m range_15m_pct ret_1h range_1h_pct ret_4h hour_sin hour_cos is_us_session pos_in_day_range
feature_infos=[-0.014451658616014612:0.037508443893923611] [1.289154855747036e-06:0.038101096407149412] [0:0.99999999999747469] [0:0.99999999999795075] [-0.014244459368703777:0.03897015371820034] [-0.0203332102570285:0.039894207402560999] [-0.022658529605474875:0.042657935544521131] [-0.02469569235708835:0.038047740810608355] [-0.026487136738036599:0.046134360394320062] [-0.031281907662506492:0.049612561880474138] [0.15396838824218326:99.931686344302889] [5.0850070658781039:93.920110187306065] [9.4216404974349306:89.595253890840681] [-62.198263342222589:45.221005619200461] [-455.99907091602989:461.6848039255525] [-4.5504341035969753e-13:99.701017249003257] [1.8014344330129444:99.129087105534737] [-349.00847945314331:581.85376752962372] [-0.014090362045369479:0.031052594189054632] [-0.018728810791681962:0.037299598775405347] [-0.0072166798277416462:0.012074120637869161] [6.0222979329113739:68.725614736385793] [-54.62422439985825:66.09902504450092] [0.00033997971685511039:0.006045688052702676] [0.58203523318781225:2.0850599017889477] [0.0024389829758732513:8.5223248453141185] [-0.55382007418492663:1.5036593704678023] [-0.066815070513870686:-0.00058122409768327399] [0.10570378068850679:9.4523207447304376] [0.14001401492918805:3.8336228275782669] [0:0.9999999999998378] [-5.074971467727651:10.001550599930496] [-0.0203332102570285:0.039894207402560999] [0.00020547970794484153:0.042066192826995918] [-0.02469569235708835:0.038047740810608355] [0.00088035715885204004:0.045719608518674362] [-0.033804049078860032:0.061553027540067307] [-1:1] [-1:1] [0:1] [0:0.99999999999994971]
tree_sizes=1001 1006 1001 897 1008 1009 1008 1004 902 1009 1003 1010 1005 1007 1009 1009 1001 1015 1002 909 1008 902 1010 1009 1011 1018 1010 905 1005 1003 1018 1023 1014 902 1024 1020 1017 1018 900 1015 1011 917 1014 997 1022 1018 903 902 906 903 1014 696 1004 1019 1014 905 904 911 907 692 1014 1015 1009 892 1014 1016 1020 1016 1010 1016 1013 1010 1018 1019 1024 1019 1029 1018 1025 796 786 698 698 914 697 909 1017 694 688 909 1020 906 912 1030 1021 690 690 903 692 691 913 1006 1009 1021 1025 592 912 702 893 1015 904 1011 912 800 905 801 801 910 1029 698 702 1022 804 696 1025 911 1028 906 912 693 800 1012 588 804 1021 918 1015 908 1032 927 911 923 915 813 1015 909 692 587 695 587 902 699 804 906 817 909 907 910 702 914 696 692 692 588 801 1028 893 1020 1031 703 921 807 819 1017 996 1027 1029 890 1029 1028 1013 1013 811 1023 915 699 703 593 592 589 696 907 1008 1019 703 1022 888 799 897 1034 1028 1021 919 910 914 699 1013 702 1021 1010 902 921 1024 760 1029 1024 807 1031 809 707 697 912 916 911 806 908 1010 910 1017 1024 1027 705 708 707 708 798 897 690 1019 690 707 700 702 594 594 916 810 1020 921 915 794 802 907 803 681 916 906 701 1006 879 911 695 799 695 680 703 703 912 700 919 812 805 914 1025 810 806 809 698 701 705 812 701 805 703 806 1013 906 803 920 923 804 1006 1013 801 1019 698 1026 1019 702 993

Tree=0
num_leaves=8
num_cat=0
split_feature=23 18 23 22 22 27 23
split_gain=85.9855 53.6225 42.8084 38.5096 29.2362 16.8784 14.3875
threshold=0.00098180619831165724 -0.00089155447616532464 0.0019860699598523968 5.0535270874741327 -9.0625767077069597 -0.0020510200062249079 0.00081970402047384439
decision_type=2 2 2 2 2 2 2
left_child=3 4 -3 5 -2 -1 -5
right_child=1 2 -4 6 -6 -7 -8
leaf_value=-0.39289372383358512 -0.3774048128053511 -0.395119714499792 -0.3852155020090422 -0.4151823570312782 -0.39186531386994833 -0.4054146116098919 -0.40163963647319245
leaf_weight=339.79118347167969 386.92118954658508 1578.5073480606079 532.94767045974731 187.30941891670227 202.41004824638367 131.86754584312439 109.18796300888062
leaf_count=1181 1278 5527 1807 698 701 477 390
internal_value=-0.392845 -0.390326 -0.392596 -0.401737 -0.382285 -0.396413 -0.410156
internal_weight=3468.94 2700.79 2111.46 768.156 589.331 471.659 296.497
internal_count=12059 9313 7334 2746 1979 1658 1088
is_linear=0
shrinkage=1


Tree=1
num_leaves=8
num_cat=0
split_feature=8 35 10 21 31 18 40
split_gain=99.2087 53.5432 28.0131 23.7413 19.6999 19.5609 17.0717
threshold=-0.0019783200574509103 0.0022478764209957806 33.715142825777043 20.987625742150744 -0.010012424331374484 -0.00094877158889836134 0.65349500030628616
decision_type=2 2 2 2 2 2 2
left_child=3 2 -2 6 -3 -5 -1
right_child=1 4 -4 5 -6 -7 -8
leaf_value=0.032099327892447287 0.011409872756552279 0.015487096239903365 -0.0096162467126990423 0.022733549439607592 0.0084421280767744619 0.012549061892412656 0.015943812728411878
leaf_weight=194.87842760980129 76.221469968557358 468.44353920221329 205.85343126952648 288.3091409355402 1673.2418428957462 469.73951004445553 100.46382051706314
leaf_count=630 265 1604 766 960 5867 1624 343
internal_value=0.0117472 0.00838382 -0.0038415 0.0194411 0.0100031 0.0164919 0.0267985
internal_weight=3477.15 2423.76 282.075 1053.39 2141.69 758.049 295.342
internal_count=12059 8502 1031 3557 7471 2584 973
is_linear=0
shrinkage=0.03


Tree=2
num_leaves=8
num_cat=0
split_feature=8 23 22 21 23 12 40
split_gain=92.7395 56.8056 24.3458 22.0902 21.9074 21.4428 15.9665
threshold=-0.0019783200574509103 0.0010244272074717579 5.0535270874741327 20.987625742150744 0.0019605675145193398 32.38568538881362 0.70154032375688213
decision_type=2 2 2 2 2 2 2
left_child=3 2 -2 6 -3 -5 -1
right_child=1 4 -4 5 -6 -7 -8
leaf_value=0.029970198646188183 0.0060326313024061202 0.0090465348663294094 -0.0048375277735940338 0.025715716883013346 0.016870632522705233 0.013189129971478374 0.01296607974055348
leaf_weight=222.46269004046917 416.46151225268841 1229.2047587782145 330.08877170085907 162.78714516758919 451.87675799429417 597.57932797074318 74.336468487977982
leaf_count=718 1470 4289 1210 533 1533 2051 255
internal_value=0.0113717 0.00811986 0.00120625 0.0187955 0.0111761 0.0159511 0.0258768
internal_weight=3484.8 2427.63 746.55 1057.17 1681.08 760.366 296.799
internal_count=12059 8502 2680 3557 5822 2584 973
is_linear=0
shrinkage=0.03


Tree=3
num_leaves=7
num_cat=0
split_feature=23 12 12 23 23 21
split_gain=72.3191 47.6397 32.8021 29.1157 27.1381 12.3659
threshold=0.00098180619831165724 56.176150103472331 39.393618328262157 0.0028336781460420162 0.0019605675145193398 27.95197420992028
decision_type=2 2 2 2 2 2
left_child=2 3 -1 -2 -3 -4
right_child=1 4 5 -5 -6 -7
leaf_value=0.019183722250458897 0.015005794937763228 0.0033820563540309613 0.0025979456041547114 0.031843643473923378 0.015057532260048197 -0.0073347955741213215
leaf_weight=94.919320315122604 1799.8121949732304 555.70549219846725 534.4613199532032 99.287774801254272 267.10485403239727 140.60581438243389
leaf_count=318 6119 1970 1909 317 907 519
internal_value=0.0110101 0.0133067 0.00285884 0.0159266 0.00721772 0.000491403
internal_weight=3491.9 2721.91 769.986 1899.1 822.81 675.067
internal_count=12059 9313 2746 6436 2877 2428
is_linear=0
shrinkage=0.03


Tree=4
num_leaves=8
num_cat=0
split_feature=8 35 10 1 18 7 36
split_gain=82.9922 46.8451 26.0096 17.0757 16.5366 12.3161 12.0547
threshold=-0.0019783200574509103 0.0022478764209957806 33.715142825777043 0.0031562281202834486 -0.00094877158889836134 -0.00011729799113036064 -0.003255676637614557
decision_type=2 2 2 2 2 2 2
left_child=4 2 -2 -3 6 -6 -1
right_child=1 3 -4 -5 5 -7 -8
leaf_value=0.02634521243054452 0.010806410421079308 0.0083491657378233948 -0.009428539650268639 0.019131700850386308 0.01165346525234673 0.02075389208457316 0.014493931090608723
leaf_weight=269.38532142341137 76.503642067313194 2009.2759205251932 205.56337487697601 143.80427832901478 454.03005343675613 208.9713182747364 131.04505577683449
leaf_count=870 265 6991 766 480 1553 693 441
internal_value=0.0106608 0.00758603 -0.00385007 0.00909338 0.0176603 0.0145982 0.0225953
internal_weight=3498.58 2435.15 282.067 2153.08 1063.43 663.001 400.43
internal_count=12059 8502 1031 7471 3557 2246 1311
is_linear=0
shrinkage=0.03


Tree=5
num_leaves=8
num_cat=0
split_feature=17 27 10 38 27 37 5
split_gain=118.671 43.8217 37.9924 23.0195 20.0889 19.697 17.0077
threshold=-16.697670167045079 -0.003296600358860066 48.305730743922062 1.0000000180025095e-35 -0.0034753652282591085 0.37940952255126054 -0.0035329783123723697
decision_type=2 2 2 2 2 2 2
left_child=2 5 6 -3 -4 -2 -1
right_child=1 3 4 -5 -6 -7 -8
leaf_value=0.037784212647554202 0.011277931257825946 0.005441123909970258 0.0098106457998104538 -0.0063925040387581454 0.023234101642925123 0.0041609232247967944 0.020927893446413888
leaf_weight=64.259290441870689 1046.8180934786797 282.14560315012932 543.33074404299259 306.02588909864426 126.67793896794319 542.27978071570396 617.1322927325964
leaf_count=197 3589 996 1867 1121 419 1906 2034
internal_value=0.0106342 0.00627973 0.0176189 -0.0006913 0.0124325 0.00886696 0.0226454
internal_weight=3528.67 2177.27 1351.4 588.171 670.009 1589.1 681.392
internal_count=12129 7612 4517 2117 2286 5495 2231
is_linear=0
shrinkage=0.03


Tree=6
num_leaves=8
num_cat=0
split_feature=17 10 33 33 6 9 20
split_gain=111.14 35.4802 31.3934 21.291 15.394 12.243 12.2158
threshold=-16.697670167045079 48.305730743922062 0.0022519767915892357 0.0057840675082474202 0.0014083339519460616 -0.0047204776720307642 -0.00037209302400531216
decision_type=2 2 2 2 2 2 2
left_child=1 3 6 -1 -4 -3 -2
right_child=2 5 4 -5 -6 -7 -8
leaf_value=0.019921938925204882 -0.0081328998361791475 0.005625848898448838 0.012888237845561833 0.037800114455844608 0.0050962340750514779 0.014698523917743476 0.0035957854265739131
leaf_weight=613.03456997871399 83.644819483160973 200.39106041193008 625.3754039555788 70.668881103396416 377.31226336956024 471.01477201282978 1093.2461822628975
leaf_count=2016 304 695 2123 215 1317 1591 3868
internal_value=0.0102996 0.0170479 0.0060853 0.0218966 0.00998701 0.0120377 0.00273709
internal_weight=3534.69 1355.11 2179.58 683.703 1002.69 671.406 1176.89
internal_count=12129 4517 7612 2231 3440 2286 4172
is_linear=0
shrinkage=0.03


Tree=7
num_leaves=8
num_cat=0
split_feature=17 5 1 5 26 24 15
split_gain=104.138 28.3544 27.5825 13.2669 12.7617 12.5242 6.77842
threshold=-16.697670167045079 -0.00034795337019044576 0.00079306288958104194 -0.0035329783123723697 0.41338061036731344 1.101649030244138 71.462751351822178
decision_type=2 2 2 2 2 2 2
left_child=1 3 6 -1 -4 -3 -2
right_child=2 5 4 -5 -6 -7 -8
leaf_value=0.035079409375131786 0.0025872492649473776 0.011090141574511284 0.0056123261733731934 0.019906009616028054 0.011201918157076442 0.021295431103912778 -0.004235893527519078
leaf_weight=65.07775966823101 463.99550658464432 679.68362030386925 865.7224710136652 477.25160777568817 672.57202753424644 136.47055470943451 179.51328177750111
leaf_count=198 1647 2311 3019 1561 2293 447 653
internal_value=0.00997661 0.0164991 0.00589715 0.0218765 0.00807731 0.0128628 0.0006534
internal_weight=3540.29 1358.48 2181.8 542.329 1538.29 816.154 643.509
internal_count=12129 4517 7612 1759 5312 2758 2300
is_linear=0
shrinkage=0.03


Tree=8
num_leaves=7
num_cat=0
split_feature=9 33 38 8 30 26
split_gain=58.9458 34.9306 29.7386 26.8194 15.6804 11.2595
threshold=-0.0019550609499027201 0.0057840675082474202 0.25881904510252057 -0.0029811483454580952 0.16367928177732344 0.41338061036731344
decision_type=2 2 2 2 2 2
left_child=1 4 5 -4 -1 -2
right_child=2 -3 3 -5 -6 -7
leaf_value=0.020037747512535155 0.0072433643567665412 0.031630268503202615 0.020789879815471771 0.0014600188929271385 0.011342014148210689 0.012816205078797268
leaf_weight=256.00357937812805 771.0534391105175 105.52166344225407 67.851277783513069 908.11474333703518 826.31788532435894 610.58796466886997
leaf_count=836 2676 326 221 3211 2789 2070
internal_value=0.00966528 0.0151243 0.00689799 0.00285898 0.0134458 0.00973197
internal_weight=3545.45 1187.84 2357.61 975.966 1082.32 1381.64
internal_count=12129 3951 8178 3432 3625 4746
is_linear=0
shrinkage=0.03


Tree=9
num_leaves=8
num_cat=0
split_feature=22 35 37 12 31 22 16
split_gain=49.8374 40.1613 25.4996 21.6281 17.0089 15.8303 10.671
threshold=-2.4955396833423253 0.0028352330012622984 -0.60355339059327362 66.874775405381882 -0.0024106603816014837 1.4075623614820343 55.618041090374341
decision_type=2 2 2 2 2 2 2
left_child=2 5 6 -3 -4 -2 -1
right_child=1 3 4 -5 -6 -7 -8
leaf_value=0.022144008128358428 0.0074493613510431978 0.0097167207805395599 0.01400686360328667 -2.426240309093776e-05 0.0062845998359317501 -0.0061451518383497904 0.0090598309626234511
leaf_weight=341.28385606408119 103.27552019059658 1397.3018118739128 677.67134077847004 236.7753918915987 435.83057780563831 281.36741526424885 76.856825441122055
leaf_count=1106 359 4780 2256 838 1498 1031 261
internal_value=0.00936461 0.00624467 0.0134534 0.00829779 0.0110145 -0.00243662 0.0198293
internal_weight=3550.36 2018.72 1531.64 1634.08 1113.5 384.643 418.141
internal_count=12129 7008 5121 5618 3754 1390 1367
is_linear=0
shrinkage=0.03


Tree=10
num_leaves=8
num_cat=0
split_feature=17 10 21 35 6 35 29
split_gain=88.2532 42.3828 47.2176 30.34 23.763 19.0131 12.5972
threshold=-18.769785489681791 48.305730743922062 22.68197014726594 0.0027294272614768367 0.00039936855943401023 0.012864639457653969 0.49567492907695637
decision_type=2 2 2 2 2 2 2
left_child=1 2 -1 4 -2 -5 -3
right_child=3 6 -4 5 -6 -7 -8
leaf_value=0.032318416095803867 0.0032840811883593241 -0.0016037240827327509 0.015150584421612906 0.0066481119264057247 -0.011672473287064529 0.019595466619796897 0.011422031604642245
leaf_weight=218.2171448469162 311.67931678891182 72.735854685306549 460.73918935656548 1675.458368062973 135.20025873184204 108.96175557374954 579.75205400586128
leaf_count=675 1103 256 1512 5780 505 357 1954
internal_value=0.00938433 0.0154995 0.0207691 0.00571798 -0.00123935 0.00746816 0.00994661
internal_weight=3562.74 1331.44 678.956 2231.3 446.88 1784.42 652.488
internal_count=12142 4397 2187 7745 1608 6137 2210
is_linear=0
shrinkage=0.03


Tree=11
num_leaves=8
num_cat=0
split_feature=36 23 5 14 22 36 14
split_gain=75.9566 50.1475 29.1925 20.7476 17.9723 15.3497 7.28293
threshold=-0.0035514531908124587 0.001999151699208192 1.3505259223500767e-05 -75.155280698013584 -18.220282126752632 0.015924724881067779 -182.03730695877036
decision_type=2 2 2 2 2 2 2
left_child=3 2 -2 6 -5 -3 -1
right_child=1 5 -4 4 -6 -7 -8
leaf_value=0.011528956317799188 0.008064221722214257 0.018072254841250354 0.0010918198125141586 -0.0018753537302852662 0.014561978039244309 0.0045106538467467689 0.023597061941525169
leaf_weight=65.031329229474068 1073.353712439537 377.44348631799221 1099.3281047195196 66.681726321578026 450.34571003913879 99.587091967463493 335.24425779283047
leaf_count=213 3679 1238 3876 233 1495 343 1065
internal_value=0.00909326 0.00649956 0.00454749 0.0165386 0.0124141 0.015303 0.0217408
internal_weight=3567.02 2649.71 2172.68 917.303 517.027 477.031 400.276
internal_count=12142 9136 7555 3006 1728 1581 1278
is_linear=0
shrinkage=0.03


Tree=12
num_leaves=8
num_cat=0
split_feature=17 23 13 31 14 36 3
split_gain=79.9443 55.7923 29.1013 28.5584 21.7857 16.3592 10.6343
threshold=-18.769785489681791 0.001999151699208192 -4.8868989223245611 -0.0040183491992213114 -87.368012395590426 0.013692658921273472 0.46139895125223696
decision_type=2 2 2 2 2 2 2
left_child=2 3 6 -2 -4 -3 -1
right_child=1 5 4 -5 -6 -7 -8
leaf_value=0.02491780764470259 0.0082309632076012634 0.019192017107282921 0.021199047467106557 0.00029742659083777226 0.0096969703532670988 0.0061153194306009474 0.011032344025383134
leaf_weight=274.74308799207211 622.02033948898315 287.65611121058464 187.01684084534645 1194.2122680097818 802.23477202653885 131.59340976178646 71.596642851829529
leaf_count=864 2126 937 596 4232 2701 450 236
internal_value=0.00881217 0.00532434 0.0146221 0.00302881 0.0119249 0.0151717 0.0221702
internal_weight=3571.07 2235.48 1335.59 1816.23 989.252 419.25 346.34
internal_count=12142 7745 4397 6358 3297 1387 1100
is_linear=0
shrinkage=0.03


Tree=13
num_leaves=8
num_cat=0
split_feature=17 33 32 12 29 15 3
split_gain=75.0524 32.9805 26.4251 22.7393 18.6811 16.8392 10.8499
threshold=-18.769785489681791 0.0023710049771370253 -0.00065998765166241913 67.223313219380955 0.59977914963810675 13.109264621883819 0.22522586272593906
decision_type=2 2 2 2 2 2 2
left_child=2 5 6 -3 -4 -2 -1
right_child=1 3 4 -5 -6 -7 -8
leaf_value=0.025172403210449293 0.014622424947030491 0.011499738646922816 0.0033324362017366372 -0.00054459796311478949 0.013571565960302567 0.0010356016905043825 0.015222870626470939
leaf_weight=216.84093400835991 86.578510358929634 789.74131380021572 218.08405476808548 168.58816933631897 671.41876232624054 1192.1522472947836 231.20181313157082
leaf_count=677 289 2650 748 594 2223 4212 749
internal_value=0.00854171 0.00516235 0.0141664 0.00936857 0.0110911 0.00198863 0.020162
internal_weight=3574.61 2237.06 1337.55 958.329 889.503 1278.73 448.043
internal_count=12142 7745 4397 3244 2971 4501 1426
is_linear=0
shrinkage=0.03


Tree=14
num_leaves=8
num_cat=0
split_feature=17 23 10 5 22 9 17
split_gain=70.486 51.1316 35.2183 23.1843 16.9481 10.5591 10.2792
threshold=-18.769785489681791 0.001999151699208192 48.305730743922062 1.3505259223500767e-05 -11.388620676591811 0.00040053509474113907 -58.917233161624054
decision_type=2 2 2 2 2 2 2
left_child=2 3 4 -2 -1 -3 -4
right_child=1 5 6 -5 -6 -7 -8
leaf_value=0.015154466612177052 0.0060079536357657091 0.0030859007070335675 0.012552462306759321 -0.0007592428627320384 0.025745131759737881 0.016484793971139222 0.004897913481548017
leaf_weight=472.31369344890118 959.53916808962822 66.777556508779526 319.49504919350147 858.61524866521358 211.06403481960297 353.66979485750198 336.44910007715225
leaf_count=1527 3306 227 1060 3052 660 1160 1150
internal_value=0.00827963 0.00500484 0.0137264 0.00280661 0.0185129 0.0144169 0.00867589
internal_weight=3577.92 2238.6 1339.32 1818.15 683.378 420.447 655.944
internal_count=12142 7745 4397 6358 2187 1387 2210
is_linear=0
shrinkage=0.03


Tree=15
num_leaves=8
num_cat=0
split_feature=17 23 27 13 26 28 3
split_gain=76.3097 30.0837 23.4701 17.4592 13.7191 13.1705 9.20885
threshold=-12.994503939083286 0.0019605675145193398 -0.0073650964960105545 3.823059615773698 0.2056423801991282 0.33701296258825902 0.00058480032146045516
decision_type=2 2 2 2 2 2 2
left_child=3 2 -2 5 -3 -1 -5
right_child=1 4 -4 6 -6 -7 -8
leaf_value=0.0023128635959846918 -0.0071365807569721855 0.0030268573262034037 0.0032578087232082689 -6.9309265659617605e-05 0.014694819637977693 0.016804652424402322 0.010289456806776362
leaf_weight=64.523909971117973 223.36392703652382 141.12326297163963 1448.3033621460199 86.13120399415493 278.65351143479347 732.81175382435322 562.2743206769228
leaf_count=220 803 484 5061 299 914 2363 1878
internal_value=0.00735224 0.00367282 0.00185311 0.0126522 0.0108407 0.0156594 0.0088944
internal_weight=3537.19 2091.44 1671.67 1445.74 419.777 797.336 648.406
internal_count=12022 7262 5864 4760 1398 2583 2177
is_linear=0
shrinkage=0.03


Tree=16
num_leaves=8
num_cat=0
split_feature=17 35 15 38 21 26 15
split_gain=71.6728 27.1573 22.6606 19.7256 18.7288 13.1476 2.2845
threshold=-12.994503939083286 0.0022478764209957806 12.829673362402984 0.25881904510252057 20.795876255024719 0.20212669938362363 9.6431940155837363
decision_type=2 2 2 2 2 2 2
left_child=2 3 6 -2 -4 -3 -1
right_child=1 5 4 -5 -6 -7 -8
leaf_value=0.018421251656450841 0.0017201604405241877 0.00092190623502249507 0.016126690563687311 -0.015443515989551427 0.0084058065922016281 0.006456809247375012 0.029029388762705683
leaf_weight=69.282683566212654 132.62491641938686 561.10371515154839 436.21952795982361 105.91174307465553 876.21479815244675 1292.778436139226 65.593449085950851
leaf_count=219 472 1970 1420 400 2921 4420 200
internal_value=0.00712752 0.00356152 0.0122606 -0.0059033 0.0110041 0.00479247 0.0240386
internal_weight=3539.73 2092.42 1447.31 238.537 1312.43 1853.88 134.876
internal_count=12022 7262 4760 872 4341 6390 419
is_linear=0
shrinkage=0.03


Tree=17
num_leaves=8
num_cat=0
split_feature=22 33 39 40 9 18 26
split_gain=38.2347 26.6237 23.2202 33.3578 20.2474 15.261 13.2547
threshold=4.5231419512135433 0.0022519767915892357 1.0000000180025095e-35 0.78966539837466887 -0.0022277717225876455 0.00076084085594118386 0.44418446162791875
decision_type=2 2 2 2 2 2 2
left_child=2 6 4 -4 -1 -3 -2
right_child=1 5 3 -5 -6 -7 -8
leaf_value=0.01086961573851807 -0.0034862107469401187 0.012624461941314859 0.015575075176498936 -0.0070856704346904595 0.0037157067618295405 0.0034225172478945243 0.0077627012187509985
leaf_weight=681.14855283498764 531.0544249266386 264.54889017343521 686.04053078591824 61.808471873402596 768.85926586389542 436.57794252038002 112.05839610099792
leaf_count=2242 1906 880 2232 220 2649 1507 386
internal_value=0.00691069 0.002903 0.00935016 0.0136683 0.00709697 0.00694196 -0.00148492
internal_weight=3542.1 1344.24 2197.86 747.849 1450.01 701.127 643.113
internal_count=12022 4679 7343 2452 4891 2387 2292
is_linear=0
shrinkage=0.03


Tree=18
num_leaves=8
num_cat=0
split_feature=17 23 40 15 35 23 37
split_gain=64.5536 27.3384 22.2455 21.2576 17.0786 13.162 3.92186
threshold=-12.994503939083286 0.0019605675145193398 0.82050847299528606 12.829673362402984 0.0022478764209957806 0.0028336781460420162 0.12940952255126045
decision_type=2 2 2 2 2 2 2
left_child=3 4 -3 6 -2 -5 -1
right_child=1 2 -4 5 -6 -7 -8
leaf_value=0.028737652497530627 -0.0058028284524545325 0.015639433139141522 0.0013990360374084077 0.0096112837776518231 0.0028250464995907281 0.023477254184622411 0.01645255773451984
leaf_weight=66.739264592528343 238.34278428554535 256.2400845438242 164.49051269888878 1248.9650548696518 1435.3869757950306 65.82463675737381 68.328609585762024
leaf_count=202 872 833 565 4136 4992 205 217
internal_value=0.00670015 0.00331639 0.0101404 0.0115667 0.00158201 0.0103515 0.022963
internal_weight=3544.32 2094.46 420.731 1449.86 1673.73 1314.79 135.068
internal_count=12022 7262 1398 4760 5864 4341 419
is_linear=0
shrinkage=0.03


Tree=19
num_leaves=7
num_cat=0
split_feature=35 36 31 29 37 13
split_gain=41.5218 27.8546 22.7046 21.0015 13.624 7.61766
threshold=0.0022478764209957806 -0.0035514531908124587 -0.002643248894989791 0.61048030535393982 -0.91597561503675329 -2.2852189597969246
decision_type=2 2 2 2 2 2
left_child=2 3 -1 -2 -3 -4
right_child=1 4 5 -5 -6 -7
leaf_value=0.0086686102787005056 0.0039031036472002979 0.01170008041359802 -0.0021030691763482012 0.014745162984248864 0.0048722258995210488 -0.013983520377187024
leaf_weight=85.428201377391815 220.31402434408665 306.15821732580662 83.830202162265778 658.51733537018299 2063.265819683671 128.64894451200962
leaf_count=293 742 1020 301 2124 7058 484
internal_value=0.00649787 0.00748251 -0.00416648 0.0120592 0.00576992 -0.00942954
internal_weight=3546.16 3248.26 297.907 878.831 2369.42 212.479
internal_count=12022 10944 1078 2866 8078 785
is_linear=0
shrinkage=0.03


Tree=20
num_leaves=8
num_cat=0
split_feature=36 38 23 17 21 9 17
split_gain=43.2344 47.7297 24.252 23.1577 16.4952 14.8221 11.408
threshold=-0.0016112056714005505 0.25881904510252057 0.00084630085040472811 109.47930902093616 22.040237855772396 -0.0019550609499027201 -48.405189374213677
decision_type=2 2 2 2 2 2 2
left_child=4 2 -2 -3 5 -1 -6
right_child=1 3 -4 -5 6 -7 -8
leaf_value=0.019978221267250396 -0.0006845352430558993 -0.0033370778739887207 0.0095955568606235254 0.010804125900804836 0.010137632822778362 0.0094847678970887122 0.0019278321038619869
leaf_weight=267.52124406397343 253.73134170472622 772.83601169288158 1043.4830287247896 118.16206930577755 612.08747744560242 246.569610029459 210.4337514936924
leaf_count=847 903 2739 3507 395 2006 825 716
internal_value=0.00651907 0.00390578 0.0075753 -0.00142491 0.0107739 0.0150306 0.0080652
internal_weight=3524.82 2188.21 1297.21 890.998 1336.61 514.091 822.521
internal_count=11938 7544 4410 3134 4394 1672 2722
is_linear=0
shrinkage=0.03


Tree=21
num_leaves=7
num_cat=0
split_feature=36 23 40 21 16 36
split_gain=40.6603 23.545 17.0659 19.872 15.3987 14.972
threshold=-0.0016112056714005505 0.0015114553107435527 0.052052555276775325 22.040237855772396 85.423137293209365 0.0076374625596269405
decision_type=2 2 2 2 2 2
left_child=2 5 -1 -4 -3 -2
right_child=1 4 3 -5 -6 -7
leaf_value=0.02477711899206372 0.0020710311790718898 0.0092945230378755489 0.014237920774597663 0.006474423416932812 -0.0037296879494187842 -0.012904877477684778
leaf_weight=70.894617199897766 1316.8119313120842 722.3148650676012 504.25891910493374 762.37955813109875 89.247509643435478 60.76384337246418
leaf_count=217 4596 2411 1641 2536 314 223
internal_value=0.00632144 0.00378715 0.0104463 0.00959453 0.00783817 0.00138183
internal_weight=3526.67 2189.14 1337.53 1266.64 811.562 1377.58
internal_count=11938 7544 4394 4177 2725 4819
is_linear=0
shrinkage=0.03


Tree=22
num_leaves=8
num_cat=0
split_feature=36 33 15 15 15 21 37
split_gain=38.2495 23.1048 16.2861 15.6707 15.3537 14.7669 14.5271
threshold=-0.0016112056714005505 0.0023710049771370253 29.731333436793467 13.109264621883819 81.478995378220887 24.97150974847812 -0.25881904510252113
decision_type=2 2 2 2 2 2 2
left_child=2 3 6 -2 -3 -4 -1
right_child=1 4 5 -5 -6 -7 -8
leaf_value=0.020448222319946457 0.014337788511148112 0.0091976982805354844 0.011454278006340409 0.00014055474701032286 -0.00021357250608809131 0.0033019275022116773 0.0099780268080257913
leaf_weight=211.17532555758953 72.542027533054352 741.64463059604168 407.53093689680099 1182.4506082385778 193.40583738684654 408.27657257020473 311.40412905812263
leaf_count=662 239 2474 1341 4158 673 1375 1016
internal_value=0.0061296 0.00367161 0.010129 0.000994634 0.00723876 0.00741077 0.0142995
internal_weight=3528.43 2190.04 1338.39 1254.99 935.05 815.808 522.579
internal_count=11938 7544 4394 4397 3147 2716 1678
is_linear=0
shrinkage=0.03


Tree=23
num_leaves=8
num_cat=0
split_feature=36 38 9 22 15 36 9
split_gain=35.98 44.5752 17.2933 17.2468 15.3244 13.1384 8.96295
threshold=-0.0016112056714005505 0.25881904510252057 0.0086674871411426286 9.352307368068324 29.731333436793467 -0.0020185360264281522 -0.0022277717225876455
decision_type=2 2 2 2 2 2 2
left_child=4 3 -3 -2 6 -6 -1
right_child=1 2 -4 -5 5 -7 -8
leaf_value=0.015877653259320723 0.010014045046051944 -0.0032079872061656282 0.0091964494337647869 0.0029385724040295706 0.00592411647899553 0.01922446113671477 0.005738043455945579
leaf_weight=416.21173457801342 761.07743258774281 777.62712499499321 113.86320932209492 538.2744979262352 742.66601037979126 73.609158769249916 106.60392527282238
leaf_count=1322 2546 2753 381 1864 2479 237 356
internal_value=0.00594492 0.00356096 -0.00158984 0.00710348 0.00982292 0.00718589 0.0138685
internal_weight=3529.93 2190.84 891.49 1299.35 1339.09 816.275 522.816
internal_count=11938 7544 3134 4410 4394 2716 1678
is_linear=0
shrinkage=0.03


Tree=24
num_leaves=8
num_cat=0
split_feature=18 38 9 11 37 38 9
split_gain=30.9346 22.3708 30.1539 11.8644 7.73976 16.7014 10.8023
threshold=-0.00089155447616532464 0.25881904510252057 -0.0019550609499027201 39.867554979133907 -0.60355339059327362 0.1294095225512602 -0.003076034361057411
decision_type=2 2 2 2 2 2 2
left_child=4 3 -3 -2 5 -1 -6
right_child=1 2 -4 -5 6 -7 -8
leaf_value=0.010055389572220347 -0.00057678158283969172 0.0091199891767352725 -0.0016172353757500253 0.0075043199545999084 0.01362274715837909 0.029272710338819626 0.0041789539094842058
leaf_weight=124.18829038739204 179.1508532166481 319.46995098888874 873.0005419999361 1513.6598066091537 251.64517013728619 64.618250951170921 205.59317651391029
leaf_count=402 611 1054 3073 5108 802 197 691
internal_value=0.00576597 0.00442327 0.00125723 0.00664057 0.0117073 0.0169489 0.00944578
internal_weight=3531.33 2885.28 1192.47 1692.81 646.045 188.807 457.238
internal_count=11938 9846 4127 5719 2092 599 1493
is_linear=0
shrinkage=0.03


Tree=25
num_leaves=8
num_cat=0
split_feature=17 23 21 18 32 18 37
split_gain=47.2968 29.0834 23.2419 25.5511 20.2613 19.5041 17.8833
threshold=-12.994503939083286 0.0017633339545209392 19.32509631064147 -4.2773782911951468e-05 -0.00011216608969866203 -0.0010937841727594734 0.60355339059327384
decision_type=2 2 2 2 2 2 2
left_child=2 4 3 -1 -2 -4 -3
right_child=1 6 5 -5 -6 -7 -8
leaf_value=0.024546188402524139 0.0047730139905681869 0.011195388093731379 0.015116450363347512 0.0090140830684390799 -0.0020420139933767473 0.0056679745162487296 -0.0044715622706625793
leaf_weight=188.32418859004974 740.89453266561031 489.70888459682465 262.15491637587547 207.03764745593071 827.57549484074116 833.77227261662483 73.081224471330643
leaf_count=580 2538 1611 828 686 2938 2777 255
internal_value=0.0061669 0.00328417 0.0102668 0.0165366 0.00116961 0.00796521 0.00912576
internal_weight=3622.55 2131.26 1491.29 395.362 1568.47 1095.93 562.79
internal_count=12213 7342 4871 1266 5476 3605 1866
is_linear=0
shrinkage=0.03


Tree=26
num_leaves=8
num_cat=0
split_feature=8 33 38 26 15 22 15
split_gain=36.4279 17.5883 22.6832 18.2167 14.2135 20.9582 5.14896
threshold=-0.0037802270869056738 0.0013740005276402605 0.25881904510252057 0.45659104199337613 20.276654626707181 -17.35665858743787 11.279510330387762
decision_type=2 2 2 2 2 2 2
left_child=4 2 -2 -3 6 -6 -1
right_child=1 3 -4 -5 5 -7 -8
leaf_value=0.011718735668493723 0.0052565340571683831 0.0034232827344710145 -0.0055882406513689262 0.0089376304548027582 -2.0132010392400539e-05 0.013519036503299164 0.021510080206431786
leaf_weight=96.769440248608589 380.06197352707386 1274.9266162365675 315.83965981006622 955.18940301239491 155.10512925684452 291.28558772802353 154.39109559357166
leaf_count=309 1307 4363 1134 3163 521 938 478
internal_value=0.00598159 0.0044991 0.000311157 0.00579777 0.0121481 0.00880209 0.0179192
internal_weight=3623.57 2926.02 695.902 2230.12 697.551 446.391 251.161
internal_count=12213 9967 2441 7526 2246 1459 787
is_linear=0
shrinkage=0.03


Tree=27
num_leaves=7
num_cat=0
split_feature=15 35 37 24 36 1
split_gain=33.4436 28.5477 26.1805 24.3425 14.8764 13.3121
threshold=19.600162278215155 0.0022701885135562286 -0.70710678118654735 0.98966772082961307 0.0021745630311791335 0.0018792183097878395
decision_type=2 2 2 2 2 2
left_child=2 4 -1 -4 -2 -3
right_child=1 5 3 -5 -6 -7
leaf_value=0.024451356009682422 -0.00090500958928393547 0.0042216082487792853 0.0010903723693293421 0.015413096167110053 -0.017976195562233576 0.0089650122331727481
leaf_weight=127.9870471060276 235.36360538005829 2033.9080095291138 199.83176662027836 234.30068100988865 55.844646766781807 737.5460326820612
leaf_count=396 839 6906 679 745 213 2435
internal_value=0.0058015 0.00455359 0.0125338 0.00888995 -0.00433017 0.0054949
internal_weight=3624.78 3062.66 562.119 434.132 291.208 2771.45
internal_count=12213 10393 1820 1424 1052 9341
is_linear=0
shrinkage=0.03


Tree=28
num_leaves=8
num_cat=0
split_feature=17 23 10 13 22 25 22
split_gain=42.5979 26.1587 24.8658 20.2693 14.567 12.8265 9.36212
threshold=-12.994503939083286 0.0017633339545209392 48.305730743922062 -2.4885164539065872 -10.981430712577062 0.60407655393008619 -18.220282126752632
decision_type=2 2 2 2 2 2 2
left_child=2 3 4 -2 -1 -3 -4
right_child=1 5 6 -5 -6 -7 -8
leaf_value=0.010356220375604682 0.004469973878336953 0.017962170891101501 -0.0049597310768623388 -0.0023421371734591362 0.019539371495775483 0.0061788969150349 0.0066519060495046694
leaf_weight=500.80690695345402 746.35358376801014 103.62405742704868 65.821457087993622 823.73469810187817 242.43669937551022 460.0897902995348 683.04167537391186
leaf_count=1613 2556 332 227 2920 759 1534 2272
internal_value=0.00562648 0.00289286 0.00951657 0.000888078 0.0134162 0.0084273 0.00560083
internal_weight=3625.91 2133.8 1492.11 1570.09 743.244 563.714 748.863
internal_count=12213 7342 4871 5476 2372 1866 2499
is_linear=0
shrinkage=0.03


Tree=29
num_leaves=8
num_cat=0
split_feature=8 21 35 13 21 12 1
split_gain=32.2311 30.215 21.0201 20.3472 14.9025 11.9021 3.60861
threshold=-0.0037802270869056738 22.144016671182957 0.0022701885135562286 -2.7341365746051234 48.712757904048551 31.576775926810715 0.0017367344989473452
decision_type=2 2 2 2 2 2 2
left_child=1 6 3 -2 -4 -3 -1
right_child=2 5 4 -5 -6 -7 -8
leaf_value=0.017643489552187138 0.005195184320430082 0.01547754297454843 0.0053221375107703594 -0.0099296535744962007 -0.0089731780527165239 0.00524729860779438 0.029193264478022792
leaf_weight=80.543500065803528 141.77985322475433 140.40577912330627 2545.5128121674061 176.94028267264366 64.854421094059944 409.75246647000313 66.857370644807816
leaf_count=253 491 441 8591 655 230 1352 200
internal_value=0.00545787 0.0112588 0.00406452 -0.00316429 0.00495463 0.00793193 0.0233033
internal_weight=3626.65 697.559 2929.09 318.72 2610.37 550.158 147.401
internal_count=12213 2246 9967 1146 8821 1793 453
is_linear=0
shrinkage=0.03


Tree=30
num_leaves=8
num_cat=0
split_feature=17 31 23 14 33 20 28
split_gain=46.2054 23.7366 26.9509 15.9771 13.3698 12.9938 7.55235
threshold=-17.461814292479293 -0.0040183491992213114 0.00081970402047384439 -87.368012395590426 0.0018231167343049353 -0.00015087038467010244 0.55015511948775486
decision_type=2 2 2 2 2 2 2
left_child=3 6 -3 4 -1 -5 -2
right_child=1 2 -4 5 -6 -7 -8
leaf_value=0.026496669936009909 0.0016330844970995654 -0.0080755319275223284 0.0019441706491745969 0.0048408878317505646 0.011542952561897725 0.012983369288866254 0.0081422278031998124
leaf_weight=67.249381631612778 234.70980569720268 305.7015246450901 1121.4518720656633 702.20685282349586 336.68743054568768 241.59280610084534 561.34028562903404
leaf_count=204 802 1122 3861 2329 1074 784 1870
internal_value=0.00477582 0.00210666 -0.000199889 0.00915806 0.0141878 0.0069641 0.00625075
internal_weight=3570.94 2223.2 1427.15 1347.74 403.937 943.8 796.05
internal_count=12046 7655 4983 4391 1278 3113 2672
is_linear=0
shrinkage=0.03


Tree=31
num_leaves=8
num_cat=0
split_feature=31 23 11 33 36 40 31
split_gain=34.4861 29.76 20.0743 15.4935 13.5901 13.5668 10.7677
threshold=-0.0033203761891119148 0.00084630085040472811 53.433942396579475 0.0031537903555971547 0.0026795608539587072 0.65666411817680892 -0.00094344506839388355
decision_type=2 2 2 2 2 2 2
left_child=2 6 5 -4 -3 -1 -2
right_child=1 4 3 -5 -6 -7 -8
leaf_value=0.011813370554177539 0.0034675032536252821 0.0058542383914820416 -0.0044857907047980271 0.011240417388984363 0.00036219273440425703 0.0045564383429601172 -0.0083853416467072322
leaf_weight=864.67793411016464 87.869892060756683 1098.073889285326 174.19767771661282 80.784842520952225 652.26014639437199 332.01114849746227 281.42665654420853
leaf_count=2797 307 3671 613 264 2252 1112 1030
internal_value=0.00463367 0.0021809 0.00819679 0.000486999 0.00381894 0.00982347 -0.00552121
internal_weight=3571.3 2119.63 1451.67 254.983 1750.33 1196.69 369.297
internal_count=12046 7260 4786 877 5923 3909 1337
is_linear=0
shrinkage=0.03


Tree=32
num_leaves=8
num_cat=0
split_feature=6 23 40 9 10 21 10
split_gain=35.454 23.7827 21.2514 15.3403 14.1636 13.5334 10.2875
threshold=-0.00073712329107844521 0.0019250486364609173 0.71821795529977039 0.0020907575858941656 57.221619078938737 20.890439331732754 37.830814069866555
decision_type=2 2 2 2 2 2 2
left_child=2 3 5 -2 -3 -1 -4
right_child=1 4 6 -5 -6 -7 -8
leaf_value=0.015293631987993396 0.0027037652019949831 0.00078208902073218368 0.0049503144999878713 -0.003061861645065478 0.011676834415557946 0.0078435441224829205 -0.0076762925470226289
leaf_weight=358.39040146768093 1192.6948948353529 163.63174636662006 183.70621655881405 633.23057001829147 330.33007775247097 627.5578021556139 82.129304081201553
leaf_count=1151 4078 549 614 2239 1076 2051 288
internal_value=0.00449494 0.00228706 0.00856459 0.000694879 0.00811575 0.0105923 0.000965156
internal_weight=3571.67 2319.89 1251.78 1825.93 493.962 985.948 265.836
internal_count=12046 7942 4104 6317 1625 3202 902
is_linear=0
shrinkage=0.03


Tree=33
num_leaves=7
num_cat=0
split_feature=6 23 22 40 37 10
split_gain=33.3544 22.4954 22.6467 19.9963 23.6242 9.69335
threshold=-0.00073712329107844521 0.0027574510445762513 30.510531857828301 0.71821795529977039 -0.25881904510252113 37.830814069866555
decision_type=2 2 2 2 2 2
left_child=3 2 -2 4 -1 -5
right_child=1 -3 -4 5 -6 -7
leaf_value=0.015651451847382238 0.0020289196591117774 0.014601786074131028 -0.016304310547925568 0.0048019399192830011 0.0061748148729661697 -0.0074561000801209561
leaf_weight=422.55295540392399 2136.6518616527319 123.21882820129395 60.28290106356144 183.76198509335518 563.62371982634068 82.077943488955498
leaf_count=1344 7325 395 222 614 1858 288
internal_value=0.00436037 0.00221867 0.00150467 0.0083074 0.010274 0.000933858
internal_weight=3572.17 2320.15 2196.93 1252.02 986.177 265.84
internal_count=12046 7942 7547 4104 3202 902
is_linear=0
shrinkage=0.03


Tree=34
num_leaves=8
num_cat=0
split_feature=6 23 36 35 21 23 5
split_gain=31.3934 21.8285 19.1591 12.8329 23.2048 13.4569 11.3274
threshold=-0.00073712329107844521 0.0019250486364609173 -0.00089894436696541502 0.0059310532233860349 19.876359235009389 0.00093274972961640871 -3.727362502287112e-05
decision_type=2 2 2 2 2 2 2
left_child=3 2 -2 5 -5 -1 -3
right_child=1 6 -4 4 -6 -7 -8
leaf_value=0.0025640709774063871 0.0047159182978436026 0.00058447782892844164 -0.0016718122770984407 0.017034425471800327 0.0014633801381830197 0.012903779289136682 0.0106583098204036
leaf_weight=148.44923481345177 658.53951223194599 145.66946457326412 1167.7239504605532 105.94533850252628 442.80256202816963 554.90670755505562 348.58894738554955
leaf_count=504 2206 489 4111 333 1473 1794 1136
internal_value=0.00422958 0.00215175 0.000625999 0.00805887 0.00454782 0.0107562 0.00773386
internal_weight=3572.63 2320.52 1826.26 1252.1 548.748 703.356 494.258
internal_count=12046 7942 6317 4104 1806 2298 1625
is_linear=0
shrinkage=0.03


Tree=35
num_leaves=8
num_cat=0
split_feature=17 23 27 21 29 9 31
split_gain=37.1313 29.7035 26.6984 21.0524 14.9207 14.9095 14.4773
threshold=-16.697670167045079 0.0019164396714371644 -0.0069507973549126243 20.987625742150744 0.59447366196604667 0.00018053956193819778 -0.0031758714066749774
decision_type=2 2 2 2 2 2 2
left_child=3 2 -2 6 -5 -3 -1
right_child=1 5 -4 4 -6 -7 -8
leaf_value=0.020125070839805921 -0.0089346112715580142 -0.0035239610487814532 0.0012936392243308261 -0.0020013021855396708 0.0071927970656952321 0.010456645028576329 0.0085831732871813494
leaf_weight=172.1037386059761 269.27872663736343 79.839518442749977 1492.5907008945942 197.04039144515991 756.00026831030846 402.93528282642365 253.03176237642765
leaf_count=533 961 271 5179 668 2469 1315 827
internal_value=0.00392218 0.00153142 -0.000269469 0.00779729 0.00527601 0.00810864 0.013363
internal_weight=3622.82 2244.64 1761.87 1378.18 953.041 482.775 425.136
internal_count=12223 7726 6140 4497 3137 1586 1360
is_linear=0
shrinkage=0.03


Tree=36
num_leaves=8
num_cat=0
split_feature=36 38 27 12 21 13 20
split_gain=16.9402 26.314 19.2247 16.1117 14.6198 13.6397 9.03762
threshold=-0.0016112056714005505 0.25881904510252057 -0.0033247845737095767 64.606368516609322 22.583543132842976 15.246282680429767 -0.00045135795814176628
decision_type=2 2 2 2 2 2 2
left_child=4 3 -3 -2 6 -6 -1
right_child=1 2 -4 -5 5 -7 -8
leaf_value=0.014752111671026621 0.0062895756253317937 0.0009778795353253618 -0.0086762671714203359 -0.0026422786107771143 0.0024370399589541906 0.015509490576311423 0.0068411548852935758
leaf_weight=231.77987065911293 1132.9355328530073 657.63920101523399 255.39666864275932 212.6703816652298 718.31018902361393 78.815190672874451 335.31900484859943
leaf_count=732 3809 2257 933 746 2385 251 1110
internal_value=0.00380513 0.00219754 -0.00171927 0.00486496 0.00644859 0.00378392 0.0101413
internal_weight=3622.87 2258.64 913.036 1345.61 1364.22 797.125 567.099
internal_count=12223 7745 3190 4555 4478 2636 1842
is_linear=0
shrinkage=0.03


Tree=37
num_leaves=8
num_cat=0
split_feature=23 8 40 23 27 40 40
split_gain=22.7363 43.7585 16.0493 14.6826 17.1881 13.9922 13.3414
threshold=0.00081970402047384439 -0.00034034884581263242 0.45320586461695894 0.0029209306613445928 -0.0069012282987216565 0.7243235893492288 0.34469543290933263
decision_type=2 2 2 2 2 2 2
left_child=1 2 -1 4 -2 -5 -3
right_child=3 6 -4 5 -6 -7 -8
leaf_value=-0.0018887866958522219 0.0010922452048808219 0.0034234925678385871 0.015595644516974087 0.022051202385267601 0.0058620340649568944 0.0036188939932693728 -0.012522070672253544
leaf_weight=75.072005972266197 1071.0564657598734 55.903142049908638 117.74701638519764 81.751638203859329 1906.9955224692822 72.177557304501534 242.40288001298904
leaf_count=261 3609 198 387 251 6375 240 902
internal_value=0.00369166 -0.00228185 0.00876177 0.00463401 0.0041535 0.0136617 -0.00948099
internal_weight=3623.11 491.125 192.819 3131.98 2978.05 153.929 298.306
internal_count=12223 1748 648 10475 9984 491 1100
is_linear=0
shrinkage=0.03


Tree=38
num_leaves=7
num_cat=0
split_feature=1 21 8 35 15 5
split_gain=24.3973 14.4067 19.7835 11.2238 9.94486 10.422
threshold=0.00079306288958104194 21.090463135115929 -0.0032381402511293951 0.01673867960213268 13.493544214061931 0.0010503252383582409
decision_type=2 2 2 2 2 2
left_child=4 2 -2 -3 -1 -6
right_child=1 3 -4 -5 5 -7
leaf_value=0.010810829115128541 0.017789527617451485 0.0027286744070324784 0.0060217503719260422 0.014886268043527596 -0.002749081494269473 0.0076973204073386087
leaf_weight=60.864942744374275 151.8331198990345 1610.981352776289 886.59993627667427 70.243419080972672 748.35054637491703 94.584990233182907
leaf_count=199 474 5411 2964 223 2633 319
internal_value=0.0035815 0.00500036 0.00778767 0.00326263 -0.000673114 -0.0015437
internal_weight=3623.46 2719.66 1038.43 1681.22 903.8 842.936
internal_count=12223 9072 3438 5634 3151 2952
is_linear=0
shrinkage=0.03


Tree=39
num_leaves=8
num_cat=0
split_feature=17 27 27 40 27 22 40
split_gain=33.0188 18.1386 13.6156 13.2611 11.4705 10.9968 9.75892
threshold=-16.697670167045079 -0.003296600358860066 -0.0034753652282591085 0.052052555276775325 -0.016579127557094005 -0.2756734430447309 0.32085385410558614
decision_type=2 2 2 2 2 2 2
left_child=2 4 3 -1 -2 -3 -4
right_child=1 5 6 -5 -6 -7 -8
leaf_value=0.018212036550481755 0.012984827402838919 0.0017965874611263531 0.0069522994753505206 0.0049282625564569865 0.0022281497307149942 -0.0064170802392308221 0.020078657746861062
leaf_weight=71.665112376213074 93.677084252238274 237.1981108635664 104.26228120923042 1086.9821746945381 1545.1104399710894 369.98804852366447 114.83477759361267
leaf_count=222 302 819 342 3572 5260 1345 361
internal_value=0.00347524 0.00122208 0.00713033 0.00579279 0.00286725 -0.00318841 0.0140194
internal_weight=3623.72 2245.97 1377.74 1158.65 1638.79 607.186 219.097
internal_count=12223 7726 4497 3794 5562 2164 703
is_linear=0
shrinkage=0.03


Tree=40
num_leaves=8
num_cat=0
split_feature=31 33 36 21 21 21 21
split_gain=21.5886 17.5393 28.7791 14.0371 16.2997 11.9313 10.2988
threshold=-0.0097528242094299823 0.0028381981001311973 0.0041294566612113401 20.890439331732754 26.030311703038109 17.796955703362265 18.840752739061916
decision_type=2 2 2 2 2 2 2
left_child=3 2 -2 5 -5 -1 -3
right_child=1 6 -4 4 -6 -7 -8
leaf_value=0.007440397407549793 0.0019996288620250501 0.011975864802157846 -0.0078961996854836018 -0.0030596497968723713 0.0073564368372613272 0.019424923321925733 0.0037014290290721587
leaf_weight=206.38896781206131 1545.5736508667469 180.6126798838377 316.88340327143669 182.58956126868725 491.46891108155251 126.03433054685593 577.0026608556509
leaf_count=677 5290 586 1131 619 1607 395 1930
internal_value=0.00332216 0.00187702 0.000301217 0.00705808 0.00451203 0.012118 0.00572011
internal_weight=3626.55 2620.07 1862.46 1006.48 674.058 332.423 757.615
internal_count=12235 8937 6421 3298 2226 1072 2516
is_linear=0
shrinkage=0.03


Tree=41
num_leaves=7
num_cat=0
split_feature=8 38 36 36 38 36
split_gain=20.921 22.5307 34.1955 15.0858 14.2897 13.1041
threshold=-0.0042093191615039651 0.25881904510252057 -0.0026310057679134187 -0.0049116631687624026 -0.9159756150367534 -0.011541586671446667
decision_type=2 2 2 2 2 2
left_child=4 3 -3 -2 -1 -6
right_child=1 2 -4 -5 5 -7
leaf_value=-0.0042458220600686044 -0.0035840817194312058 0.0083109311928375191 -0.0034865452701644262 0.0053548344219952046 0.0014901926454404242 0.012720341031310811
leaf_weight=68.680284753441811 186.93797360360622 282.66634768247604 985.17916589975357 1577.4536071121693 126.81130039691925 398.95931497216225
leaf_count=232 632 922 3454 5306 419 1270
internal_value=0.00322341 0.00220469 -0.000835537 0.00439628 0.00836984 0.0100561
internal_weight=3626.69 3032.24 1267.85 1764.39 594.451 525.771
internal_count=12235 10314 4376 5938 1921 1689
is_linear=0
shrinkage=0.03


Tree=42
num_leaves=8
num_cat=0
split_feature=17 8 16 1 13 36 13
split_gain=28.7285 17.5639 16.2035 15.0057 11.9355 14.3275 13.1518
threshold=-12.994503939083286 0.00072838341432923681 31.19089690934544 0.00077998845328071137 3.823059615773698 -0.01107915424885436 15.55663217857345
decision_type=2 2 2 2 2 2 2
left_child=4 3 -3 -2 5 -1 -6
right_child=1 2 -4 -5 6 -7 -8
leaf_value=-0.00020479049473976513 -0.0083979645462124684 0.012719160726555118 0.0018230857330620519 0.00039933381183918987 0.00082469608378788254 0.010569648434476728 0.010657892463453191
leaf_weight=129.44903275370598 270.91472832858562 134.87013930082321 1283.4185800999403 475.20395548641682 492.70388454198837 677.35169802606106 162.88103178143501
leaf_count=430 979 441 4416 1614 1650 2177 528
internal_value=0.00312688 0.000922235 0.00288625 -0.00278881 0.0063739 0.00882614 0.00331556
internal_weight=3626.79 2164.41 1418.29 746.119 1462.39 806.801 655.585
internal_count=12235 7450 4857 2593 4785 2607 2178
is_linear=0
shrinkage=0.03


Tree=43
num_leaves=8
num_cat=0
split_feature=17 23 27 21 19 27 40
split_gain=27.0423 25.6558 25.8577 17.3835 24.523 19.9212 15.9399
threshold=-12.994503939083286 0.0019605675145193398 -0.0069507973549126243 19.419749997772048 -0.00054067966314636548 -0.0035552286155981334 0.82332658614593213
decision_type=2 2 2 2 2 2 2
left_child=3 2 -2 4 -1 -5 -3
right_child=1 6 -4 5 -6 -7 -8
leaf_value=0.020074225852308059 -0.009108742367606797 0.011774197578478968 0.00085061809486897545 0.0023868201205110981 0.005009990638102705 0.014046485540080506 0
leaf_weight=171.19773405790329 277.7694358676672 273.44096384942532 1443.5686836540699 902.88578252494335 234.16724598407745 153.9692450761795 169.68142411112785
leaf_count=529 991 879 5007 2987 775 494 573
internal_value=0.00303399 0.000894902 -0.000756509 0.00618461 0.0114762 0.00412296 0.00731819
internal_weight=3626.68 2164.46 1721.34 1462.22 405.365 1056.86 443.122
internal_count=12235 7450 5998 4785 1304 3481 1452
is_linear=0
shrinkage=0.03


Tree=44
num_leaves=8
num_cat=0
split_feature=17 8 21 19 19 1 40
split_gain=25.4703 16.7441 16.3902 23.1614 15.3143 14.0187 12.5138
threshold=-12.994503939083286 0.00072838341432923681 19.419749997772048 -0.00054067966314636548 0.00013587866764455114 0.00077998845328071137 0.052052555276775325
decision_type=2 2 2 2 2 2 2
left_child=2 5 3 -1 -3 -2 -4
right_child=1 4 6 -5 -6 -7 -8
leaf_value=0.019509348130979154 -0.0081812787648074172 0.0095154023704774344 0.016378262809603389 0.0048602798402938956 0.0013242935573858068 0.00032344847811487424 0.0031111604935912052
leaf_weight=170.93191526830196 270.61047494411469 249.28744898736477 67.383911594748497 234.19996219873428 1169.225515589118 475.21391312777996 989.49094408750534
leaf_count=529 979 822 210 775 4035 1614 3271
internal_value=0.00294461 0.000868378 0.00600261 0.0111433 0.00278572 -0.00275593 0.00400054
internal_weight=3626.34 2164.34 1462.01 405.132 1418.51 745.824 1056.87
internal_count=12235 7450 4785 1304 4857 2593 3481
is_linear=0
shrinkage=0.03


Tree=45
num_leaves=8
num_cat=0
split_feature=23 28 21 35 21 5 27
split_gain=31.7625 13.8951 12.5003 14.0469 11.9782 11.6535 11.3036
threshold=0.0017633339545209392 0.52256208061011544 21.090463135115929 0.0084154464321883494 22.68197014726594 2.3972829920282383e-05 -0.0066626600820077174
decision_type=2 2 2 2 2 2 2
left_child=1 6 3 -2 -4 -3 -1
right_child=2 5 4 -5 -6 -7 -8
leaf_value=-0.010424516868795551 0.0086570736895804495 0.0053550421426098709 -0.0063816820175733409 0.023389889297286245 0.0070132008252864917 0.00061102530389110278 -0.00013356673651356504
leaf_weight=116.73091141879559 198.59932501614094 958.6873707473278 62.838827133178711 87.101518005132675 718.41135248541832 921.58745895326138 519.82059924304485
leaf_count=413 645 3200 215 267 2351 3184 1790
internal_value=0.00359078 0.00174146 0.00792767 0.0133322 0.00590311 0.00304093 -0.00207095
internal_weight=3583.78 2516.83 1066.95 285.701 781.25 1880.27 636.552
internal_count=12065 8587 3478 912 2566 6384 2203
is_linear=0
shrinkage=0.03


Tree=46
num_leaves=7
num_cat=0
split_feature=35 35 17 29 17 26
split_gain=21.1597 13.6845 14.1736 11.1526 8.40125 7.73672
threshold=0.0022478764209957806 0.012864639457653969 -6.1438614974123089 1.0865248384093003 116.41466492333812 0.34062429106778808
decision_type=2 2 2 2 2 2
left_child=3 2 -2 5 -3 -1
right_child=1 4 -4 -5 -6 -7
leaf_value=-0.015320739026934366 0.0058907952421972422 0.0066719146394252117 0.0017921989180886789 0.0069475293092848989 0.019959501638329723 -0.0033736638743496281
leaf_weight=69.454113572835922 1426.3686755001545 119.40136717259884 1657.2334045916796 63.395022377371788 73.183903068304062 174.8175150603056
leaf_count=266 4677 388 5660 222 229 623
internal_value=0.00348358 0.00419241 0.00369552 -0.00399436 0.0119516 -0.00692834
internal_weight=3583.85 3276.19 3083.6 307.667 192.585 244.272
internal_count=12065 10954 10337 1111 617 889
is_linear=0
shrinkage=0.03


Tree=47
num_leaves=7
num_cat=0
split_feature=23 24 37 17 40 23
split_gain=29.1564 17.7261 15.7083 13.8607 11.3293 10.3244
threshold=0.0017633339545209392 0.77080377169828174 0.12940952255126045 -12.994503939083286 0.2246438370702154 0.0020922367163176202
decision_type=2 2 2 2 2 2
left_child=1 -1 4 -3 -2 -4
right_child=2 3 5 -5 -6 -7
leaf_value=-0.0110884316358589 0.016142203763353995 0.0050319082885124404 0.0070304120954650723 0.00033821569308693143 0.0075560618445143415 -0.0048893049733417801
leaf_weight=92.915025472640991 186.19049772620201 910.21958664059639 127.82833182811737 1513.8847297430038 623.77518190443516 128.9717321395874
leaf_count=334 585 2994 420 5259 2034 439
internal_value=0.00337974 0.00160794 0.00753541 0.00210951 0.00958317 0.000994536
internal_weight=3583.79 2517.02 1066.77 2424.1 809.966 256.8
internal_count=12065 8587 3478 8253 2619 859
is_linear=0
shrinkage=0.03


Tree=48
num_leaves=7
num_cat=0
split_feature=23 24 27 23 40 40
split_gain=27.4573 16.7136 13.8393 9.75821 14.7532 8.77385
threshold=0.0017633339545209392 0.77080377169828174 -0.0069507973549126243 0.0027574510445762513 0.1883093556092991 0.7374720442812609
decision_type=2 2 2 2 2 2
left_child=1 -1 -3 4 -2 -5
right_child=3 2 -4 5 -6 -7
leaf_value=-0.010775639443144856 0.013390613318593073 -0.0030300514432731467 0.0030562621069223938 0.018366955603755581 0.0037518163435566639 0.0053568492088874519
leaf_weight=92.803533285856247 183.26026387512684 399.04403784871101 2025.0913397371769 122.02293409407139 676.66209764778614 84.643675535917282
leaf_count=334 581 1374 6879 379 2240 278
internal_value=0.00327918 0.00155961 0.00204652 0.00731247 0.00584967 0.0132128
internal_weight=3583.53 2516.94 2424.14 1066.59 859.922 206.667
internal_count=12065 8587 8253 3478 2821 657
is_linear=0
shrinkage=0.03


Tree=49
num_leaves=7
num_cat=0
split_feature=23 24 15 23 23 40
split_gain=25.8868 15.7573 12.9704 9.21387 14.1465 8.28167
threshold=0.0017633339545209392 0.77080377169828174 12.455041397390113 0.0027574510445762513 0.0024339056865486986 0.7374720442812609
decision_type=2 2 2 2 2 2
left_child=1 -1 -3 4 -2 -5
right_child=3 2 -4 5 -6 -7
leaf_value=-0.010471919879991354 0.0075953348816448158 0.010352978595401161 0.0013996266892593388 0.017851280392028959 -0.0019542930751682008 0.0051994799643924391
leaf_weight=92.690027877688408 688.63745410740376 154.55225919187069 2269.9838700592518 121.84192831814289 171.16372564435005 84.649797946214676
leaf_count=334 2246 499 7754 379 575 278
internal_value=0.00318158 0.00151202 0.0019846 0.00709869 0.00567673 0.0128363
internal_weight=3583.52 2517.23 2424.54 1066.29 859.801 206.492
internal_count=12065 8587 8253 3478 2821 657
is_linear=0
shrinkage=0.03


Tree=50
num_leaves=8
num_cat=0
split_feature=23 21 17 27 27 27 2
split_gain=26.0151 22.2746 13.7039 17.8971 14.7553 10.9527 7.35042
threshold=0.0019746562970271429 20.392912290585063 -18.769785489681791 -0.0034753652282591085 -0.0069507973549126243 -0.010312864460368639 0.28356193389474776
decision_type=2 2 2 2 2 2 2
left_child=2 6 3 -1 -4 -3 -2
right_child=1 5 4 -5 -6 -7 -8
leaf_value=0.0024006341827980376 0.022219928057408255 0.0082365221393518196 -0.0062099890983424557 0.012480273780409289 0.001270332495879154 6.2300667351585881e-05 0.0088904787340684886
leaf_weight=766.44307774305344 106.76331517100334 382.65999628603458 279.35280744731426 200.51007662713528 1512.6722648143768 245.4006929397583 70.157740503549576
leaf_count=2534 328 1240 987 642 5222 818 226
internal_value=0.00304714 0.00779064 0.00165306 0.0045277 9.0266e-05 0.00507677 0.0171765
internal_weight=3563.96 804.982 2758.98 966.953 1792.03 628.061 176.921
internal_count=11997 2612 9385 3176 6209 2058 554
is_linear=0
shrinkage=0.03


Tree=51
num_leaves=5
num_cat=0
split_feature=40 27 5 35
split_gain=18.2159 12.2433 18.1108 9.40493
threshold=0.052052555276775325 -0.0020510200062249079 -0.00010035686831555422 0.013681278963478136
decision_type=2 2 2 2
left_child=-1 3 -3 -2
right_child=1 2 -4 -5
leaf_value=0.016960654884808045 0.0027045468538014427 0.0046113851142173335 -0.012887304992044874 0.010294015685077844
leaf_weight=80.141438201069832 3121.2525457590818 100.68155941367149 107.2290543615818 154.32968604564667
leaf_count=250 10502 346 403 496
internal_value=0.00295747 0.00262146 -0.00437883 0.00307277
internal_weight=3563.63 3483.49 207.911 3275.58
internal_count=11997 11747 749 10998
is_linear=0
shrinkage=0.03


Tree=52
num_leaves=8
num_cat=0
split_feature=23 21 31 21 21 3 40
split_gain=23.9743 21.243 20.4876 14.4224 10.3636 10.0509 9.85541
threshold=0.0019746562970271429 20.392912290585063 0.070462077459335512 25.081007868687866 25.804775132884355 0.36817051108023752 0.70154032375688213
decision_type=2 2 2 2 2 2 2
left_child=2 6 5 -4 -3 -1 -2
right_child=1 4 3 -5 -6 -7 -8
leaf_value=0.0033436905916974847 0.022515656802529063 -0.0021774727268025814 -0.00065815012949543112 -0.020079189449807532 0.0068822727068562645 -0.00070918056115125048 0.007467528406278694
leaf_weight=1842.4080587625504 104.40903803706169 144.34281559288502 78.052523836493492 62.220424100756645 483.4807101637125 776.349285826087 72.281242400407791
leaf_count=6228 320 484 268 229 1574 2660 234
internal_value=0.00286943 0.0074247 0.0015313 -0.00953927 0.00477523 0.00213684 0.0165961
internal_weight=3563.54 804.514 2759.03 140.273 627.824 2618.76 176.69
internal_count=11997 2612 9385 497 2058 8888 554
is_linear=0
shrinkage=0.03


Tree=53
num_leaves=8
num_cat=0
split_feature=37 26 27 21 27 5 19
split_gain=17.7113 26.6168 16.3669 15.261 13.8529 16.0772 12.0782
threshold=-0.60355339059327362 0.18782850263130146 -0.003296600358860066 26.678387781854621 -0.002165080995289548 -7.4597958746647195e-05 -0.00084620852924977648
decision_type=2 2 2 2 2 2 2
left_child=1 3 -3 -1 6 -6 -2
right_child=4 2 -4 -5 5 -7 -8
leaf_value=0.0026366902552634346 -0.0010349736968975321 0.010413634714202508 -0.00020692559707624947 -0.014013411173518158 0.0024272982737027628 -0.014846145036572788 0.0035571277968081899
leaf_weight=130.56072144210339 761.32180617749691 686.8740311563015 157.64571306109428 76.369571641087532 92.53954866528511 96.029529884457588 1562.0931903868914
leaf_count=444 2544 2223 547 273 320 364 5282
internal_value=0.00278359 0.00605339 0.00841758 -0.00351171 0.00140525 -0.00635405 0.00204637
internal_weight=3563.43 1051.45 844.52 206.93 2511.98 188.569 2323.41
internal_count=11997 3487 2770 717 8510 684 7826
is_linear=0
shrinkage=0.03


Tree=54
num_leaves=8
num_cat=0
split_feature=23 21 36 2 27 27 2
split_gain=22.1345 19.8684 14.2798 17.382 9.97174 8.46531 6.97221
threshold=0.0019746562970271429 20.392912290585063 0.0060750997710407048 0.32050259229413375 -0.010312864460368639 -0.0081879865381571503 0.28356193389474776
decision_type=2 2 2 2 2 2 2
left_child=2 6 3 -1 -3 -4 -2
right_child=1 4 5 -5 -6 -7 -8
leaf_value=0.0002530005063241976 0.020865439637342151 0.0075342908178699167 -0.013261378211137214 0.0054968220230577677 -0.00014745272211507039 -0.0016061925421036176 0.0079183254439332967
leaf_weight=1586.6079181879759 106.37172235548496 382.29753687977791 77.761824652552605 890.83192130923271 245.33073452115059 204.28020979464054 69.989414393901825
leaf_count=5403 328 1240 283 2988 818 711 226
internal_value=0.00269972 0.0070785 0.00141431 0.00214752 0.00451686 -0.0049432 0.0159578
internal_weight=3563.47 803.989 2759.48 2477.44 627.628 282.042 176.361
internal_count=11997 2612 9385 8391 2058 994 554
is_linear=0
shrinkage=0.03


Tree=55
num_leaves=7
num_cat=0
split_feature=22 33 7 16 28 29
split_gain=19.6186 13.6062 9.96095 8.52097 9.09784 5.16923
threshold=16.930348652116884 0.000819433163691651 0.0041557598022704543 88.901770328201124 0.5058706083304737 0.7444458850014315
decision_type=2 2 2 2 2 2
left_child=1 5 -3 4 -2 -1
right_child=3 2 -4 -5 -6 -7
leaf_value=-0.010139764990928661 -0.011271072413121344 0.0031258157807041559 0.011226365757803402 -0.013547156922500985 0.00031538243175435222 0.00090761227212652945
leaf_weight=89.771001055836678 72.510990649461746 2830.1836738735437 143.74378404021263 64.048485994338989 323.57216964662075 60.712782561779022
leaf_count=327 260 9465 466 232 1118 215
internal_value=0.00222597 0.00308035 0.00352968 -0.00353126 -0.00181404 -0.00563088
internal_weight=3584.54 3124.41 2973.93 460.132 396.083 150.484
internal_count=12083 10473 9931 1610 1378 542
is_linear=0
shrinkage=0.03


Tree=56
num_leaves=7
num_cat=0
split_feature=12 37 29 40 19 38
split_gain=21.4013 22.5731 22.6486 22.6097 8.72346 12.0319
threshold=67.61579247576671 -0.60355339059327362 0.78750293891876078 0.76903953328521102 0.0058497253966567882 0.1294095225512602
decision_type=2 2 2 2 2 2
left_child=1 3 -3 -1 5 -2
right_child=4 2 -4 -5 -6 -7
leaf_value=0.0088878040631476113 -0.0036972448459981371 -0.0024895563810400029 0.0035235358592806453 -0.0016179140314129994 0.0023676749459001448 -0.021066919700467927
leaf_weight=790.7576407045126 94.244063049554825 936.06111942231655 1405.4526090919971 236.54568426311016 61.427120849490166 59.960872739553452
leaf_count=2588 333 3214 4710 808 205 225
internal_value=0.0021589 0.00274971 0.00111322 0.00645575 -0.00694285 -0.0107305
internal_weight=3584.45 3368.82 2341.51 1027.3 215.632 154.205
internal_count=12083 11320 7924 3396 763 558
is_linear=0
shrinkage=0.03


Tree=57
num_leaves=7
num_cat=0
split_feature=12 23 8 31 21 27
split_gain=20.1764 13.6524 31.2094 10.5838 7.93548 3.95915
threshold=67.61579247576671 0.0008300018783749403 -0.00034034884581263242 -0.28386977517173007 39.847934084700121 -0.0071134223569932582
decision_type=2 2 2 2 2 2
left_child=1 2 -1 -3 5 -2
right_child=4 3 -4 -5 -6 -7
leaf_value=0.0070579799324296828 -0.014524009503137821 -0.0059284277386289367 -0.0083624715300414151 0.0038009013734705476 0.0014146739767695016 -0.0037563765588073598
leaf_weight=198.71578085422516 91.186574831604958 101.49182294309139 283.77709123492241 2784.8261688947678 69.170983523130417 55.0504150390625
leaf_count=666 331 345 1042 9267 236 196
internal_value=0.00209376 0.00266724 -0.00197764 0.00344973 -0.00674797 -0.0106771
internal_weight=3584.22 3368.81 482.493 2886.32 215.408 146.237
internal_count=12083 11320 1708 9612 763 527
is_linear=0
shrinkage=0.03


Tree=58
num_leaves=7
num_cat=0
split_feature=12 37 16 28 13 37
split_gain=19.0127 21.1795 26.8289 21.9588 5.57909 5.79049
threshold=67.61579247576671 -0.60355339059327362 66.346522716068336 0.51021657599199643 2.7538920273531393 1.0000000180025095e-35
decision_type=2 2 2 2 2 2
left_child=1 2 -1 -3 -2 -6
right_child=4 3 -4 -5 5 -7
leaf_value=0.0094477837545725064 -0.01292497117817301 -0.0045471991193041673 -0.00095250806818255554 0.0025222090162718984 -0.0088949207503334522 0.0031690754301213066
leaf_weight=705.16189213097095 77.826191499829292 500.56838518381119 322.05647863447666 1840.8833506256342 67.669733107089996 69.744221344590187
leaf_count=2300 281 1732 1096 6192 240 242
internal_value=0.00203051 0.00258711 0.00617697 0.00100188 -0.0065554 -0.00270664
internal_weight=3583.91 3368.67 1027.22 2341.45 215.24 137.414
internal_count=12083 11320 3396 7924 763 482
is_linear=0
shrinkage=0.03


Tree=59
num_leaves=5
num_cat=0
split_feature=40 12 37 40
split_gain=18.1745 16.5515 19.5066 6.28487
threshold=0.052052555276775325 67.61579247576671 -0.60355339059327362 0.86881616799905104
decision_type=2 2 2 2
left_child=-1 2 -2 -3
right_child=1 3 -4 -5
leaf_value=0.016089718549492513 0.0056509187521149341 -0.011508150657705218 0.00063003461028915831 -0.0011069720833943907
leaf_weight=78.463266372680664 1005.5039815604687 106.15860506892204 2284.6526352465153 108.94743259251118
leaf_count=246 3329 386 7745 377
internal_value=0.00196923 0.00163987 0.00217152 -0.00636795
internal_weight=3583.73 3505.26 3290.16 215.106
internal_count=12083 11837 11074 763
is_linear=0
shrinkage=0.03


Tree=60
num_leaves=8
num_cat=0
split_feature=17 13 17 38 17 13 5
split_gain=18.5179 19.8591 17.9867 13.0273 26.9517 8.71245 8.62671
threshold=-12.994503939083286 3.823059615773698 -140.11535500487551 0.25881904510252057 109.47930902093616 14.23790866170477 -0.0010201416637761749
decision_type=2 2 2 2 2 2 2
left_child=1 2 -1 6 -5 -3 -2
right_child=3 5 -4 4 -6 -7 -8
leaf_value=-0.0060177964887901617 -0.0029880559730651982 -0.0019853493321931315 0.0087697069196387631 -0.0051752835751275482 0.0096572882726832822 0.005381146354060222 0.0030643495944912783
leaf_weight=79.714512810111046 266.89658500254154 462.37470446527004 730.65219926834106 757.15424036979675 126.53746385872364 207.43619135022163 971.18361815810204
leaf_count=270 903 1555 2356 2674 415 680 3309
internal_value=0.00155791 0.0041314 0.00728538 -0.000232519 -0.00301743 0.000282908 0.0017448
internal_weight=3601.95 1480.18 810.367 2121.77 883.692 669.811 1238.08
internal_count=12162 4861 2626 7301 3089 2235 4212
is_linear=0
shrinkage=0.03


Tree=61
num_leaves=8
num_cat=0
split_feature=10 38 32 24 38 39 10
split_gain=12.8803 13.7239 10.4326 9.36411 7.80439 12.5772 9.58315
threshold=48.305730743922062 -0.78656609248549325 0.0010739213136965466 0.900301615032291 -0.9159756150367534 1.0000000180025095e-35 24.527320297189227
decision_type=2 2 2 2 2 2 2
left_child=4 3 -3 -2 6 -6 -1
right_child=1 2 -4 -5 5 -7 -8
leaf_value=-0.0099157549465271333 0.014925346013845573 -0.0035745197483035701 0.0014945053007526547 0.0025954198147882255 0.0022636076840290447 0.0082070858818641679 0.003122075358748584
leaf_weight=81.599228754639626 66.464870274066925 889.58041900396347 612.66975355148315 326.94299492239952 1025.919241964817 473.13465206325054 125.10089984536171
leaf_count=282 216 3097 2070 1103 3437 1540 417
internal_value=0.00151146 -0.000183246 -0.00149799 0.00478141 0.00340163 0.00415793 -0.00199871
internal_weight=3601.41 1895.66 1502.25 393.408 1705.75 1499.05 206.7
internal_count=12162 6486 5167 1319 5676 4977 699
is_linear=0
shrinkage=0.03


Tree=62
num_leaves=8
num_cat=0
split_feature=17 21 10 30 8 21 22
split_gain=17.3551 16.5472 23.8251 16.1866 12.8724 12.0019 9.49349
threshold=-12.994503939083286 20.987625742150744 48.305730743922062 0.074041417350314317 0.00152287218341729 32.393992155913736 19.670356746692644
decision_type=2 2 2 2 2 2 2
left_child=1 2 -1 -3 5 -2 -6
right_child=4 3 -4 -5 6 -7 -8
leaf_value=0.015572114120664018 -0.0037552755023281636 0.012128081087588406 0.0022543493994967227 0.00026612879766515026 0.0035339875122925393 0.0091849136241259257 -0.0025335858028446008
leaf_weight=226.27361103892326 898.9789195805788 115.96257174015045 265.28086319565773 871.97286240756512 839.82678844034672 67.005415558815002 315.8819575458765
leaf_count=712 3133 369 881 2899 2841 223 1104
internal_value=0.0014669 0.00395919 0.00845347 0.00169531 -0.000266042 -0.00282506 0.00186111
internal_weight=3601.18 1479.49 491.554 987.935 2121.69 965.984 1155.71
internal_count=12162 4861 1593 3268 7301 3356 3945
is_linear=0
shrinkage=0.03


Tree=63
num_leaves=7
num_cat=0
split_feature=30 33 38 40 14 0
split_gain=12.2007 12.0123 10.3917 9.74843 8.68176 7.10814
threshold=0.14315947868076326 0.0024609884069295364 0.78656609248549303 0.18219402800711851 -168.32892101534455 -0.00017546928761753917
decision_type=2 2 2 2 2 2
left_child=3 2 -2 -1 -3 -5
right_child=1 4 -4 5 -6 -7
leaf_value=0.012595041125907008 0 -0.0054167279980602912 -0.0060941428310537765 0.0017058465896317883 0.0034150567533824411 0.010511293543275903
leaf_weight=123.54087303578854 1274.0815976560116 106.22998970746994 310.79760299623013 480.83260229229927 1205.3090556263924 99.752706855535507
leaf_count=395 4366 360 1092 1618 4000 331
internal_value=0.00142415 0.000555883 -0.00119454 0.00496283 0.00268114 0.00327538
internal_weight=3600.54 2896.42 1584.88 704.126 1311.54 580.585
internal_count=12162 9818 5458 2344 4360 1949
is_linear=0
shrinkage=0.03


Tree=64
num_leaves=8
num_cat=0
split_feature=17 13 17 38 9 20 13
split_gain=16.2584 17.9306 16.8984 11.7277 26.1409 8.35462 8.14225
threshold=-12.994503939083286 3.823059615773698 -140.11535500487551 0.25881904510252057 0.0086674871411426286 -0.00031748113032933114 14.23790866170477
decision_type=2 2 2 2 2 2 2
left_child=1 2 -1 5 -5 -2 -3
right_child=3 6 -4 4 -6 -7 -8
leaf_value=-0.0060968357671199449 -0.005520163930799211 -0.0020538455657344726 0.0082369593770779039 -0.0050430305387382307 0.0096760360668881051 0.0024357631789766044 0.0050700329329922906
leaf_weight=79.686581715941429 130.18267793953419 462.25902287662029 729.4133352637291 758.9416755437851 124.22453984618187 1108.315036252141 207.39575143158436
leaf_count=270 444 1555 2356 2682 407 3768 680
internal_value=0.00138196 0.00379517 0.00679521 -0.000294917 -0.00293854 0.00157985 0.000138653
internal_weight=3600.42 1478.75 809.1 2121.66 883.166 1238.5 669.655
internal_count=12162 4861 2626 7301 3089 4212 2235
is_linear=0
shrinkage=0.03


Tree=65
num_leaves=8
num_cat=0
split_feature=40 12 37 37 35 10 37
split_gain=16.7608 22.7489 22.8089 16.6814 13.1215 8.81981 8.31876
threshold=0.74331731149237534 63.370515297402079 -0.60355339059327362 -0.78656609248549303 0.003386407069457639 79.763752761707551 -0.91597561503675329
decision_type=2 2 2 2 2 2 2
left_child=1 2 -1 6 -5 -3 -2
right_child=3 5 -4 4 -6 -7 -8
leaf_value=0.0079523983855976487 -0.004092441734452652 -0.017817405279240466 0.0015754127293606736 -0.0068892809848755667 0.0024469844937834513 -0.0026350484988469751 -0.016352901075457841
leaf_weight=710.22735702991486 127.66557352244854 55.621560573577881 1768.1783127039671 175.6093362569809 567.86389914155006 94.953494980931282 86.925794437527657
leaf_count=2325 439 206 5946 628 1919 336 312
internal_value=0.00147993 0.00271972 0.00341383 -0.00190508 0.000209058 -0.00850168 -0.00923326
internal_weight=3587.05 2628.98 2478.41 958.065 743.473 150.575 214.591
internal_count=12111 8813 8271 3298 2547 542 751
is_linear=0
shrinkage=0.03


Tree=66
num_leaves=8
num_cat=0
split_feature=17 13 20 7 27 27 28
split_gain=21.4973 20.4339 13.2863 17.0273 14.1174 12.0697 10.6373
threshold=-16.697670167045079 -4.8868989223245611 -0.00025289606040866522 -0.0027855892970808922 -0.002789621926761202 -0.004079667788825095 0.35513540158827123
decision_type=2 2 2 2 2 2 2
left_child=1 5 3 -2 -4 -1 -3
right_child=2 6 4 -5 -6 -7 -8
leaf_value=0.0071610589434047325 0.0012776379466218314 -0.0072783807239185068 0.001803599525258314 -0.012826929291585543 -0.0047052972611709267 0.020054012716759672 0.0031742246767774772
leaf_weight=268.36244978010654 141.94782564043999 94.165674135088921 1538.010650858283 161.18847362697124 369.86964286863804 89.854965880513191 923.23695136606693
leaf_count=869 472 322 5227 570 1334 277 3040
internal_value=0.0014347 0.0043772 -0.000391542 -0.00620803 0.000530298 0.0105301 0.00217969
internal_weight=3586.64 1375.62 2211.02 303.136 1907.88 358.217 1017.4
internal_count=12111 4508 7603 1042 6561 1146 3362
is_linear=0
shrinkage=0.03


Tree=67
num_leaves=8
num_cat=0
split_feature=17 10 21 20 26 26 20
split_gain=20.2511 14.8491 17.1142 12.5409 15.25 13.5073 9.06333
threshold=-16.697670167045079 48.882174740784826 21.451978924545241 -0.00028550265673781141 0.95741020354331963 0.41338061036731344 -0.00014049707744813274
decision_type=2 2 2 2 2 2 2
left_child=1 2 -1 4 -2 -5 -3
right_child=3 6 -4 5 -6 -7 -8
leaf_value=0.01453233407960094 -0.01139243389004199 -0.0011680183792983528 0.0041929791168311111 -0.0014982892877566955 0.0031548949801999356 0.0036502549648973837 0.0064420097685742427
leaf_weight=207.21339072287083 182.24959194660187 477.84212912619114 493.68274728953838 1189.5314038395882 96.856001257896423 742.18719956278801 196.36280207335949
leaf_count=655 640 1599 1612 4140 320 2503 642
internal_value=0.00139222 0.00424888 0.00730371 -0.000380038 -0.00630429 0.00047381 0.00103872
internal_weight=3585.93 1375.1 700.896 2210.82 279.106 1931.72 674.205
internal_count=12111 4508 2267 7603 960 6643 2241
is_linear=0
shrinkage=0.03


Tree=68
num_leaves=8
num_cat=0
split_feature=8 21 3 29 38 36 21
split_gain=12.9124 24.1481 10.3536 10.3279 9.17677 26.7978 14.0263
threshold=-0.0033607872589028749 20.795876255024719 0.17564842523081528 1.6532267207504312 0.25881904510252057 -0.0025754977320294188 35.101768740902848
decision_type=2 2 2 2 2 2 2
left_child=1 2 -1 -3 6 -6 -2
right_child=4 3 -4 -5 5 -7 -8
leaf_value=0.0058595762885642177 0.0030188415883148165 0.00046968084607503364 0.022445928191010173 0.011538996174211872 0.0071355677173760811 -0.0039239729125187424 -0.004761733027916961
leaf_weight=63.400065764784813 1407.1644611358643 517.69957780838013 84.802654325962067 87.636589542031288 247.12383708357811 935.73638287186623 241.62801618874073
leaf_count=207 4728 1716 261 279 805 3279 836
internal_value=0.00135118 0.0048376 0.0156228 0.00212964 0.000415344 -0.0015926 0.00186514
internal_weight=3585.19 753.539 148.203 605.336 2831.65 1182.86 1648.79
internal_count=12111 2463 468 1995 9648 4084 5564
is_linear=0
shrinkage=0.03


Tree=69
num_leaves=8
num_cat=0
split_feature=17 13 5 28 8 31 35
split_gain=18.2836 18.3832 11.3962 9.97312 9.16288 16.0227 14.2545
threshold=-16.697670167045079 -4.8868989223245611 -0.00092263633501804543 0.35513540158827123 0.00152287218341729 -0.0033203761891119148 0.0023959276779528947
decision_type=2 2 2 2 2 2 2
left_child=1 2 -1 -3 5 -2 -6
right_child=4 3 -4 -5 6 -7 -8
leaf_value=0.0071632541603045812 0.0015904101895379012 -0.0072146249122690001 0.021155850919857506 0.002908851784750162 -0.011709926175549131 -0.0058400169492288361 0.0022853056520774906
leaf_weight=291.61486569046974 479.02057145535946 94.139802306890488 65.490944862365723 922.65836854279041 67.412066891789436 564.24428731203079 1099.8185426294804
leaf_count=945 1612 322 201 3040 253 2005 3733
internal_value=0.00131203 0.004028 0.00987471 0.00194453 -0.000371379 -0.00241743 0.00144555
internal_weight=3584.4 1373.9 357.106 1016.8 2210.5 1043.26 1167.23
internal_count=12111 4508 1146 3362 7603 3617 3986
is_linear=0
shrinkage=0.03


Tree=70
num_leaves=8
num_cat=0
split_feature=2 31 36 13 25 10 29
split_gain=15.3006 14.6552 13.1928 9.50356 13.5954 9.46112 8.57239
threshold=0.19008251851324057 -0.032244776531849699 -0.00045878969514595575 7.0919255963795758 0.6265272631783293 11.962741706676059 1.5869641579350589
decision_type=2 2 2 2 2 2 2
left_child=1 6 -3 5 -5 -2 -1
right_child=3 2 -4 4 -6 -7 -8
leaf_value=0.0031565311566669305 -0.0042220866757550065 0.0019153174287404745 -0.003897610180554447 0.009659832705679201 -0.0020262159084959057 0.0057738798493037662 0.016197934188466667
leaf_weight=171.51292638480663 87.960115447640419 638.16508482396603 771.95350515842438 111.29829201102257 424.30218556523323 1314.2569611668587 62.631549671292305
leaf_count=566 298 2127 2695 365 1453 4379 197
internal_value=0.00202839 -9.16337e-05 -0.0012573 0.00383322 0.000401157 0.00513104 0.00681615
internal_weight=3582.08 1644.26 1410.12 1937.82 535.6 1402.22 234.144
internal_count=12080 5585 4822 6495 1818 4677 763
is_linear=0
shrinkage=0.03


Tree=71
num_leaves=8
num_cat=0
split_feature=2 31 20 31 14 31 31
split_gain=14.383 13.8216 10.0005 9.0995 16.2094 6.44925 5.48654
threshold=0.19008251851324057 -0.032244776531849699 0.00089502409877410545 0.01463998076283105 147.94181174961707 0.065261847544978754 -0.047383891616570827
decision_type=2 2 2 2 2 2 2
left_child=1 6 -3 4 -2 -5 -1
right_child=3 2 -4 5 -6 -7 -8
leaf_value=0.0037060709271781031 0.00317424477932863 -8.6372640896156599e-05 -0.0069114825488069825 0.010001911857292189 -0.012619123345551268 0.002707370847977906 0.01434399216034225
leaf_weight=173.37078389525414 1394.6948324739933 1179.6327741444111 230.19466595351696 300.74381639063358 58.769406110048294 183.84311100840569 60.605856359004974
leaf_count=571 4679 4015 807 986 213 617 192
internal_value=0.00196823 -8.7444e-05 -0.0012196 0.00371782 0.00250889 0.00728783 0.00662334
internal_weight=3581.86 1643.8 1409.83 1938.05 1453.46 484.587 233.977
internal_count=12080 5585 4822 6495 4892 1603 763
is_linear=0
shrinkage=0.03


Tree=72
num_leaves=8
num_cat=0
split_feature=1 38 22 14 22 19 5
split_gain=11.4436 15.0495 19.7962 12.9075 12.6353 11.6048 9.51721
threshold=0.00079306288958104194 0.25881904510252057 8.8584650277436285 -182.03730695877036 -10.032817201918478 -0.0030013862396831904 -0.0017015332253050295
decision_type=2 2 2 2 2 2 2
left_child=1 2 -1 5 -3 -2 -5
right_child=3 4 -4 6 -6 -7 -8
leaf_value=0.0060173049120739383 0.002547589722660976 0.0062900595637974035 -0.0074084480171439987 0.0080489726526165942 -0.0076252523655485627 -0.01528360347505392 0.0026352934282539162
leaf_weight=372.72342891991138 62.928395673632622 68.102776795625687 131.62299627065659 340.5611093044281 340.73366059362888 63.08391061425209 2201.9809428751469
leaf_count=1246 208 224 475 1104 1229 222 7372
internal_value=0.0019096 -0.000975318 0.00246844 0.00290243 -0.00525143 -0.00636115 0.00337208
internal_weight=3581.74 913.183 504.346 2668.55 408.836 126.012 2542.54
internal_count=12080 3174 1721 8906 1453 430 8476
is_linear=0
shrinkage=0.03


Tree=73
num_leaves=8
num_cat=0
split_feature=2 36 16 8 36 19 3
split_gain=13.466 13.0378 11.1543 7.1541 11.9663 9.43837 6.62428
threshold=0.19008251851324057 -0.00050021672128514039 44.400019216143512 -0.0042093191615039651 -0.01107915424885436 -0.00050610510900012714 0.3505080896121639
decision_type=2 2 2 2 2 2 2
left_child=1 6 -3 4 -2 -5 -1
right_child=3 2 -4 5 -6 -7 -8
leaf_value=0.0049783212857052554 -0.0027277531851247643 0.0019719390429898736 -0.0051398922849539945 -0.0012936653407061569 0.011162851113179516 0.0040200577207748058 -0.00061348860765621347
leaf_weight=458.42467798292637 70.681104764342308 299.423264965415 568.13700337707996 389.95430871844292 228.09984290599823 1249.1962092369795 317.32505226135254
leaf_count=1508 237 1014 1997 1310 729 4219 1066
internal_value=0.0018526 -0.00013664 -0.00266923 0.00354556 0.00783066 0.00274675 0.00267598
internal_weight=3581.24 1643.31 867.56 1937.93 298.781 1639.15 775.75
internal_count=12080 5585 3011 6495 966 5529 2574
is_linear=0
shrinkage=0.03


Tree=74
num_leaves=8
num_cat=0
split_feature=2 31 31 32 40 31 39
split_gain=12.6682 12.6866 8.42253 14.8166 8.19445 6.21859 5.37257
threshold=0.19008251851324057 -0.032244776531849699 0.01463998076283105 0.00049440659876909276 0.83193216191361929 0.021755642646660956 1.0000000180025095e-35
decision_type=2 2 2 2 2 2 2
left_child=1 6 3 -2 -3 -4 -1
right_child=2 4 5 -5 -6 -7 -8
leaf_value=0.0099389368055898923 0.0041969952886315772 -0.00029109151401395618 0.013845340300779021 -0.0024768915143444912 -0.0069467514724800734 0.0050981008781811887 0.00046976823449097017
leaf_weight=141.45341229438782 1037.3198533803225 1217.2336317151785 93.849270477890968 415.95953375101089 192.00575350224972 390.92836533486843 92.261613294482231
leaf_count=456 3465 4145 303 1427 677 1300 307
internal_value=0.00179722 -0.000132261 0.00343909 0.0022757 -0.0012171 0.00687224 0.00630022
internal_weight=3581.01 1642.95 1938.06 1453.28 1409.24 484.778 233.715
internal_count=12080 5585 6495 4892 4822 1603 763
is_linear=0
shrinkage=0.03


Tree=75
num_leaves=8
num_cat=0
split_feature=33 35 33 22 36 19 9
split_gain=15.0829 11.2625 17.1325 9.75497 8.87856 9.55796 8.80032
threshold=0.0030589186173201276 0.0045413423403837258 0.0023710049771370253 -15.866809908591502 0.01129697255931872 -0.00084620852924977648 0.015441656194951083
decision_type=2 2 2 2 2 2 2
left_child=1 2 -1 -3 5 -2 -6
right_child=4 3 -4 -5 6 -7 -8
leaf_value=0.0002423438675966498 0.0020039713733864752 -0.0099376566081997922 0.010008805618867795 -0.001414286646018134 -0.0082900093989591375 0.0080985575799928378 0.0055112938243292477
leaf_weight=1379.3726595193148 455.94964897632599 143.52710784971714 181.69523802399635 761.00137042999268 93.847272872924805 490.1202871799469 70.486864939332008
leaf_count=4751 1506 493 592 2586 325 1603 231
internal_value=0.00116577 -0.000136556 0.00140003 -0.00280223 0.00406606 0.00518757 -0.00228503
internal_weight=3576 2465.6 1561.07 904.528 1110.4 946.07 164.334
internal_count=12087 8422 5343 3079 3665 3109 556
is_linear=0
shrinkage=0.03


Tree=76
num_leaves=8
num_cat=0
split_feature=1 29 0 0 28 36 1
split_gain=11.3449 10.3134 8.45339 15.3819 9.56841 6.67001 3.67448
threshold=0.00048615201615298526 0.71442095956443152 0.00028897290304196485 0.00040342581726757036 0.56835945636061524 -0.00054254405768444636 0.00038336383677765987
decision_type=2 2 2 2 2 2 2
left_child=1 6 4 -4 -2 -3 -1
right_child=2 5 3 -5 -6 -7 -8
leaf_value=-0.0053392217431463421 -0.00030504605525233196 0.0083126348869312274 -0.0090204383938090917 0.00097561209302765377 0.0041261186185767001 -0.0039445668171637256 -0.01549824021649923
leaf_weight=80.772709980607033 616.70821425318718 63.316907703876495 157.91791798174381 1028.8153985738754 1464.0503904670477 99.908544257283211 64.50441786646843
leaf_count=290 2083 211 555 3471 4879 362 236
internal_value=0.00113103 -0.00433707 0.00165424 -0.000354877 0.00280655 0.000762416 -0.010101
internal_weight=3575.99 308.503 3267.49 1186.73 2080.76 163.225 145.277
internal_count=12087 1099 10988 4026 6962 573 526
is_linear=0
shrinkage=0.03


Tree=77
num_leaves=8
num_cat=0
split_feature=1 21 21 8 29 36 3
split_gain=10.6961 11.3795 18.3986 12.4151 9.74178 6.28593 3.69821
threshold=0.00048615201615298526 20.795876255024719 26.566231131146868 -0.0028421415897063591 0.71442095956443152 -0.00054254405768444636 0.1147192269709754
decision_type=2 2 2 2 2 2 2
left_child=4 3 -3 -2 6 -6 -1
right_child=1 2 -4 -5 5 -7 -8
leaf_value=-0.0037505401920327227 0.010896322058557832 -0.0038855620978853053 0.0022261571742607654 0.0025505048879536606 0.0080670661185392352 -0.0038311417722749572 -0.013963105418422795
leaf_weight=61.864982396364212 188.80422139167786 663.97083726525307 1322.608608931303 1092.0429949015379 63.34740649163723 99.840707540512085 83.240099877119064
leaf_count=220 607 2272 4427 3682 211 362 306
internal_value=0.00109645 0.00160442 0.000174052 0.00380749 -0.00421456 0.000738526 -0.00982117
internal_weight=3575.72 3267.43 1986.58 1280.85 308.293 163.188 145.105
internal_count=12087 10988 6699 4289 1099 573 526
is_linear=0
shrinkage=0.03


Tree=78
num_leaves=8
num_cat=0
split_feature=23 27 21 40 31 21 36
split_gain=11.1557 22.6488 17.3711 19.1812 13.9781 12.4936 12.3759
threshold=0.0016461751319065503 -0.0069507973549126243 20.392912290585063 0.79522809408893302 -0.0043411527867057847 26.299738956624861 -0.0036383554966418204
decision_type=2 2 2 2 2 2 2
left_child=1 6 3 -2 -3 -4 -1
right_child=2 4 5 -5 -6 -7 -8
leaf_value=0.0014391208812331029 0.012375224453428309 0.0046827273433738513 -0.0048548925394419741 -0.0055471428762341353 -0.00068412863212302763 0.0031948842828329075 -0.011109654423365253
leaf_weight=97.435982719063759 283.58791074156761 641.79240646958351 230.16215696930885 63.693183958530426 1346.4659251272678 677.47825695574284 234.66459186375141
leaf_count=322 907 2128 780 218 4656 2238 838
internal_value=0.00106353 -0.000163188 0.00334033 0.00903228 0.00104367 0.00113092 -0.00739646
internal_weight=3575.28 2320.36 1254.92 347.281 1988.26 907.64 332.101
internal_count=12087 7944 4143 1125 6784 3018 1160
is_linear=0
shrinkage=0.03


Tree=79
num_leaves=6
num_cat=0
split_feature=38 40 22 34 1
split_gain=10.6203 22.9677 22.6522 22.1485 10.8962
threshold=0.78656609248549303 0.19536023488828405 29.409772356440374 0.0026159529369272909 0.00047716407970318337
decision_type=2 2 2 2 2
left_child=2 -2 4 -3 -1
right_child=1 3 -4 -5 -6
leaf_value=-0.003750339449974523 0.010196811678615037 -0.0074310150663652466 -0.015004605562126183 0.0062735711246551407 0.0028745570519382977
leaf_weight=241.42642132937908 111.51815685629845 486.60892674326897 67.696648851037025 132.7694823294878 2534.5718103349209
leaf_count=859 363 1698 248 443 8476
internal_value=0.0010317 -0.00218019 0.00186345 -0.00445843 0.00229071
internal_weight=3574.59 730.897 2843.69 619.378 2776
internal_count=12087 2504 9583 2141 9335
is_linear=0
shrinkage=0.03


Tree=80
num_leaves=6
num_cat=0
split_feature=37 31 1 24 38
split_gain=13.5702 14.562 17.4554 10.6058 9.29471
threshold=0.60355339059327384 -0.34950111027545305 0.0028914304221908231 1.1829659750550359 -0.5
decision_type=2 2 2 2 2
left_child=1 -1 -3 4 -2
right_child=3 2 -4 -5 -6
leaf_value=-0.012279670397191427 -0.0087438934388628462 0.0013093488948577826 0.0094416414783922015 -0.013561003611569127 -0.0002081972780729484
leaf_weight=61.904249846935272 132.01609417796135 2200.1413436830044 265.70243175327778 67.883478581905365 831.13797506690025
leaf_count=215 462 7430 859 242 2844
internal_value=0.000642619 0.00182872 0.00219865 -0.00224868 -0.00140939
internal_weight=3558.79 2527.75 2465.84 1031.04 963.154
internal_count=12052 8504 8289 3548 3306
is_linear=0
shrinkage=0.03


Tree=81
num_leaves=5
num_cat=0
split_feature=40 23 27 40
split_gain=14.2173 14.2024 15.8262 6.42987
threshold=0.052052555276775325 0.0026927152168618952 -0.013079742279329093 0.76903953328521102
decision_type=2 2 2 2
left_child=-1 2 -2 -3
right_child=1 3 -4 -5
leaf_value=0.013513445473869762 -0.0094892772520292455 0.011919171178023059 0.00031723987163254547 0.0008705506397782537
leaf_weight=73.431352853775024 153.43411791324615 130.62408004701138 3122.0788610130548 79.081824377179146
leaf_count=234 531 416 10609 262
internal_value=0.000622588 0.00033909 -0.000143058 0.00787108
internal_weight=3558.65 3485.22 3275.51 209.706
internal_count=12052 11818 11140 678
is_linear=0
shrinkage=0.03


Tree=82
num_leaves=5
num_cat=0
split_feature=40 23 27 40
split_gain=13.4351 13.3968 14.8999 6.07904
threshold=0.052052555276775325 0.0026927152168618952 -0.013079742279329093 0.71821795529977039
decision_type=2 2 2 2
left_child=-1 2 -2 -3
right_child=1 3 -4 -5
leaf_value=0.013151677340316763 -0.0092066257755357202 0.012259586873138498 0.00030772549587392624 0.0017781397500876567
leaf_weight=73.245580390095711 153.46130181849003 114.67985685169697 3122.1115560531616 94.825986132025719
leaf_count=234 531 365 10609 313
internal_value=0.000604528 0.000329133 -0.000138793 0.0076481
internal_weight=3558.32 3485.08 3275.57 209.506
internal_count=12052 11818 11140 678
is_linear=0
shrinkage=0.03


Tree=83
num_leaves=7
num_cat=0
split_feature=37 1 35 33 30 3
split_gain=12.6003 11.4179 10.8002 11.6547 9.14824 4.6833
threshold=0.60355339059327384 0.0028914304221908231 0.0088595801686587924 0.0022411760980329243 0.098745810640896783 0.056171727080994611
decision_type=2 2 2 2 2 2
left_child=1 4 3 -2 -1 -3
right_child=2 5 -4 -5 -6 -7
leaf_value=0.0055520607216980808 -0.0037438903315142342 0.00036887199526198708 -0.014563796485261963 0.0031923677818764822 0.00018575968348953501 0.0095476026275301811
leaf_weight=335.83040530979633 648.68630467355251 69.697751268744469 58.162000969052315 324.06578285992146 1906.2522734105587 215.29076562821865
leaf_count=1116 2260 233 207 1081 6460 695
internal_value=0.000587031 0.00173035 -0.00219899 -0.00141593 0.00100047 0.0073733
internal_weight=3557.99 2527.07 1030.91 972.752 2242.08 284.989
internal_count=12052 8504 3548 3341 7576 928
is_linear=0
shrinkage=0.03


Tree=84
num_leaves=5
num_cat=0
split_feature=40 38 40 38
split_gain=12.5836 11.1246 20.8042 14.5354
threshold=0.052052555276775325 -0.70710678118654757 0.34881410451629441 -0.37940952255126015
decision_type=2 2 2 2
left_child=-1 2 -2 -3
right_child=1 3 -4 -5
leaf_value=0.012731831191506903 -0.0032815868716316796 -0.0057681563284858678 0.0065044507439334731 0.00030369662809100081
leaf_weight=73.01382477581501 289.96997539699078 420.5699046254158 582.58994989097118 2191.4640374183655
leaf_count=234 978 1453 1934 7453
internal_value=0.000569746 0.000303451 0.00323513 -0.000671874
internal_weight=3557.61 3484.59 872.56 2612.03
internal_count=12052 11818 2912 8906
is_linear=0
shrinkage=0.03


Tree=85
num_leaves=7
num_cat=0
split_feature=23 10 23 31 23 26
split_gain=14.9315 31.2825 9.96636 7.97664 14.1132 6.98129
threshold=0.0008374725851287829 66.502734149869454 0.00074008133657179329 -0.23535063102471032 0.0029209306613445928 0.16667885957587922
decision_type=2 2 2 2 2 2
left_child=1 2 -1 -2 -5 -3
right_child=3 5 -4 4 -6 -7
leaf_value=0.0039303931024547469 -0.0056726329192578846 -0.022682076504204639 -0.006916177240502989 0.001903960303976081 0.01187695449789011 -0.0082383384331006244
leaf_weight=277.38039536774158 112.68993639945984 66.968583405017853 102.42336528003216 2853.5517877042294 132.58754087984562 67.78446501493454
leaf_count=962 383 262 362 9565 423 249
internal_value=0.00126995 -0.00344279 0.000945156 0.00205905 0.00235944 -0.0157529
internal_weight=3613.39 514.557 379.804 3098.83 2986.14 134.753
internal_count=12206 1835 1324 10371 9988 511
is_linear=0
shrinkage=0.03


Tree=86
num_leaves=8
num_cat=0
split_feature=23 10 2 23 31 1 7
split_gain=14.0817 29.6001 9.91724 9.38777 9.2319 6.80605 4.57552
threshold=0.0008374725851287829 66.502734149869454 0.63588631790718986 0.00074008133657179329 -0.23535063102471032 0.00082618505008484361 0.00063466280263457808
decision_type=2 2 2 2 2 2 2
left_child=1 3 4 -1 -2 -4 -3
right_child=2 6 5 -5 -6 -7 -8
leaf_value=0.0038114257046275289 -0.0071955211010534589 -0.0076817639489801769 0.015372779035263478 -0.0067166257203396954 0.0017996416758778071 0.0044511926815234207 -0.019977363088004706
leaf_weight=277.51751303672791 104.18717215955257 53.834429085254669 71.337121024727821 102.36273247003555 2718.7374387681484 204.47408224642277 80.500895574688911
leaf_count=962 356 198 229 362 9109 677 313
internal_value=0.00123129 -0.00334678 0.0019975 0.000914933 0.00145748 0.00742033 -0.0153449
internal_weight=3612.95 514.216 3098.74 379.88 2822.92 275.811 134.335
internal_count=12206 1835 10371 1324 9465 906 511
is_linear=0
shrinkage=0.03


Tree=87
num_leaves=5
num_cat=0
split_feature=40 9 17 1
split_gain=12.7291 12.3587 15.3455 7.25653
threshold=0.052052555276775325 -0.0094680132827358859 -100.9598567143735 0.0019086622239435998
decision_type=2 2 2 2
left_child=-1 3 -3 -2
right_child=1 2 -4 -5
leaf_value=0.013166792674018121 -0.012989466879353885 0.011411502672034599 0.00091771353715218603 -0.00055557857493303752
leaf_weight=76.387262150645256 85.034157544374466 128.89959938824177 3234.768925845623 87.592795521020889
leaf_count=245 295 411 10963 292
internal_value=0.00119402 0.000923859 0.00133085 -0.00684489
internal_weight=3612.68 3536.3 3363.67 172.627
internal_count=12206 11961 11374 587
is_linear=0
shrinkage=0.03


Tree=88
num_leaves=5
num_cat=0
split_feature=40 21 21 40
split_gain=12.0357 7.73096 13.4696 4.9641
threshold=0.052052555276775325 48.031228482155662 40.874456706329404 0.24281277859632336
decision_type=2 2 2 2
left_child=-1 2 -2 -3
right_child=1 3 -4 -5
leaf_value=0.012817061027513866 0.0007158199466266702 0.00030305451011138507 0.0089115093057926288 -0.010899549147270071
leaf_weight=76.175273165106773 3209.0993160903454 59.41470693051815 189.8654709905386 77.972806811332703
leaf_count=245 10868 197 620 276
internal_value=0.00115846 0.000895989 0.00118301 -0.00601241
internal_weight=3612.53 3536.35 3398.96 137.388
internal_count=12206 11961 11488 473
is_linear=0
shrinkage=0.03


Tree=89
num_leaves=7
num_cat=0
split_feature=23 10 38 40 9 26
split_gain=13.156 27.9753 18.0852 10.5683 14.2074 6.48892
threshold=0.0008374725851287829 66.502734149869454 1.0000000180025095e-35 0.052052555276775325 -0.0094680132827358859 0.16667885957587922
decision_type=2 2 2 2 2 2
left_child=1 2 -1 -2 -5 -3
right_child=3 5 -4 4 -6 -7
leaf_value=0.0075508557146115058 0.012952330207429311 -0.021702792333042772 -0.0054650700122742526 -0.0067073275972807829 0.0020921294974072593 -0.0077393221134627061
leaf_weight=184.88933005928993 73.895965367555618 66.38409623503685 195.11837734282017 172.66283529996872 2851.7832947969437 67.5733782351017
leaf_count=624 238 262 700 587 9546 249
internal_value=0.00112423 -0.0033019 0.000834823 0.00186495 0.00158072 -0.0149869
internal_weight=3612.31 513.965 380.008 3098.34 3024.45 133.957
internal_count=12206 1835 1324 10371 10133 511
is_linear=0
shrinkage=0.03


Tree=90
num_leaves=8
num_cat=0
split_feature=17 35 40 33 19 40 18
split_gain=13.967 20.2135 34.9 16.6371 8.40085 16.3394 12.8194
threshold=-16.697670167045079 0.0045413423403837258 0.32521102273979835 0.0057840675082474202 -0.00082505276349768006 0.64400165559824341 -0.00070678200978755768
decision_type=2 2 2 2 2 2 2
left_child=1 2 -1 -3 5 -2 -6
right_child=4 3 -4 -5 6 -7 -8
leaf_value=-0.00052228940053058678 0.0003822951996479278 -0.001228438303117889 0.014902459384229403 0.011256780718083581 0.010032085053759089 -0.013039600458872019 -0.00045764224024718501
leaf_weight=240.77760988473892 199.8431571573019 748.23817676305771 285.11467030644417 108.07200554013252 109.37092496454716 133.50269907712936 1777.4815241396427
leaf_count=803 667 2498 902 348 353 467 6148
internal_value=0.000851051 0.00321799 0.00783666 0.000352361 -0.000617326 -0.00499406 0.000152429
internal_weight=3602.4 1382.2 525.892 856.31 2220.2 333.346 1886.85
internal_count=12186 4551 1705 2846 7635 1134 6501
is_linear=0
shrinkage=0.03


Tree=91
num_leaves=7
num_cat=0
split_feature=40 23 15 21 36 36
split_gain=12.1036 16.3393 13.7863 8.8464 19.3896 16.1754
threshold=0.7243235893492288 0.0027574510445762513 13.109264621883819 32.916133244862429 0.012596398252107789 0.0068517690304286125
decision_type=2 2 2 2 2 2
left_child=1 2 -1 5 -5 -2
right_child=3 -3 -4 4 -6 -7
leaf_value=0.0087412318250601837 -0.001398259634389007 0.013032481156265784 0.00071090518172044008 0.0088776896458310078 -0.0072150108601439344 -0.012486548593132665
leaf_weight=209.28722907602787 610.39815956354141 112.41206353902817 2244.3394114226103 171.60002483427525 107.46038004755974 146.44901770353317
leaf_count=679 2099 359 7588 573 370 518
internal_value=0.000825878 0.00193335 0.00140854 -0.00190142 0.00262011 -0.00359085
internal_weight=3601.95 2566.04 2453.63 1035.91 279.06 756.847
internal_count=12186 8626 8267 3560 943 2617
is_linear=0
shrinkage=0.03


Tree=92
num_leaves=7
num_cat=0
split_feature=3 3 22 27 22 21
split_gain=10.036 18.5118 14.1268 12.3832 9.64878 10.649
threshold=0.00089086877356224145 0.12087912087893714 7.2461964142038839 -0.0020510200062249079 13.550176934205995 16.878268660737316
decision_type=2 2 2 2 2 2
left_child=4 2 -2 -3 5 -1
right_child=1 3 -4 -5 -6 -7
leaf_value=-0.0089801194260531077 0.0079448085620462319 0.00050220509306126478 -3.9021020303371041e-06 -0.0094576071938887955 -0.011478601614819202 0.0023394575682540901
leaf_weight=103.6562505364418 562.21028129756451 2160.34208548069 306.93446619808674 116.50372342765331 100.21545903384686 251.63183760643005
leaf_count=366 1840 7289 1059 428 361 843
internal_value=0.000801383 0.00140773 0.00512697 -8.69846e-06 -0.00334147 -0.000952858
internal_weight=3601.49 3145.99 869.145 2276.85 455.504 355.288
internal_count=12186 10616 2899 7717 1570 1209
is_linear=0
shrinkage=0.03


Tree=93
num_leaves=8
num_cat=0
split_feature=3 3 26 27 36 8 23
split_gain=9.45523 17.4228 12.8521 11.6794 10.5608 10.477 8.40798
threshold=0.00089086877356224145 0.12087912087893714 0.32648033418763001 -0.0020510200062249079 0.00053750279752684549 0.00069306292618864795 0.0016296509602170043
decision_type=2 2 2 2 2 2 2
left_child=4 2 -2 -3 6 -6 -1
right_child=1 3 -4 -5 5 -7 -8
leaf_value=0.0045743227082944288 0.00020163287435177724 0.00048715272764946496 0.0077862108154550776 -0.0091920377587292063 -0.017643839021074109 -0.0033747921559852865 -0.0081506676378960367
leaf_weight=172.97593866288662 324.98971442878246 2160.3426874727011 544.02386680245399 116.33396144211292 67.625692412257195 153.33676546812057 61.392520233988762
leaf_count=577 1116 7289 1783 428 247 536 210
internal_value=0.000776865 0.00136546 0.00497396 -8.48699e-06 -0.00324489 -0.00792821 0.00113681
internal_weight=3601.02 3145.69 869.014 2276.68 455.331 220.962 234.368
internal_count=12186 10616 2899 7717 1570 783 787
is_linear=0
shrinkage=0.03


Tree=94
num_leaves=8
num_cat=0
split_feature=17 36 17 20 7 27 15
split_gain=12.1421 14.8266 13.4813 11.7419 20.737 9.47299 6.64273
threshold=-16.697670167045079 -0.01074893337727517 -103.26883526237836 -0.00037209302400531216 -0.0034992533850943803 -0.002789621926761202 27.301616254879885
decision_type=2 2 2 2 2 2 2
left_child=1 6 -3 4 -2 -5 -1
right_child=3 2 -4 5 -6 -7 -8
leaf_value=0.0012940261902291683 0.0032598587658078135 0.013439206416136941 0.0031278769330754146 0.0011282889213865941 -0.015354578649557138 -0.004023606185543099 -0.0091706267060807922
leaf_weight=98.522714540362358 92.676310703158379 128.09958857297897 1040.7749388217926 1606.6119976490736 121.21464256942272 399.19141815602779 113.53907984495163
leaf_count=328 305 406 3428 5460 430 1440 389
internal_value=0.000753085 0.00296154 0.00429176 -0.000615537 -0.00726421 9.25105e-05 -0.00427207
internal_weight=3600.63 1380.94 1168.87 2219.69 213.891 2005.8 212.062
internal_count=12186 4551 3834 7635 735 6900 717
is_linear=0
shrinkage=0.03


Tree=95
num_leaves=5
num_cat=0
split_feature=35 17 27 38
split_gain=11.8351 9.10677 17.6854 13.7926
threshold=0.01673867960213268 -16.697670167045079 -0.0032478323491767613 0.25881904510252057
decision_type=2 2 2 2
left_child=1 2 -1 -3
right_child=-2 3 -4 -5
leaf_value=0.001433407033496576 0.01293415808608453 0.0016410936440487806 0.011763342710657229 -0.0032262424053122276
leaf_weight=1153.4999585747719 72.542376443743706 1264.6403818130493 170.49662366509438 890.31799198687077
leaf_count=3819 231 4291 546 3118
internal_value=0.00109172 0.000833185 0.00279068 -0.000364012
internal_weight=3551.5 3478.95 1324 2154.96
internal_count=12005 11774 4365 7409
is_linear=0
shrinkage=0.03


Tree=96
num_leaves=5
num_cat=0
split_feature=35 15 37 9
split_gain=11.1727 12.1015 11.0246 8.94622
threshold=0.01673867960213268 12.829673362402984 -0.60355339059327362 -0.011984987206298701
decision_type=2 2 2 2
left_child=1 2 -1 -3
right_child=-2 3 -4 -5
leaf_value=0.017923417277482187 0.012574817785950128 -0.0092372841156791903 0.0032345608621732911 0.00058708251331399596
leaf_weight=63.099033713340759 72.435683146119118 83.577644526958466 173.5247155725956 3158.3444680720568
leaf_count=199 231 287 574 10714
internal_value=0.0010598 0.000808615 0.0073318 0.000323645
internal_weight=3550.98 3478.55 236.624 3241.92
internal_count=12005 11774 773 11001
is_linear=0
shrinkage=0.03


Tree=97
num_leaves=7
num_cat=0
split_feature=15 38 27 3 1 3
split_gain=9.84212 17.1068 9.53999 6.3971 9.23797 8.11959
threshold=12.829673362402984 -0.37940952255126015 -0.0056586521635873287 0.48532173951399166 0.0022913173669095871 0.30580226307188352
decision_type=2 2 2 2 2 2
left_child=1 -1 -3 5 -5 -2
right_child=3 2 -4 4 -6 -7
leaf_value=-0.0037505277155093688 0.0008283162162996138 0.0057875127696881013 0.020920730666028446 0.0019220359100878394 0.013143827717292217 -0.0031498009796337221
leaf_weight=87.182078167796135 2081.2517240792513 92.189074754714966 68.932445749640465 556.01409022510052 74.112877786159515 591.10909293591976
leaf_count=296 7047 302 215 1886 236 2023
internal_value=0.00102876 0.00677018 0.012531 0.0005887 0.00330304 -4.77065e-05
internal_weight=3550.79 248.304 161.122 3302.49 630.127 2672.36
internal_count=12005 813 517 11192 2122 9070
is_linear=0
shrinkage=0.03


Tree=98
num_leaves=5
num_cat=0
split_feature=35 15 27 2
split_gain=10.5272 10.7971 11.3444 11.0644
threshold=0.01673867960213268 12.829673362402984 -0.013079742279329093 0.30657643618700742
decision_type=2 2 2 2
left_child=1 3 -3 -1
right_child=-2 2 -4 -5
leaf_value=0.0014816615657028162 0.012185880632894639 -0.0062485729485911986 0.00078121102897014266 0.014824831001096191
leaf_weight=142.53532561659813 72.307817727327347 219.54691076278687 3022.4664892554283 93.807580024003983
leaf_count=475 231 750 10251 298
internal_value=0.000998795 0.00075506 0.000296976 0.00692063
internal_weight=3550.66 3478.36 3242.01 236.343
internal_count=12005 11774 11001 773
is_linear=0
shrinkage=0.03


Tree=99
num_leaves=5
num_cat=0
split_feature=40 30 28 30
split_gain=10.2769 8.73511 11.8248 10.6973
threshold=0.052052555276775325 0.96630808790816192 0.51364156028026742 0.99651971689271834
decision_type=2 2 2 2
left_child=-1 2 -2 -3
right_child=1 3 -4 -5
leaf_value=0.011994123995078269 -0.002931210338403998 0.013580314370581707 0.0013010987560043341 0.0018104308129620811
leaf_weight=72.68436461687088 793.2588936239481 97.576643168926239 2341.3125775307417 245.67875842750072
leaf_count=236 2713 318 7895 843
internal_value=0.000969531 0.000728053 0.000224069 0.00525897
internal_weight=3550.51 3477.83 3134.57 343.255
internal_count=12005 11769 10608 1161
is_linear=0
shrinkage=0.03


Tree=100
num_leaves=7
num_cat=0
split_feature=27 35 36 21 36 36
split_gain=10.8567 17.8822 15.307 14.3667 10.132 9.50294
threshold=-0.0047920570559094764 0.0045413423403837258 -0.001100367803108959 14.648062145420022 -0.01074893337727517 0.0016849119865949282
decision_type=2 2 2 2 2 2
left_child=3 2 -2 -1 -5 -3
right_child=1 5 -4 4 -6 -7
leaf_value=0.013019849224472999 0.0045136801899203841 -0.012444118978755653 -0.0022478938522917124 -0.0051209965380854669 0.002188447393095443 -0.00056469959833323983
leaf_weight=100.44779898226261 468.97822773456573 173.13607338070869 833.6051145195961 186.72236478328705 1705.171886280179 97.139753147959709
leaf_count=322 1550 603 2934 634 5697 331
internal_value=0.000584649 -0.0012718 0.000178213 0.00205755 0.00145447 -0.00826514
internal_weight=3565.2 1572.86 1302.58 1992.34 1891.89 270.276
internal_count=12071 5418 4484 6653 6331 934
is_linear=0
shrinkage=0.03


Tree=101
num_leaves=8
num_cat=0
split_feature=37 14 19 37 31 31 31
split_gain=9.49869 24.0628 12.3753 17.7333 12.6863 10.3496 7.57374
threshold=-0.60355339059327362 28.082467250604935 0.0023809539463322702 -0.5 0.080482687300768158 0.015740192927212921 0.0051926086922609868
decision_type=2 2 2 2 2 2 2
left_child=1 6 3 -2 -4 -3 -1
right_child=2 5 4 -5 -6 -7 -8
leaf_value=0.005370847082777264 -0.012106768291396924 -0.0056850947596949362 0.0097223872616432842 -0.00050169259933035128 -0.0046646714875710421 0.0032822576748649805 0.014417783671260113
leaf_weight=468.41632957756519 123.79452759027481 280.89336249232292 192.06632013618946 2128.5402583479881 74.072863027453423 192.28729562461376 104.8845180273056
leaf_count=1546 439 979 636 7241 257 640 333
